<?xml version="1.0"?>
<MethodSetup Method="BDT::BDT">
  <GeneralInfo>
    <Info name="TMVA Release" value="4.2.1 [262657]"/>
    <Info name="ROOT Release" value="6.10/04 [395780]"/>
    <Info name="Creator" value="marine5575"/>
    <Info name="Date" value="Wed Oct  9 01:11:01 2019"/>
    <Info name="Host" value="Linux htop.hanyang.ac.kr 2.6.32-696.el6.centos.plus.x86_64 #1 SMP Mon Apr 3 14:56:08 UTC 2017 x86_64 x86_64 x86_64 GNU/Linux"/>
    <Info name="Dir" value="/home/marine5575/work/Undergrad2018/mva"/>
    <Info name="Training events" value="65134"/>
    <Info name="TrainingTime" value="8.96652722e+00"/>
    <Info name="AnalysisType" value="Classification"/>
  </GeneralInfo>
  <Options>
    <Option name="V" modified="Yes">False</Option>
    <Option name="VerbosityLevel" modified="No">Default</Option>
    <Option name="VarTransform" modified="No">None</Option>
    <Option name="H" modified="Yes">False</Option>
    <Option name="CreateMVAPdfs" modified="No">False</Option>
    <Option name="IgnoreNegWeightsInTraining" modified="No">False</Option>
    <Option name="NTrees" modified="Yes">100</Option>
    <Option name="MaxDepth" modified="Yes">4</Option>
    <Option name="MinNodeSize" modified="Yes">5%</Option>
    <Option name="nCuts" modified="Yes">10</Option>
    <Option name="BoostType" modified="Yes">Grad</Option>
    <Option name="AdaBoostR2Loss" modified="No">quadratic</Option>
    <Option name="UseBaggedBoost" modified="No">False</Option>
    <Option name="Shrinkage" modified="Yes">5.000000e-01</Option>
    <Option name="AdaBoostBeta" modified="No">5.000000e-01</Option>
    <Option name="UseRandomisedTrees" modified="No">False</Option>
    <Option name="UseNvars" modified="No">3</Option>
    <Option name="UsePoissonNvars" modified="No">True</Option>
    <Option name="BaggedSampleFraction" modified="No">6.000000e-01</Option>
    <Option name="UseYesNoLeaf" modified="No">True</Option>
    <Option name="NegWeightTreatment" modified="No">pray</Option>
    <Option name="Css" modified="No">1.000000e+00</Option>
    <Option name="Cts_sb" modified="No">1.000000e+00</Option>
    <Option name="Ctb_ss" modified="No">1.000000e+00</Option>
    <Option name="Cbb" modified="No">1.000000e+00</Option>
    <Option name="NodePurityLimit" modified="No">5.000000e-01</Option>
    <Option name="SeparationType" modified="Yes">giniindex</Option>
    <Option name="RegressionLossFunctionBDTG" modified="No">huber</Option>
    <Option name="HuberQuantile" modified="No">7.000000e-01</Option>
    <Option name="DoBoostMonitor" modified="No">False</Option>
    <Option name="UseFisherCuts" modified="No">False</Option>
    <Option name="MinLinCorrForFisher" modified="No">8.000000e-01</Option>
    <Option name="UseExclusiveVars" modified="No">False</Option>
    <Option name="DoPreselection" modified="No">False</Option>
    <Option name="SigToBkgFraction" modified="No">1.000000e+00</Option>
    <Option name="PruneMethod" modified="No">nopruning</Option>
    <Option name="PruneStrength" modified="No">0.000000e+00</Option>
    <Option name="PruningValFraction" modified="No">5.000000e-01</Option>
    <Option name="SkipNormalization" modified="No">False</Option>
    <Option name="nEventsMin" modified="No">0</Option>
    <Option name="UseBaggedGrad" modified="No">False</Option>
    <Option name="GradBaggingFraction" modified="No">6.000000e-01</Option>
    <Option name="UseNTrainEvents" modified="No">0</Option>
    <Option name="NNodesMax" modified="No">0</Option>
  </Options>
  <Variables NVar="11">
    <Variable VarIndex="0" Expression="lepton1_pt" Label="lepton1_pt" Title="lepton1_pt" Unit="" Internal="lepton1_pt" Type="F" Min="3.00022736e+01" Max="8.75963501e+02"/>
    <Variable VarIndex="1" Expression="met_pt" Label="met_pt" Title="met_pt" Unit="" Internal="met_pt" Type="F" Min="1.74064294e-01" Max="8.15994019e+02"/>
    <Variable VarIndex="2" Expression="tau1_pt" Label="tau1_pt" Title="tau1_pt" Unit="" Internal="tau1_pt" Type="F" Min="3.00001526e+01" Max="1.04004150e+03"/>
    <Variable VarIndex="3" Expression="jet_ht" Label="jet_ht" Title="jet_ht" Unit="" Internal="jet_ht" Type="F" Min="9.50174484e+01" Max="3.01939990e+03"/>
    <Variable VarIndex="4" Expression="jetlepmet_ht" Label="jetlepmet_ht" Title="jetlepmet_ht" Unit="" Internal="jetlepmet_ht" Type="F" Min="1.55109497e+02" Max="3.28848584e+03"/>
    <Variable VarIndex="5" Expression="lep1met_pt" Label="lep1met_pt" Title="lep1met_pt" Unit="" Internal="lep1met_pt" Type="F" Min="2.11814135e-01" Max="8.79103882e+02"/>
    <Variable VarIndex="6" Expression="lep1tau1_pt" Label="lep1tau1_pt" Title="lep1tau1_pt" Unit="" Internal="lep1tau1_pt" Type="F" Min="1.70619458e-01" Max="1.25681885e+03"/>
    <Variable VarIndex="7" Expression="tau1_lep1_dr" Label="tau1_lep1_dr" Title="tau1_lep1_dr" Unit="" Internal="tau1_lep1_dr" Type="F" Min="3.90903234e-01" Max="5.55509949e+00"/>
    <Variable VarIndex="8" Expression="lep1_met_dphi" Label="lep1_met_dphi" Title="lep1_met_dphi" Unit="" Internal="lep1_met_dphi" Type="F" Min="-3.14144611e+00" Max="3.14149642e+00"/>
    <Variable VarIndex="9" Expression="tau1_met_dphi" Label="tau1_met_dphi" Title="tau1_met_dphi" Unit="" Internal="tau1_met_dphi" Type="F" Min="-3.14148164e+00" Max="3.14157343e+00"/>
    <Variable VarIndex="10" Expression="tau1lep1_met_dphi" Label="tau1lep1_met_dphi" Title="tau1lep1_met_dphi" Unit="" Internal="tau1lep1_met_dphi" Type="F" Min="-3.14146352e+00" Max="3.14153147e+00"/>
  </Variables>
  <Spectators NSpec="2">
    <Spectator SpecIndex="0" Expression="njet" Label="njet" Title="njet" Unit="" Internal="njet" Type="F" Min="3.00000000e+00" Max="1.20000000e+01"/>
    <Spectator SpecIndex="1" Expression="nbjet" Label="nbjet" Title="nbjet" Unit="" Internal="nbjet" Type="F" Min="0.00000000e+00" Max="6.00000000e+00"/>
  </Spectators>
  <Classes NClass="2">
    <Class Name="Signal" Index="0"/>
    <Class Name="Background" Index="1"/>
  </Classes>
  <Transformations NTransformations="0"/>
  <MVAPdfs/>
  <Weights NTrees="100" AnalysisType="1">
    <BinaryTree type="DecisionTree" boostWeight="1.0000000000000000e+00" itree="0">
      <Node pos="s" depth="0" NCoef="0" IVar="1" Cut="7.4339515686035156e+01" cType="1" res="-4.8767858410695298e-15" rms="5.0000000000000000e-01" purity="5.0000000000000000e-01" nType="0">
        <Node pos="l" depth="1" NCoef="0" IVar="1" Cut="3.3885189056396484e+01" cType="1" res="8.2750134170055389e-02" rms="4.9310487508773804e-01" purity="5.8275014162063599e-01" nType="0">
          <Node pos="l" depth="2" NCoef="0" IVar="7" Cut="1.8069182634353638e+00" cType="1" res="2.1214011311531067e-01" rms="4.5276546478271484e-01" purity="7.1214008331298828e-01" nType="0">
            <Node pos="l" depth="3" NCoef="0" IVar="1" Cut="2.1625640869140625e+01" cType="1" res="2.8331741690635681e-01" rms="4.1198453307151794e-01" purity="7.8331738710403442e-01" nType="0">
              <Node pos="l" depth="4" NCoef="0" IVar="-1" Cut="0.0000000000000000e+00" cType="1" res="2.7822810411453247e-01" rms="3.8212433457374573e-01" purity="8.2246088981628418e-01" nType="-99"/>
              <Node pos="r" depth="4" NCoef="0" IVar="-1" Cut="0.0000000000000000e+00" cType="1" res="2.0840875804424286e-01" rms="4.4158849120140076e-01" purity="7.3451995849609375e-01" nType="-99"/>
            </Node>
            <Node pos="r" depth="3" NCoef="0" IVar="4" Cut="4.2047268676757812e+02" cType="1" res="1.5843498706817627e-01" rms="4.7423449158668518e-01" purity="6.5843498706817627e-01" nType="0">
              <Node pos="l" depth="4" NCoef="0" IVar="-1" Cut="0.0000000000000000e+00" cType="1" res="2.0008683204650879e-01" rms="4.4682720303535461e-01" purity="7.2437793016433716e-01" nType="-99"/>
              <Node pos="r" depth="4" NCoef="0" IVar="-1" Cut="0.0000000000000000e+00" cType="1" res="1.8947603181004524e-02" rms="4.9960929155349731e-01" purity="5.1976257562637329e-01" nType="-99"/>
            </Node>
          </Node>
          <Node pos="r" depth="2" NCoef="0" IVar="7" Cut="1.7175976037979126e+00" cType="1" res="-4.3882083147764206e-02" rms="4.9807062745094299e-01" purity="4.5611792802810669e-01" nType="0">
            <Node pos="l" depth="3" NCoef="0" IVar="6" Cut="1.0271027374267578e+02" cType="1" res="6.4157068729400635e-02" rms="4.9586677551269531e-01" purity="5.6415706872940063e-01" nType="0">
              <Node pos="l" depth="4" NCoef="0" IVar="-1" Cut="0.0000000000000000e+00" cType="1" res="-7.4262511916458607e-03" rms="4.9994120001792908e-01" purity="4.9233239889144897e-01" nType="-99"/>
              <Node pos="r" depth="4" NCoef="0" IVar="-1" Cut="0.0000000000000000e+00" cType="1" res="1.0364034771919250e-01" rms="4.8735186457633972e-01" purity="6.1175048351287842e-01" nType="-99"/>
            </Node>
            <Node pos="r" depth="3" NCoef="0" IVar="4" Cut="4.0585571289062500e+02" cType="1" res="-1.0493750125169754e-01" rms="4.8886412382125854e-01" purity="3.9506250619888306e-01" nType="0">
              <Node pos="l" depth="4" NCoef="0" IVar="-1" Cut="0.0000000000000000e+00" cType="1" res="-2.8931200504302979e-02" rms="4.9912139773368835e-01" purity="4.7037190198898315e-01" nType="-99"/>
              <Node pos="r" depth="4" NCoef="0" IVar="-1" Cut="0.0000000000000000e+00" cType="1" res="-1.8454335629940033e-01" rms="4.6706536412239075e-01" purity="3.2153445482254028e-01" nType="-99"/>
            </Node>
          </Node>
        </Node>
        <Node pos="r" depth="1" NCoef="0" IVar="7" Cut="1.3321570158004761e+00" cType="1" res="-2.3263034224510193e-01" rms="4.4258686900138855e-01" purity="2.6736965775489807e-01" nType="0">
          <Node pos="l" depth="2" NCoef="0" IVar="-1" Cut="0.0000000000000000e+00" cType="1" res="-7.6646707952022552e-02" rms="4.9401998519897461e-01" purity="4.2290100455284119e-01" nType="-99"/>
          <Node pos="r" depth="2" NCoef="0" IVar="5" Cut="1.6135186767578125e+02" cType="1" res="-2.7238109707832336e-01" rms="4.1929528117179871e-01" purity="2.2761890292167664e-01" nType="0">
            <Node pos="l" depth="3" NCoef="0" IVar="5" Cut="1.0334864044189453e+02" cType="1" res="-2.1482266485691071e-01" rms="4.5149886608123779e-01" purity="2.8517735004425049e-01" nType="0">
              <Node pos="l" depth="4" NCoef="0" IVar="-1" Cut="0.0000000000000000e+00" cType="1" res="-1.5400135517120361e-01" rms="4.7678840160369873e-01" purity="3.4942501783370972e-01" nType="-99"/>
              <Node pos="r" depth="4" NCoef="0" IVar="-1" Cut="0.0000000000000000e+00" cType="1" res="-2.8389781713485718e-01" rms="4.2392227053642273e-01" purity="2.3487758636474609e-01" nType="-99"/>
            </Node>
            <Node pos="r" depth="3" NCoef="0" IVar="-1" Cut="0.0000000000000000e+00" cType="1" res="-4.2241612076759338e-01" rms="3.2905453443527222e-01" purity="1.2353869527578354e-01" nType="-99"/>
          </Node>
        </Node>
      </Node>
    </BinaryTree>
    <BinaryTree type="DecisionTree" boostWeight="1.0000000000000000e+00" itree="1">
      <Node pos="s" depth="0" NCoef="0" IVar="1" Cut="7.4339515686035156e+01" cType="1" res="7.0215137675404549e-03" rms="4.6812874078750610e-01" purity="5.0000000000000000e-01" nType="0">
        <Node pos="l" depth="1" NCoef="0" IVar="1" Cut="4.0627414703369141e+01" cType="1" res="4.9109518527984619e-02" rms="4.7350102663040161e-01" purity="5.8275014162063599e-01" nType="0">
          <Node pos="l" depth="2" NCoef="0" IVar="1" Cut="2.2238712310791016e+01" cType="1" res="1.1074852943420410e-01" rms="4.5441874861717224e-01" purity="6.8205004930496216e-01" nType="0">
            <Node pos="l" depth="3" NCoef="0" IVar="4" Cut="4.4821197509765625e+02" cType="1" res="1.6407145559787750e-01" rms="4.1808250546455383e-01" purity="7.6365512609481812e-01" nType="0">
              <Node pos="l" depth="4" NCoef="0" IVar="-1" Cut="0.0000000000000000e+00" cType="1" res="1.7351362109184265e-01" rms="3.9932370185852051e-01" purity="7.9848718643188477e-01" nType="-99"/>
              <Node pos="r" depth="4" NCoef="0" IVar="-1" Cut="0.0000000000000000e+00" cType="1" res="9.7494751214981079e-02" rms="4.5435032248497009e-01" purity="6.7990005016326904e-01" nType="-99"/>
            </Node>
            <Node pos="r" depth="3" NCoef="0" IVar="7" Cut="2.2757980823516846e+00" cType="1" res="6.5449655055999756e-02" rms="4.7849932312965393e-01" purity="6.1272484064102173e-01" nType="0">
              <Node pos="l" depth="4" NCoef="0" IVar="-1" Cut="0.0000000000000000e+00" cType="1" res="1.0480666160583496e-01" rms="4.6380192041397095e-01" purity="6.7449706792831421e-01" nType="-99"/>
              <Node pos="r" depth="4" NCoef="0" IVar="-1" Cut="0.0000000000000000e+00" cType="1" res="-2.0786386448889971e-03" rms="4.9114030599594116e-01" purity="5.2357697486877441e-01" nType="-99"/>
            </Node>
          </Node>
          <Node pos="r" depth="2" NCoef="0" IVar="9" Cut="-8.5668873786926270e-01" cType="1" res="-4.6188864856958389e-02" rms="4.8643946647644043e-01" purity="4.2922529578208923e-01" nType="0">
            <Node pos="l" depth="3" NCoef="0" IVar="-1" Cut="0.0000000000000000e+00" cType="1" res="-1.4097942411899567e-01" rms="4.6669635176658630e-01" purity="3.3602872490882874e-01" nType="-99"/>
            <Node pos="r" depth="3" NCoef="0" IVar="9" Cut="5.9736043214797974e-01" cType="1" res="-5.1804529502987862e-03" rms="4.8985916376113892e-01" purity="4.7216525673866272e-01" nType="0">
              <Node pos="l" depth="4" NCoef="0" IVar="-1" Cut="0.0000000000000000e+00" cType="1" res="1.1234184354543686e-01" rms="4.7896128892898560e-01" purity="6.0249251127243042e-01" nType="-99"/>
              <Node pos="r" depth="4" NCoef="0" IVar="-1" Cut="0.0000000000000000e+00" cType="1" res="-1.2074419856071472e-01" rms="4.7233900427818298e-01" purity="3.5536110401153564e-01" nType="-99"/>
            </Node>
          </Node>
        </Node>
        <Node pos="r" depth="1" NCoef="0" IVar="7" Cut="1.7985880374908447e+00" cType="1" res="-1.1129789054393768e-01" rms="4.3121224641799927e-01" purity="2.6736965775489807e-01" nType="0">
          <Node pos="l" depth="2" NCoef="0" IVar="-1" Cut="0.0000000000000000e+00" cType="1" res="-4.9413088709115982e-02" rms="4.7642683982849121e-01" purity="3.7338161468505859e-01" nType="-99"/>
          <Node pos="r" depth="2" NCoef="0" IVar="4" Cut="4.8791793823242188e+02" cType="1" res="-1.4475370943546295e-01" rms="4.0166464447975159e-01" purity="2.1225003898143768e-01" nType="0">
            <Node pos="l" depth="3" NCoef="0" IVar="-1" Cut="0.0000000000000000e+00" cType="1" res="-9.6826866269111633e-02" rms="4.4890922307968140e-01" purity="2.9196012020111084e-01" nType="-99"/>
            <Node pos="r" depth="3" NCoef="0" IVar="-1" Cut="0.0000000000000000e+00" cType="1" res="-2.3086765408515930e-01" rms="3.5879582166671753e-01" purity="1.5573041141033173e-01" nType="-99"/>
          </Node>
        </Node>
      </Node>
    </BinaryTree>
    <BinaryTree type="DecisionTree" boostWeight="1.0000000000000000e+00" itree="2">
      <Node pos="s" depth="0" NCoef="0" IVar="5" Cut="8.0111091613769531e+01" cType="1" res="7.7695799991488457e-03" rms="4.5562881231307983e-01" purity="5.0000000000000000e-01" nType="0">
        <Node pos="l" depth="1" NCoef="0" IVar="4" Cut="4.7404669189453125e+02" cType="1" res="4.9769401550292969e-02" rms="4.6338361501693726e-01" purity="6.0028147697448730e-01" nType="0">
          <Node pos="l" depth="2" NCoef="0" IVar="2" Cut="4.7327846527099609e+01" cType="1" res="7.0811837911605835e-02" rms="4.5779615640640259e-01" purity="6.3968175649642944e-01" nType="0">
            <Node pos="l" depth="3" NCoef="0" IVar="2" Cut="3.7875637054443359e+01" cType="1" res="1.0040641762316227e-02" rms="4.7412341833114624e-01" purity="5.6988519430160522e-01" nType="0">
              <Node pos="l" depth="4" NCoef="0" IVar="-1" Cut="0.0000000000000000e+00" cType="1" res="-4.0431324392557144e-02" rms="4.7786477208137512e-01" purity="5.1675778627395630e-01" nType="-99"/>
              <Node pos="r" depth="4" NCoef="0" IVar="-1" Cut="0.0000000000000000e+00" cType="1" res="7.4256770312786102e-02" rms="4.6111193299293518e-01" purity="6.4008867740631104e-01" nType="-99"/>
            </Node>
            <Node pos="r" depth="3" NCoef="0" IVar="10" Cut="-1.4277682304382324e+00" cType="1" res="1.1804345995187759e-01" rms="4.3891963362693787e-01" purity="6.9392794370651245e-01" nType="0">
              <Node pos="l" depth="4" NCoef="0" IVar="-1" Cut="0.0000000000000000e+00" cType="1" res="7.3504880070686340e-02" rms="4.6002361178398132e-01" purity="6.3233762979507446e-01" nType="-99"/>
              <Node pos="r" depth="4" NCoef="0" IVar="-1" Cut="0.0000000000000000e+00" cType="1" res="1.3090828061103821e-01" rms="4.2908510565757751e-01" purity="7.1818822622299194e-01" nType="-99"/>
            </Node>
          </Node>
          <Node pos="r" depth="2" NCoef="0" IVar="7" Cut="2.1342916488647461e+00" cType="1" res="-1.5440102666616440e-02" rms="4.7439476847648621e-01" purity="4.7818204760551453e-01" nType="0">
            <Node pos="l" depth="3" NCoef="0" IVar="-1" Cut="0.0000000000000000e+00" cType="1" res="4.2455848306417465e-02" rms="4.7455358505249023e-01" purity="5.8935117721557617e-01" nType="-99"/>
            <Node pos="r" depth="3" NCoef="0" IVar="-1" Cut="0.0000000000000000e+00" cType="1" res="-8.9553751051425934e-02" rms="4.6512666344642639e-01" purity="3.4862214326858521e-01" nType="-99"/>
          </Node>
        </Node>
        <Node pos="r" depth="1" NCoef="0" IVar="7" Cut="1.3316078186035156e+00" cType="1" res="-3.1389530748128891e-02" rms="4.4471877813339233e-01" purity="4.0650111436843872e-01" nType="0">
          <Node pos="l" depth="2" NCoef="0" IVar="7" Cut="9.0749561786651611e-01" cType="1" res="6.9715298712253571e-02" rms="4.5375540852546692e-01" purity="6.1932390928268433e-01" nType="0">
            <Node pos="l" depth="3" NCoef="0" IVar="-1" Cut="0.0000000000000000e+00" cType="1" res="1.0934166610240936e-01" rms="4.4003817439079285e-01" purity="6.6708725690841675e-01" nType="-99"/>
            <Node pos="r" depth="3" NCoef="0" IVar="-1" Cut="0.0000000000000000e+00" cType="1" res="3.0354985967278481e-02" rms="4.6212854981422424e-01" purity="5.7680970430374146e-01" nType="-99"/>
          </Node>
          <Node pos="r" depth="2" NCoef="0" IVar="7" Cut="2.4766666889190674e+00" cType="1" res="-6.6087685525417328e-02" rms="4.3620666861534119e-01" purity="3.3346250653266907e-01" nType="0">
            <Node pos="l" depth="3" NCoef="0" IVar="5" Cut="1.4711589050292969e+02" cType="1" res="-3.4029293805360794e-02" rms="4.4793328642845154e-01" purity="3.9608708024024963e-01" nType="0">
              <Node pos="l" depth="4" NCoef="0" IVar="-1" Cut="0.0000000000000000e+00" cType="1" res="-2.9676649719476700e-03" rms="4.6752503514289856e-01" purity="4.7282138466835022e-01" nType="-99"/>
              <Node pos="r" depth="4" NCoef="0" IVar="-1" Cut="0.0000000000000000e+00" cType="1" res="-1.4712809026241302e-01" rms="3.8581433892250061e-01" purity="2.0935462415218353e-01" nType="-99"/>
            </Node>
            <Node pos="r" depth="3" NCoef="0" IVar="3" Cut="3.1994827270507812e+02" cType="1" res="-9.7887501120567322e-02" rms="4.2185449600219727e-01" purity="2.7134308218955994e-01" nType="0">
              <Node pos="l" depth="4" NCoef="0" IVar="-1" Cut="0.0000000000000000e+00" cType="1" res="-7.9564936459064484e-02" rms="4.5377373695373535e-01" purity="3.4709766507148743e-01" nType="-99"/>
              <Node pos="r" depth="4" NCoef="0" IVar="-1" Cut="0.0000000000000000e+00" cType="1" res="-1.6032947599887848e-01" rms="3.8870447874069214e-01" purity="2.0209081470966339e-01" nType="-99"/>
            </Node>
          </Node>
        </Node>
      </Node>
    </BinaryTree>
    <BinaryTree type="DecisionTree" boostWeight="1.0000000000000000e+00" itree="3">
      <Node pos="s" depth="0" NCoef="0" IVar="7" Cut="3.2077374458312988e+00" cType="1" res="6.2341401353478432e-03" rms="4.4973057508468628e-01" purity="5.0000000000000000e-01" nType="0">
        <Node pos="l" depth="1" NCoef="0" IVar="1" Cut="7.4339515686035156e+01" cType="1" res="1.5249764546751976e-02" rms="4.5030105113983154e-01" purity="5.1782190799713135e-01" nType="0">
          <Node pos="l" depth="2" NCoef="0" IVar="1" Cut="5.4111865997314453e+01" cType="1" res="3.2224584370851517e-02" rms="4.5526385307312012e-01" purity="5.9966522455215454e-01" nType="0">
            <Node pos="l" depth="3" NCoef="0" IVar="9" Cut="1.4280252456665039e+00" cType="1" res="5.2275296300649643e-02" rms="4.5036000013351440e-01" purity="6.4824289083480835e-01" nType="0">
              <Node pos="l" depth="4" NCoef="0" IVar="-1" Cut="0.0000000000000000e+00" cType="1" res="7.1259848773479462e-02" rms="4.4401887059211731e-01" purity="6.7092579603195190e-01" nType="-99"/>
              <Node pos="r" depth="4" NCoef="0" IVar="-1" Cut="0.0000000000000000e+00" cType="1" res="-9.7124278545379639e-03" rms="4.6568259596824646e-01" purity="5.7241415977478027e-01" nType="-99"/>
            </Node>
            <Node pos="r" depth="3" NCoef="0" IVar="9" Cut="-2.8517583012580872e-01" cType="1" res="-4.9829117953777313e-02" rms="4.6589839458465576e-01" purity="4.0087038278579712e-01" nType="0">
              <Node pos="l" depth="4" NCoef="0" IVar="-1" Cut="0.0000000000000000e+00" cType="1" res="-8.6931288242340088e-02" rms="4.6225869655609131e-01" purity="3.5245129466056824e-01" nType="-99"/>
              <Node pos="r" depth="4" NCoef="0" IVar="-1" Cut="0.0000000000000000e+00" cType="1" res="-2.8620401397347450e-02" rms="4.6728479862213135e-01" purity="4.3635523319244385e-01" nType="-99"/>
            </Node>
          </Node>
          <Node pos="r" depth="2" NCoef="0" IVar="5" Cut="1.6095547485351562e+02" cType="1" res="-3.4030925482511520e-02" rms="4.3180862069129944e-01" purity="2.8021737933158875e-01" nType="0">
            <Node pos="l" depth="3" NCoef="0" IVar="6" Cut="9.1045043945312500e+01" cType="1" res="-1.0000568814575672e-02" rms="4.6001648902893066e-01" purity="3.3762338757514954e-01" nType="0">
              <Node pos="l" depth="4" NCoef="0" IVar="-1" Cut="0.0000000000000000e+00" cType="1" res="-5.4023563861846924e-02" rms="4.4518291950225830e-01" purity="2.8294000029563904e-01" nType="-99"/>
              <Node pos="r" depth="4" NCoef="0" IVar="-1" Cut="0.0000000000000000e+00" cType="1" res="4.9200382083654404e-02" rms="4.7785708308219910e-01" purity="4.2590832710266113e-01" nType="-99"/>
            </Node>
            <Node pos="r" depth="3" NCoef="0" IVar="-1" Cut="0.0000000000000000e+00" cType="1" res="-1.1903420835733414e-01" rms="3.7312921881675720e-01" purity="1.7886687815189362e-01" nType="-99"/>
          </Node>
        </Node>
        <Node pos="r" depth="1" NCoef="0" IVar="-1" Cut="0.0000000000000000e+00" cType="1" res="-1.1227018386125565e-01" rms="4.3128785490989685e-01" purity="3.0492427945137024e-01" nType="-99"/>
      </Node>
    </BinaryTree>
    <BinaryTree type="DecisionTree" boostWeight="1.0000000000000000e+00" itree="4">
      <Node pos="s" depth="0" NCoef="0" IVar="9" Cut="-8.5673433542251587e-01" cType="1" res="4.8068617470562458e-03" rms="4.4647437334060669e-01" purity="5.0000000000000000e-01" nType="0">
        <Node pos="l" depth="1" NCoef="0" IVar="10" Cut="-1.9991008043289185e+00" cType="1" res="-3.4764844924211502e-02" rms="4.4641929864883423e-01" purity="4.3336734175682068e-01" nType="0">
          <Node pos="l" depth="2" NCoef="0" IVar="10" Cut="-2.5183913707733154e+00" cType="1" res="-4.2722086072899401e-04" rms="4.6376472711563110e-01" purity="5.0422710180282593e-01" nType="0">
            <Node pos="l" depth="3" NCoef="0" IVar="-1" Cut="0.0000000000000000e+00" cType="1" res="2.5423206388950348e-02" rms="4.6792474389076233e-01" purity="5.2247238159179688e-01" nType="-99"/>
            <Node pos="r" depth="3" NCoef="0" IVar="-1" Cut="0.0000000000000000e+00" cType="1" res="-2.7767200022935867e-02" rms="4.5817318558692932e-01" purity="4.8541432619094849e-01" nType="-99"/>
          </Node>
          <Node pos="r" depth="2" NCoef="0" IVar="8" Cut="-2.8708499670028687e-01" cType="1" res="-5.0618167966604233e-02" rms="4.3727058172225952e-01" purity="4.0065208077430725e-01" nType="0">
            <Node pos="l" depth="3" NCoef="0" IVar="-1" Cut="0.0000000000000000e+00" cType="1" res="-1.0246266424655914e-01" rms="4.3771541118621826e-01" purity="4.1601005196571350e-01" nType="-99"/>
            <Node pos="r" depth="3" NCoef="0" IVar="3" Cut="3.1752249145507812e+02" cType="1" res="-3.2188385725021362e-02" rms="4.3588325381278992e-01" purity="3.9293757081031799e-01" nType="0">
              <Node pos="l" depth="4" NCoef="0" IVar="-1" Cut="0.0000000000000000e+00" cType="1" res="-2.1748237311840057e-02" rms="4.5207688212394714e-01" purity="4.6670776605606079e-01" nType="-99"/>
              <Node pos="r" depth="4" NCoef="0" IVar="-1" Cut="0.0000000000000000e+00" cType="1" res="-6.3052363693714142e-02" rms="4.1530841588973999e-01" purity="3.0535778403282166e-01" nType="-99"/>
            </Node>
          </Node>
        </Node>
        <Node pos="r" depth="1" NCoef="0" IVar="9" Cut="5.9721279144287109e-01" cType="1" res="2.3658307269215584e-02" rms="4.4526556134223938e-01" purity="5.3174293041229248e-01" nType="0">
          <Node pos="l" depth="2" NCoef="0" IVar="9" Cut="-4.6023446321487427e-01" cType="1" res="7.1853883564472198e-02" rms="4.3823656439781189e-01" purity="6.2512224912643433e-01" nType="0">
            <Node pos="l" depth="3" NCoef="0" IVar="-1" Cut="0.0000000000000000e+00" cType="1" res="-8.6495885625481606e-04" rms="4.4580584764480591e-01" purity="5.4936277866363525e-01" nType="-99"/>
            <Node pos="r" depth="3" NCoef="0" IVar="7" Cut="2.1376209259033203e+00" cType="1" res="9.3510232865810394e-02" rms="4.3360611796379089e-01" purity="6.4770537614822388e-01" nType="0">
              <Node pos="l" depth="4" NCoef="0" IVar="-1" Cut="0.0000000000000000e+00" cType="1" res="1.2818928062915802e-01" rms="4.1260477900505066e-01" purity="7.1920424699783325e-01" nType="-99"/>
              <Node pos="r" depth="4" NCoef="0" IVar="-1" Cut="0.0000000000000000e+00" cType="1" res="5.4139416664838791e-02" rms="4.5647725462913513e-01" purity="5.5302989482879639e-01" nType="-99"/>
            </Node>
          </Node>
          <Node pos="r" depth="2" NCoef="0" IVar="3" Cut="3.5124020385742188e+02" cType="1" res="-1.6263289377093315e-02" rms="4.4708797335624695e-01" purity="4.5439451932907104e-01" nType="0">
            <Node pos="l" depth="3" NCoef="0" IVar="2" Cut="5.0374927520751953e+01" cType="1" res="9.4239873578771949e-04" rms="4.5532134175300598e-01" purity="5.0997793674468994e-01" nType="0">
              <Node pos="l" depth="4" NCoef="0" IVar="-1" Cut="0.0000000000000000e+00" cType="1" res="-3.5763155668973923e-02" rms="4.5597219467163086e-01" purity="4.5852798223495483e-01" nType="-99"/>
              <Node pos="r" depth="4" NCoef="0" IVar="-1" Cut="0.0000000000000000e+00" cType="1" res="3.9722956717014313e-02" rms="4.5192262530326843e-01" purity="5.6478691101074219e-01" nType="-99"/>
            </Node>
            <Node pos="r" depth="3" NCoef="0" IVar="4" Cut="6.5864959716796875e+02" cType="1" res="-4.4240474700927734e-02" rms="4.3190541863441467e-01" purity="3.6401358246803284e-01" nType="0">
              <Node pos="l" depth="4" NCoef="0" IVar="-1" Cut="0.0000000000000000e+00" cType="1" res="-3.4392382949590683e-02" rms="4.4656464457511902e-01" purity="4.2275407910346985e-01" nType="-99"/>
              <Node pos="r" depth="4" NCoef="0" IVar="-1" Cut="0.0000000000000000e+00" cType="1" res="-9.0485200285911560e-02" rms="4.0760076045989990e-01" purity="2.7456110715866089e-01" nType="-99"/>
            </Node>
          </Node>
        </Node>
      </Node>
    </BinaryTree>
    <BinaryTree type="DecisionTree" boostWeight="1.0000000000000000e+00" itree="5">
      <Node pos="s" depth="0" NCoef="0" IVar="4" Cut="7.2481427001953125e+02" cType="1" res="3.7363946903496981e-03" rms="4.4342395663261414e-01" purity="5.0000000000000000e-01" nType="0">
        <Node pos="l" depth="1" NCoef="0" IVar="1" Cut="2.7488466262817383e+01" cType="1" res="1.0498071089386940e-02" rms="4.4737845659255981e-01" purity="5.2447873353958130e-01" nType="0">
          <Node pos="l" depth="2" NCoef="0" IVar="1" Cut="1.2675395965576172e+01" cType="1" res="6.0714766383171082e-02" rms="4.1772988438606262e-01" purity="7.4924683570861816e-01" nType="0">
            <Node pos="l" depth="3" NCoef="0" IVar="-1" Cut="0.0000000000000000e+00" cType="1" res="1.0800215601921082e-01" rms="3.8516438007354736e-01" purity="8.0377006530761719e-01" nType="-99"/>
            <Node pos="r" depth="3" NCoef="0" IVar="9" Cut="-8.5638499259948730e-01" cType="1" res="4.4366847723722458e-02" rms="4.2953497171401978e-01" purity="7.2649675607681274e-01" nType="0">
              <Node pos="l" depth="4" NCoef="0" IVar="-1" Cut="0.0000000000000000e+00" cType="1" res="1.2682732194662094e-02" rms="4.5438927412033081e-01" purity="6.7555183172225952e-01" nType="-99"/>
              <Node pos="r" depth="4" NCoef="0" IVar="-1" Cut="0.0000000000000000e+00" cType="1" res="6.3806913793087006e-02" rms="4.1709351539611816e-01" purity="7.4934506416320801e-01" nType="-99"/>
            </Node>
          </Node>
          <Node pos="r" depth="2" NCoef="0" IVar="2" Cut="5.8874263763427734e+01" cType="1" res="-1.0925767943263054e-02" rms="4.5777216553688049e-01" purity="4.2858645319938660e-01" nType="0">
            <Node pos="l" depth="3" NCoef="0" IVar="2" Cut="4.0499595642089844e+01" cType="1" res="-2.8229387477040291e-02" rms="4.5348861813545227e-01" purity="4.0038490295410156e-01" nType="0">
              <Node pos="l" depth="4" NCoef="0" IVar="-1" Cut="0.0000000000000000e+00" cType="1" res="-9.5877945423126221e-02" rms="4.4129645824432373e-01" purity="3.2306244969367981e-01" nType="-99"/>
              <Node pos="r" depth="4" NCoef="0" IVar="-1" Cut="0.0000000000000000e+00" cType="1" res="5.0893887877464294e-02" rms="4.5988631248474121e-01" purity="5.1028645038604736e-01" nType="-99"/>
            </Node>
            <Node pos="r" depth="3" NCoef="0" IVar="9" Cut="8.5679048299789429e-01" cType="1" res="1.2911198660731316e-02" rms="4.6254938840866089e-01" purity="4.6743607521057129e-01" nType="0">
              <Node pos="l" depth="4" NCoef="0" IVar="-1" Cut="0.0000000000000000e+00" cType="1" res="2.8425587341189384e-02" rms="4.5914471149444580e-01" purity="5.0024247169494629e-01" nType="-99"/>
              <Node pos="r" depth="4" NCoef="0" IVar="-1" Cut="0.0000000000000000e+00" cType="1" res="-1.4095425605773926e-02" rms="4.6815934777259827e-01" purity="4.0285485982894897e-01" nType="-99"/>
            </Node>
          </Node>
        </Node>
        <Node pos="r" depth="1" NCoef="0" IVar="3" Cut="6.6535125732421875e+02" cType="1" res="-4.8637751489877701e-02" rms="4.0772765874862671e-01" purity="3.1039413809776306e-01" nType="0">
          <Node pos="l" depth="2" NCoef="0" IVar="-1" Cut="0.0000000000000000e+00" cType="1" res="-4.4389490038156509e-02" rms="4.0466567873954773e-01" purity="2.9702010750770569e-01" nType="-99"/>
          <Node pos="r" depth="2" NCoef="0" IVar="-1" Cut="0.0000000000000000e+00" cType="1" res="-8.1812515854835510e-02" rms="4.0967118740081787e-01" purity="3.2128104567527771e-01" nType="-99"/>
        </Node>
      </Node>
    </BinaryTree>
    <BinaryTree type="DecisionTree" boostWeight="1.0000000000000000e+00" itree="6">
      <Node pos="s" depth="0" NCoef="0" IVar="7" Cut="8.6037564277648926e-01" cType="1" res="3.3788746222853661e-03" rms="4.4067230820655823e-01" purity="5.0000000000000000e-01" nType="0">
        <Node pos="l" depth="1" NCoef="0" IVar="-1" Cut="0.0000000000000000e+00" cType="1" res="5.2458211779594421e-02" rms="4.3032747507095337e-01" purity="6.7415583133697510e-01" nType="-99"/>
        <Node pos="r" depth="1" NCoef="0" IVar="4" Cut="4.2755593872070312e+02" cType="1" res="-1.1332974536344409e-03" rms="4.4142279028892517e-01" purity="4.8282173275947571e-01" nType="0">
          <Node pos="l" depth="2" NCoef="0" IVar="1" Cut="1.9615415573120117e+01" cType="1" res="1.4501359313726425e-02" rms="4.4996666908264160e-01" purity="5.8612883090972900e-01" nType="0">
            <Node pos="l" depth="3" NCoef="0" IVar="-1" Cut="0.0000000000000000e+00" cType="1" res="5.9510484337806702e-02" rms="3.8902437686920166e-01" purity="8.0573260784149170e-01" nType="-99"/>
            <Node pos="r" depth="3" NCoef="0" IVar="9" Cut="8.5682821273803711e-01" cType="1" res="4.1837263852357864e-03" rms="4.6583059430122375e-01" purity="5.2171438932418823e-01" nType="0">
              <Node pos="l" depth="4" NCoef="0" IVar="-1" Cut="0.0000000000000000e+00" cType="1" res="1.9563741981983185e-02" rms="4.6125915646553040e-01" purity="5.5668830871582031e-01" nType="-99"/>
              <Node pos="r" depth="4" NCoef="0" IVar="-1" Cut="0.0000000000000000e+00" cType="1" res="-2.6541506871581078e-02" rms="4.7365483641624451e-01" purity="4.5107698440551758e-01" nType="-99"/>
            </Node>
          </Node>
          <Node pos="r" depth="2" NCoef="0" IVar="7" Cut="2.8755528926849365e+00" cType="1" res="-1.7288118600845337e-02" rms="4.3182313442230225e-01" purity="3.7607762217521667e-01" nType="0">
            <Node pos="l" depth="3" NCoef="0" IVar="4" Cut="6.7524169921875000e+02" cType="1" res="-9.8308641463518143e-03" rms="4.3880084156990051e-01" purity="4.2007517814636230e-01" nType="0">
              <Node pos="l" depth="4" NCoef="0" IVar="-1" Cut="0.0000000000000000e+00" cType="1" res="8.7648967746645212e-04" rms="4.4770413637161255e-01" purity="4.6240058541297913e-01" nType="-99"/>
              <Node pos="r" depth="4" NCoef="0" IVar="-1" Cut="0.0000000000000000e+00" cType="1" res="-5.3472720086574554e-02" rms="4.1171315312385559e-01" purity="3.0281251668930054e-01" nType="-99"/>
            </Node>
            <Node pos="r" depth="3" NCoef="0" IVar="3" Cut="4.2277426147460938e+02" cType="1" res="-4.0471326559782028e-02" rms="4.0850323438644409e-01" purity="2.3929752409458160e-01" nType="0">
              <Node pos="l" depth="4" NCoef="0" IVar="-1" Cut="0.0000000000000000e+00" cType="1" res="-3.9996594190597534e-02" rms="4.2501902580261230e-01" purity="2.7173882722854614e-01" nType="-99"/>
              <Node pos="r" depth="4" NCoef="0" IVar="-1" Cut="0.0000000000000000e+00" cType="1" res="-8.2336701452732086e-02" rms="3.8916265964508057e-01" purity="2.0363333821296692e-01" nType="-99"/>
            </Node>
          </Node>
        </Node>
      </Node>
    </BinaryTree>
    <BinaryTree type="DecisionTree" boostWeight="1.0000000000000000e+00" itree="7">
      <Node pos="s" depth="0" NCoef="0" IVar="9" Cut="-8.5673433542251587e-01" cType="1" res="2.4904333986341953e-03" rms="4.3990308046340942e-01" purity="5.0000000000000000e-01" nType="0">
        <Node pos="l" depth="1" NCoef="0" IVar="6" Cut="8.9928627014160156e+01" cType="1" res="-2.0160052925348282e-02" rms="4.4196105003356934e-01" purity="4.3336734175682068e-01" nType="0">
          <Node pos="l" depth="2" NCoef="0" IVar="6" Cut="5.7286140441894531e+01" cType="1" res="-3.2567981630563736e-02" rms="4.3807709217071533e-01" purity="3.9197647571563721e-01" nType="0">
            <Node pos="l" depth="3" NCoef="0" IVar="-1" Cut="0.0000000000000000e+00" cType="1" res="-1.7120597884058952e-02" rms="4.3096643686294556e-01" purity="3.9207586646080017e-01" nType="-99"/>
            <Node pos="r" depth="3" NCoef="0" IVar="-1" Cut="0.0000000000000000e+00" cType="1" res="-6.4431317150592804e-02" rms="4.4450512528419495e-01" purity="3.9187288284301758e-01" nType="-99"/>
          </Node>
          <Node pos="r" depth="2" NCoef="0" IVar="10" Cut="-1.9991762638092041e+00" cType="1" res="-3.5716984421014786e-03" rms="4.4656264781951904e-01" purity="4.8870337009429932e-01" nType="0">
            <Node pos="l" depth="3" NCoef="0" IVar="-1" Cut="0.0000000000000000e+00" cType="1" res="2.7269594371318817e-02" rms="4.6168416738510132e-01" purity="5.6449770927429199e-01" nType="-99"/>
            <Node pos="r" depth="3" NCoef="0" IVar="-1" Cut="0.0000000000000000e+00" cType="1" res="-2.5976041331887245e-02" rms="4.3572637438774109e-01" purity="4.4042369723320007e-01" nType="-99"/>
          </Node>
        </Node>
        <Node pos="r" depth="1" NCoef="0" IVar="9" Cut="9.6069288253784180e-01" cType="1" res="1.3280830346047878e-02" rms="4.3850803375244141e-01" purity="5.3174293041229248e-01" nType="0">
          <Node pos="l" depth="2" NCoef="0" IVar="1" Cut="5.8305484771728516e+01" cType="1" res="3.2532252371311188e-02" rms="4.3329805135726929e-01" purity="6.1091649532318115e-01" nType="0">
            <Node pos="l" depth="3" NCoef="0" IVar="7" Cut="1.7190500497817993e+00" cType="1" res="5.0039548426866531e-02" rms="4.2019885778427124e-01" purity="7.2145479917526245e-01" nType="0">
              <Node pos="l" depth="4" NCoef="0" IVar="-1" Cut="0.0000000000000000e+00" cType="1" res="9.4304181635379791e-02" rms="3.7696975469589233e-01" purity="8.1470024585723877e-01" nType="-99"/>
              <Node pos="r" depth="4" NCoef="0" IVar="-1" Cut="0.0000000000000000e+00" cType="1" res="3.0238775536417961e-02" rms="4.4680622220039368e-01" purity="6.5586513280868530e-01" nType="-99"/>
            </Node>
            <Node pos="r" depth="3" NCoef="0" IVar="9" Cut="1.3464449346065521e-01" cType="1" res="-1.5196906169876456e-03" rms="4.5578172802925110e-01" purity="3.9591792225837708e-01" nType="0">
              <Node pos="l" depth="4" NCoef="0" IVar="-1" Cut="0.0000000000000000e+00" cType="1" res="1.9482845440506935e-02" rms="4.5837044715881348e-01" purity="4.2816880345344543e-01" nType="-99"/>
              <Node pos="r" depth="4" NCoef="0" IVar="-1" Cut="0.0000000000000000e+00" cType="1" res="-3.3782765269279480e-02" rms="4.5078012347221375e-01" purity="3.5042873024940491e-01" nType="-99"/>
            </Node>
          </Node>
          <Node pos="r" depth="2" NCoef="0" IVar="8" Cut="2.8561344742774963e-01" cType="1" res="-9.2959590256214142e-03" rms="4.4347676634788513e-01" purity="4.3889340758323669e-01" nType="0">
            <Node pos="l" depth="3" NCoef="0" IVar="10" Cut="2.8598645329475403e-01" cType="1" res="6.0203727334737778e-03" rms="4.4121319055557251e-01" purity="4.1549158096313477e-01" nType="0">
              <Node pos="l" depth="4" NCoef="0" IVar="-1" Cut="0.0000000000000000e+00" cType="1" res="-1.7071709036827087e-02" rms="4.3544608354568481e-01" purity="3.7505677342414856e-01" nType="-99"/>
              <Node pos="r" depth="4" NCoef="0" IVar="-1" Cut="0.0000000000000000e+00" cType="1" res="3.0703969299793243e-02" rms="4.4592612981796265e-01" purity="4.5471867918968201e-01" nType="-99"/>
            </Node>
            <Node pos="r" depth="3" NCoef="0" IVar="10" Cut="1.8826148509979248e+00" cType="1" res="-3.2403998076915741e-02" rms="4.4587558507919312e-01" purity="4.7420027852058411e-01" nType="0">
              <Node pos="l" depth="4" NCoef="0" IVar="-1" Cut="0.0000000000000000e+00" cType="1" res="-7.6823331415653229e-02" rms="4.3144917488098145e-01" purity="4.2381027340888977e-01" nType="-99"/>
              <Node pos="r" depth="4" NCoef="0" IVar="-1" Cut="0.0000000000000000e+00" cType="1" res="-2.6852401788346469e-04" rms="4.5809760689735413e-01" purity="5.2629083395004272e-01" nType="-99"/>
            </Node>
          </Node>
        </Node>
      </Node>
    </BinaryTree>
    <BinaryTree type="DecisionTree" boostWeight="1.0000000000000000e+00" itree="8">
      <Node pos="s" depth="0" NCoef="0" IVar="9" Cut="-2.8554752469062805e-01" cType="1" res="2.1225865930318832e-03" rms="4.3865510821342468e-01" purity="5.0000000000000000e-01" nType="0">
        <Node pos="l" depth="1" NCoef="0" IVar="3" Cut="3.6087039184570312e+02" cType="1" res="-1.1965958401560783e-02" rms="4.4079604744911194e-01" purity="4.6688359975814819e-01" nType="0">
          <Node pos="l" depth="2" NCoef="0" IVar="2" Cut="4.9559577941894531e+01" cType="1" res="-3.9222985506057739e-03" rms="4.4838094711303711e-01" purity="5.1935273408889771e-01" nType="0">
            <Node pos="l" depth="3" NCoef="0" IVar="9" Cut="-1.3241301774978638e+00" cType="1" res="-2.4757994338870049e-02" rms="4.4676184654235840e-01" purity="4.6591088175773621e-01" nType="0">
              <Node pos="l" depth="4" NCoef="0" IVar="-1" Cut="0.0000000000000000e+00" cType="1" res="-5.2948538213968277e-02" rms="4.4716948270797729e-01" purity="4.0759757161140442e-01" nType="-99"/>
              <Node pos="r" depth="4" NCoef="0" IVar="-1" Cut="0.0000000000000000e+00" cType="1" res="2.6206295005977154e-03" rms="4.4478124380111694e-01" purity="5.4833090305328369e-01" nType="-99"/>
            </Node>
            <Node pos="r" depth="3" NCoef="0" IVar="3" Cut="2.7109451293945312e+02" cType="1" res="1.6847101971507072e-02" rms="4.4902789592742920e-01" purity="5.7262456417083740e-01" nType="0">
              <Node pos="l" depth="4" NCoef="0" IVar="-1" Cut="0.0000000000000000e+00" cType="1" res="3.7046805024147034e-02" rms="4.5293208956718445e-01" purity="6.0523223876953125e-01" nType="-99"/>
              <Node pos="r" depth="4" NCoef="0" IVar="-1" Cut="0.0000000000000000e+00" cType="1" res="-4.7502801753580570e-03" rms="4.4318658113479614e-01" purity="5.3157448768615723e-01" nType="-99"/>
            </Node>
          </Node>
          <Node pos="r" depth="2" NCoef="0" IVar="1" Cut="5.5825416564941406e+01" cType="1" res="-2.5977276265621185e-02" rms="4.2690065503120422e-01" purity="3.7548717856407166e-01" nType="0">
            <Node pos="l" depth="3" NCoef="0" IVar="-1" Cut="0.0000000000000000e+00" cType="1" res="-1.3993373140692711e-02" rms="4.6108564734458923e-01" purity="5.2773404121398926e-01" nType="-99"/>
            <Node pos="r" depth="3" NCoef="0" IVar="-1" Cut="0.0000000000000000e+00" cType="1" res="-6.5845973789691925e-02" rms="3.8497239351272583e-01" purity="2.0682267844676971e-01" nType="-99"/>
          </Node>
        </Node>
        <Node pos="r" depth="1" NCoef="0" IVar="9" Cut="3.3763751387596130e-01" cType="1" res="1.2685974128544331e-02" rms="4.3674495816230774e-01" purity="5.2483022212982178e-01" nType="0">
          <Node pos="l" depth="2" NCoef="0" IVar="7" Cut="2.1376209259033203e+00" cType="1" res="5.5809009820222855e-02" rms="4.2377689480781555e-01" purity="6.7230170965194702e-01" nType="0">
            <Node pos="l" depth="3" NCoef="0" IVar="-1" Cut="0.0000000000000000e+00" cType="1" res="8.5573554039001465e-02" rms="4.0198343992233276e-01" purity="7.4395078420639038e-01" nType="-99"/>
            <Node pos="r" depth="3" NCoef="0" IVar="-1" Cut="0.0000000000000000e+00" cType="1" res="3.3842183649539948e-02" rms="4.5127457380294800e-01" purity="5.7211291790008545e-01" nType="-99"/>
          </Node>
          <Node pos="r" depth="2" NCoef="0" IVar="6" Cut="1.1449433898925781e+02" cType="1" res="-2.8973624575883150e-03" rms="4.4029983878135681e-01" purity="4.7153851389884949e-01" nType="0">
            <Node pos="l" depth="3" NCoef="0" IVar="4" Cut="3.8714099121093750e+02" cType="1" res="-9.1690560802817345e-03" rms="4.4044747948646545e-01" purity="4.5213374495506287e-01" nType="0">
              <Node pos="l" depth="4" NCoef="0" IVar="-1" Cut="0.0000000000000000e+00" cType="1" res="9.3143787235021591e-03" rms="4.5034116506576538e-01" purity="5.7382631301879883e-01" nType="-99"/>
              <Node pos="r" depth="4" NCoef="0" IVar="-1" Cut="0.0000000000000000e+00" cType="1" res="-3.3077862113714218e-02" rms="4.3054041266441345e-01" purity="3.4037101268768311e-01" nType="-99"/>
            </Node>
            <Node pos="r" depth="3" NCoef="0" IVar="10" Cut="1.4272373914718628e+00" cType="1" res="1.4075079932808876e-02" rms="4.3945142626762390e-01" purity="5.2405166625976562e-01" nType="0">
              <Node pos="l" depth="4" NCoef="0" IVar="-1" Cut="0.0000000000000000e+00" cType="1" res="-8.6637120693922043e-03" rms="4.2704415321350098e-01" purity="4.9435079097747803e-01" nType="-99"/>
              <Node pos="r" depth="4" NCoef="0" IVar="-1" Cut="0.0000000000000000e+00" cType="1" res="4.2030379176139832e-02" rms="4.5172098278999329e-01" purity="5.5712270736694336e-01" nType="-99"/>
            </Node>
          </Node>
        </Node>
      </Node>
    </BinaryTree>
    <BinaryTree type="DecisionTree" boostWeight="1.0000000000000000e+00" itree="9">
      <Node pos="s" depth="0" NCoef="0" IVar="7" Cut="3.2077374458312988e+00" cType="1" res="1.7545879818499088e-03" rms="4.3769574165344238e-01" purity="5.0000000000000000e-01" nType="0">
        <Node pos="l" depth="1" NCoef="0" IVar="8" Cut="-2.5702695846557617e+00" cType="1" res="4.4873105362057686e-03" rms="4.3839660286903381e-01" purity="5.1782190799713135e-01" nType="0">
          <Node pos="l" depth="2" NCoef="0" IVar="-1" Cut="0.0000000000000000e+00" cType="1" res="3.4424036741256714e-02" rms="4.6097338199615479e-01" purity="5.8124095201492310e-01" nType="-99"/>
          <Node pos="r" depth="2" NCoef="0" IVar="9" Cut="-2.8554752469062805e-01" cType="1" res="1.8805041909217834e-03" rms="4.3607342243194580e-01" purity="5.1171851158142090e-01" nType="0">
            <Node pos="l" depth="3" NCoef="0" IVar="8" Cut="-4.9360617995262146e-01" cType="1" res="-6.9552874192595482e-03" rms="4.3999764323234558e-01" purity="4.7432658076286316e-01" nType="0">
              <Node pos="l" depth="4" NCoef="0" IVar="-1" Cut="0.0000000000000000e+00" cType="1" res="-3.3768348395824432e-02" rms="4.4051125645637512e-01" purity="4.9368971586227417e-01" nType="-99"/>
              <Node pos="r" depth="4" NCoef="0" IVar="-1" Cut="0.0000000000000000e+00" cType="1" res="5.0284117460250854e-03" rms="4.3932476639747620e-01" purity="4.6439895033836365e-01" nType="-99"/>
            </Node>
            <Node pos="r" depth="3" NCoef="0" IVar="9" Cut="3.3764430880546570e-01" cType="1" res="8.4641659632325172e-03" rms="4.3300911784172058e-01" purity="5.3957962989807129e-01" nType="0">
              <Node pos="l" depth="4" NCoef="0" IVar="-1" Cut="0.0000000000000000e+00" cType="1" res="4.2597174644470215e-02" rms="4.1800764203071594e-01" purity="6.9567203521728516e-01" nType="-99"/>
              <Node pos="r" depth="4" NCoef="0" IVar="-1" Cut="0.0000000000000000e+00" cType="1" res="-2.3024212568998337e-03" rms="4.3810963630676270e-01" purity="4.8047485947608948e-01" nType="-99"/>
            </Node>
          </Node>
        </Node>
        <Node pos="r" depth="1" NCoef="0" IVar="-1" Cut="0.0000000000000000e+00" cType="1" res="-3.8865406066179276e-02" rms="4.2881280183792114e-01" purity="3.0492427945137024e-01" nType="-99"/>
      </Node>
    </BinaryTree>
    <BinaryTree type="DecisionTree" boostWeight="1.0000000000000000e+00" itree="10">
      <Node pos="s" depth="0" NCoef="0" IVar="0" Cut="1.0690783691406250e+02" cType="1" res="1.1664935154840350e-03" rms="4.3731558322906494e-01" purity="5.0000000000000000e-01" nType="0">
        <Node pos="l" depth="1" NCoef="0" IVar="1" Cut="5.8442886352539062e+01" cType="1" res="-1.6031273407861590e-03" rms="4.3831294775009155e-01" purity="5.0719457864761353e-01" nType="0">
          <Node pos="l" depth="2" NCoef="0" IVar="1" Cut="1.6065271377563477e+01" cType="1" res="5.3079072386026382e-03" rms="4.4387432932853699e-01" purity="6.2548369169235229e-01" nType="0">
            <Node pos="l" depth="3" NCoef="0" IVar="-1" Cut="0.0000000000000000e+00" cType="1" res="5.1424648612737656e-02" rms="3.9000436663627625e-01" purity="7.9625552892684937e-01" nType="-99"/>
            <Node pos="r" depth="3" NCoef="0" IVar="9" Cut="-1.4278609752655029e+00" cType="1" res="-3.3465570304542780e-03" rms="4.5557457208633423e-01" purity="5.8401900529861450e-01" nType="0">
              <Node pos="l" depth="4" NCoef="0" IVar="-1" Cut="0.0000000000000000e+00" cType="1" res="-3.9101526141166687e-02" rms="4.7747799754142761e-01" purity="4.8298406600952148e-01" nType="-99"/>
              <Node pos="r" depth="4" NCoef="0" IVar="-1" Cut="0.0000000000000000e+00" cType="1" res="6.5919389016926289e-03" rms="4.4869723916053772e-01" purity="6.1286568641662598e-01" nType="-99"/>
            </Node>
          </Node>
          <Node pos="r" depth="2" NCoef="0" IVar="7" Cut="1.3335058689117432e+00" cType="1" res="-1.3604919426143169e-02" rms="4.2821857333183289e-01" purity="3.0177214741706848e-01" nType="0">
            <Node pos="l" depth="3" NCoef="0" IVar="-1" Cut="0.0000000000000000e+00" cType="1" res="-4.3430164456367493e-02" rms="4.6449041366577148e-01" purity="4.3568277359008789e-01" nType="-99"/>
            <Node pos="r" depth="3" NCoef="0" IVar="7" Cut="2.0965740680694580e+00" cType="1" res="-6.7452159710228443e-03" rms="4.1837000846862793e-01" purity="2.6826336979866028e-01" nType="0">
              <Node pos="l" depth="4" NCoef="0" IVar="-1" Cut="0.0000000000000000e+00" cType="1" res="1.1496673338115215e-02" rms="4.4009411334991455e-01" purity="3.3595639467239380e-01" nType="-99"/>
              <Node pos="r" depth="4" NCoef="0" IVar="-1" Cut="0.0000000000000000e+00" cType="1" res="-2.1646289154887199e-02" rms="4.0771672129631042e-01" purity="2.3692564666271210e-01" nType="-99"/>
            </Node>
          </Node>
        </Node>
        <Node pos="r" depth="1" NCoef="0" IVar="7" Cut="1.7232124805450439e+00" cType="1" res="1.7635939642786980e-02" rms="4.3096968531608582e-01" purity="4.5721763372421265e-01" nType="0">
          <Node pos="l" depth="2" NCoef="0" IVar="-1" Cut="0.0000000000000000e+00" cType="1" res="5.1086716353893280e-02" rms="4.2850199341773987e-01" purity="6.4880228042602539e-01" nType="-99"/>
          <Node pos="r" depth="2" NCoef="0" IVar="-1" Cut="0.0000000000000000e+00" cType="1" res="-8.3551235729828477e-04" rms="4.3163344264030457e-01" purity="3.3016142249107361e-01" nType="-99"/>
        </Node>
      </Node>
    </BinaryTree>
    <BinaryTree type="DecisionTree" boostWeight="1.0000000000000000e+00" itree="11">
      <Node pos="s" depth="0" NCoef="0" IVar="3" Cut="3.6087039184570312e+02" cType="1" res="1.0665141744539142e-03" rms="4.3682906031608582e-01" purity="5.0000000000000000e-01" nType="0">
        <Node pos="l" depth="1" NCoef="0" IVar="3" Cut="2.4002700805664062e+02" cType="1" res="6.2059541232883930e-03" rms="4.4249266386032104e-01" purity="5.5056631565093994e-01" nType="0">
          <Node pos="l" depth="2" NCoef="0" IVar="2" Cut="4.2532726287841797e+01" cType="1" res="1.5586779452860355e-02" rms="4.4909679889678955e-01" purity="5.6940126419067383e-01" nType="0">
            <Node pos="l" depth="3" NCoef="0" IVar="5" Cut="8.0314613342285156e+01" cType="1" res="-7.7758273109793663e-03" rms="4.5207163691520691e-01" purity="4.9016559123992920e-01" nType="0">
              <Node pos="l" depth="4" NCoef="0" IVar="-1" Cut="0.0000000000000000e+00" cType="1" res="4.7310097143054008e-03" rms="4.6446451544761658e-01" purity="5.5767005681991577e-01" nType="-99"/>
              <Node pos="r" depth="4" NCoef="0" IVar="-1" Cut="0.0000000000000000e+00" cType="1" res="-2.9737291857600212e-02" rms="4.3461182713508606e-01" purity="4.0080973505973816e-01" nType="-99"/>
            </Node>
            <Node pos="r" depth="3" NCoef="0" IVar="9" Cut="-8.5657829046249390e-01" cType="1" res="3.4651376307010651e-02" rms="4.4574815034866333e-01" purity="6.3406002521514893e-01" nType="0">
              <Node pos="l" depth="4" NCoef="0" IVar="-1" Cut="0.0000000000000000e+00" cType="1" res="5.0142418593168259e-02" rms="4.6085715293884277e-01" purity="5.8572745323181152e-01" nType="-99"/>
              <Node pos="r" depth="4" NCoef="0" IVar="-1" Cut="0.0000000000000000e+00" cType="1" res="3.3598504960536957e-02" rms="4.3763458728790283e-01" purity="6.5900516510009766e-01" nType="-99"/>
            </Node>
          </Node>
          <Node pos="r" depth="2" NCoef="0" IVar="0" Cut="6.7154953002929688e+01" cType="1" res="-1.4497751835733652e-03" rms="4.3687984347343445e-01" purity="5.3519505262374878e-01" nType="0">
            <Node pos="l" depth="3" NCoef="0" IVar="10" Cut="1.4272304773330688e+00" cType="1" res="-1.0067511349916458e-02" rms="4.3350788950920105e-01" purity="5.3901100158691406e-01" nType="0">
              <Node pos="l" depth="4" NCoef="0" IVar="-1" Cut="0.0000000000000000e+00" cType="1" res="2.1864566951990128e-03" rms="4.2866238951683044e-01" purity="5.6092166900634766e-01" nType="-99"/>
              <Node pos="r" depth="4" NCoef="0" IVar="-1" Cut="0.0000000000000000e+00" cType="1" res="-5.6173022836446762e-02" rms="4.4621169567108154e-01" purity="4.7099527716636658e-01" nType="-99"/>
            </Node>
            <Node pos="r" depth="3" NCoef="0" IVar="5" Cut="1.1494196319580078e+02" cType="1" res="1.2198155745863914e-02" rms="4.4182363152503967e-01" purity="5.2915185689926147e-01" nType="0">
              <Node pos="l" depth="4" NCoef="0" IVar="-1" Cut="0.0000000000000000e+00" cType="1" res="2.7965759858489037e-02" rms="4.5300269126892090e-01" purity="6.2572920322418213e-01" nType="-99"/>
              <Node pos="r" depth="4" NCoef="0" IVar="-1" Cut="0.0000000000000000e+00" cType="1" res="-4.2886319570243359e-03" rms="4.2684096097946167e-01" purity="4.0761467814445496e-01" nType="-99"/>
            </Node>
          </Node>
        </Node>
        <Node pos="r" depth="1" NCoef="0" IVar="3" Cut="6.0256732177734375e+02" cType="1" res="-7.7703124843537807e-03" rms="4.2677068710327148e-01" purity="4.1305550932884216e-01" nType="0">
          <Node pos="l" depth="2" NCoef="0" IVar="3" Cut="4.4875912475585938e+02" cType="1" res="-4.0084440261125565e-03" rms="4.3205335736274719e-01" purity="4.3759679794311523e-01" nType="0">
            <Node pos="l" depth="3" NCoef="0" IVar="2" Cut="5.8206382751464844e+01" cType="1" res="9.7830034792423248e-03" rms="4.3559718132019043e-01" purity="4.6615201234817505e-01" nType="0">
              <Node pos="l" depth="4" NCoef="0" IVar="-1" Cut="0.0000000000000000e+00" cType="1" res="-1.3471840880811214e-02" rms="4.2763584852218628e-01" purity="4.0771523118019104e-01" nType="-99"/>
              <Node pos="r" depth="4" NCoef="0" IVar="-1" Cut="0.0000000000000000e+00" cType="1" res="3.3429317176342010e-02" rms="4.4160848855972290e-01" purity="5.1658952236175537e-01" nType="-99"/>
            </Node>
            <Node pos="r" depth="3" NCoef="0" IVar="2" Cut="6.5658782958984375e+01" cType="1" res="-2.0428640767931938e-02" rms="4.2721554636955261e-01" purity="4.0359875559806824e-01" nType="0">
              <Node pos="l" depth="4" NCoef="0" IVar="-1" Cut="0.0000000000000000e+00" cType="1" res="-4.8448175191879272e-02" rms="4.1969093680381775e-01" purity="3.5183331370353699e-01" nType="-99"/>
              <Node pos="r" depth="4" NCoef="0" IVar="-1" Cut="0.0000000000000000e+00" cType="1" res="-8.1161949783563614e-03" rms="4.3362164497375488e-01" purity="4.5172867178916931e-01" nType="-99"/>
            </Node>
          </Node>
          <Node pos="r" depth="2" NCoef="0" IVar="-1" Cut="0.0000000000000000e+00" cType="1" res="-2.7334863319993019e-02" rms="4.0974959731101990e-01" purity="3.3700770139694214e-01" nType="-99"/>
        </Node>
      </Node>
    </BinaryTree>
    <BinaryTree type="DecisionTree" boostWeight="1.0000000000000000e+00" itree="12">
      <Node pos="s" depth="0" NCoef="0" IVar="7" Cut="8.6037564277648926e-01" cType="1" res="8.3905970677733421e-04" rms="4.3630573153495789e-01" purity="5.0000000000000000e-01" nType="0">
        <Node pos="l" depth="1" NCoef="0" IVar="-1" Cut="0.0000000000000000e+00" cType="1" res="2.1525438874959946e-02" rms="4.2303535342216492e-01" purity="6.7415583133697510e-01" nType="-99"/>
        <Node pos="r" depth="1" NCoef="0" IVar="2" Cut="1.1881031036376953e+02" cType="1" res="-9.0817175805568695e-04" rms="4.3755403161048889e-01" purity="4.8282173275947571e-01" nType="0">
          <Node pos="l" depth="2" NCoef="0" IVar="2" Cut="3.8073833465576172e+01" cType="1" res="-2.8646136634051800e-03" rms="4.3713149428367615e-01" purity="4.9043646454811096e-01" nType="0">
            <Node pos="l" depth="3" NCoef="0" IVar="3" Cut="3.2873654174804688e+02" cType="1" res="-3.3418118953704834e-02" rms="4.3473967909812927e-01" purity="3.7647962570190430e-01" nType="0">
              <Node pos="l" depth="4" NCoef="0" IVar="-1" Cut="0.0000000000000000e+00" cType="1" res="-2.1323993802070618e-02" rms="4.5098236203193665e-01" purity="4.4119635224342346e-01" nType="-99"/>
              <Node pos="r" depth="4" NCoef="0" IVar="-1" Cut="0.0000000000000000e+00" cType="1" res="-8.8303320109844208e-02" rms="4.0433716773986816e-01" purity="2.6682689785957336e-01" nType="-99"/>
            </Node>
            <Node pos="r" depth="3" NCoef="0" IVar="7" Cut="2.9830090999603271e+00" cType="1" res="9.8010273650288582e-03" rms="4.3749400973320007e-01" purity="5.3767609596252441e-01" nType="0">
              <Node pos="l" depth="4" NCoef="0" IVar="-1" Cut="0.0000000000000000e+00" cType="1" res="1.7162647098302841e-02" rms="4.3641012907028198e-01" purity="5.6649708747863770e-01" nType="-99"/>
              <Node pos="r" depth="4" NCoef="0" IVar="-1" Cut="0.0000000000000000e+00" cType="1" res="-1.5311947092413902e-02" rms="4.4197395443916321e-01" purity="4.0056878328323364e-01" nType="-99"/>
            </Node>
          </Node>
          <Node pos="r" depth="2" NCoef="0" IVar="-1" Cut="0.0000000000000000e+00" cType="1" res="2.0808376371860504e-02" rms="4.4078600406646729e-01" purity="4.1793718934059143e-01" nType="-99"/>
        </Node>
      </Node>
    </BinaryTree>
    <BinaryTree type="DecisionTree" boostWeight="1.0000000000000000e+00" itree="13">
      <Node pos="s" depth="0" NCoef="0" IVar="10" Cut="2.5703501701354980e+00" cType="1" res="7.0960121229290962e-04" rms="4.3579789996147156e-01" purity="5.0000000000000000e-01" nType="0">
        <Node pos="l" depth="1" NCoef="0" IVar="8" Cut="8.5670930147171021e-01" cType="1" res="-8.9311576448380947e-04" rms="4.3382492661476135e-01" purity="4.9974754452705383e-01" nType="0">
          <Node pos="l" depth="2" NCoef="0" IVar="1" Cut="1.1671456146240234e+02" cType="1" res="3.6216811276972294e-03" rms="4.2920622229576111e-01" purity="4.8868781328201294e-01" nType="0">
            <Node pos="l" depth="3" NCoef="0" IVar="8" Cut="-5.9715712070465088e-01" cType="1" res="6.7821219563484192e-03" rms="4.3655809760093689e-01" purity="5.2884042263031006e-01" nType="0">
              <Node pos="l" depth="4" NCoef="0" IVar="-1" Cut="0.0000000000000000e+00" cType="1" res="-3.1826584599912167e-03" rms="4.4384682178497314e-01" purity="5.2935492992401123e-01" nType="-99"/>
              <Node pos="r" depth="4" NCoef="0" IVar="-1" Cut="0.0000000000000000e+00" cType="1" res="2.9618272557854652e-02" rms="4.2333954572677612e-01" purity="5.2796238660812378e-01" nType="-99"/>
            </Node>
            <Node pos="r" depth="3" NCoef="0" IVar="-1" Cut="0.0000000000000000e+00" cType="1" res="-3.8765586912631989e-02" rms="3.6774641275405884e-01" purity="1.8381145596504211e-01" nType="-99"/>
          </Node>
          <Node pos="r" depth="2" NCoef="0" IVar="9" Cut="1.4279752969741821e+00" cType="1" res="-9.7633348777890205e-03" rms="4.4262492656707764e-01" purity="5.2147662639617920e-01" nType="0">
            <Node pos="l" depth="3" NCoef="0" IVar="7" Cut="1.8077949285507202e+00" cType="1" res="-3.0267843976616859e-03" rms="4.4040650129318237e-01" purity="5.3110247850418091e-01" nType="0">
              <Node pos="l" depth="4" NCoef="0" IVar="-1" Cut="0.0000000000000000e+00" cType="1" res="1.5709141269326210e-02" rms="4.3191769719123840e-01" purity="6.6184723377227783e-01" nType="-99"/>
              <Node pos="r" depth="4" NCoef="0" IVar="-1" Cut="0.0000000000000000e+00" cType="1" res="-1.1402442120015621e-02" rms="4.4351929426193237e-01" purity="4.7999122738838196e-01" nType="-99"/>
            </Node>
            <Node pos="r" depth="3" NCoef="0" IVar="-1" Cut="0.0000000000000000e+00" cType="1" res="-4.4430609792470932e-02" rms="4.5081076025962830e-01" purity="4.8056223988533020e-01" nType="-99"/>
          </Node>
        </Node>
        <Node pos="r" depth="1" NCoef="0" IVar="-1" Cut="0.0000000000000000e+00" cType="1" res="2.0285870879888535e-02" rms="4.5532107353210449e-01" purity="5.0260394811630249e-01" nType="-99"/>
      </Node>
    </BinaryTree>
    <BinaryTree type="DecisionTree" boostWeight="1.0000000000000000e+00" itree="14">
      <Node pos="s" depth="0" NCoef="0" IVar="8" Cut="1.9991432428359985e+00" cType="1" res="4.9108354141935706e-04" rms="4.3554562330245972e-01" purity="5.0000000000000000e-01" nType="0">
        <Node pos="l" depth="1" NCoef="0" IVar="8" Cut="1.0644793510437012e+00" cType="1" res="-1.5355419600382447e-03" rms="4.3095275759696960e-01" purity="4.8786130547523499e-01" nType="0">
          <Node pos="l" depth="2" NCoef="0" IVar="5" Cut="1.6001037597656250e+02" cType="1" res="1.8548823427408934e-03" rms="4.2921555042266846e-01" purity="4.8703068494796753e-01" nType="0">
            <Node pos="l" depth="3" NCoef="0" IVar="8" Cut="-8.4730559587478638e-01" cType="1" res="4.9250149168074131e-03" rms="4.3997642397880554e-01" purity="5.4044854640960693e-01" nType="0">
              <Node pos="l" depth="4" NCoef="0" IVar="-1" Cut="0.0000000000000000e+00" cType="1" res="-4.4657443650066853e-03" rms="4.4691967964172363e-01" purity="5.2678531408309937e-01" nType="-99"/>
              <Node pos="r" depth="4" NCoef="0" IVar="-1" Cut="0.0000000000000000e+00" cType="1" res="2.2673835977911949e-02" rms="4.2885163426399231e-01" purity="5.6124627590179443e-01" nType="-99"/>
            </Node>
            <Node pos="r" depth="3" NCoef="0" IVar="7" Cut="2.1790542602539062e+00" cType="1" res="-1.2178192846477032e-02" rms="3.7581080198287964e-01" purity="2.4286636710166931e-01" nType="0">
              <Node pos="l" depth="4" NCoef="0" IVar="-1" Cut="0.0000000000000000e+00" cType="1" res="-4.9866564571857452e-02" rms="4.0323266386985779e-01" purity="3.3874973654747009e-01" nType="-99"/>
              <Node pos="r" depth="4" NCoef="0" IVar="-1" Cut="0.0000000000000000e+00" cType="1" res="1.9583106040954590e-02" rms="3.4732306003570557e-01" purity="1.5426963567733765e-01" nType="-99"/>
            </Node>
          </Node>
          <Node pos="r" depth="2" NCoef="0" IVar="9" Cut="-8.5654622316360474e-01" cType="1" res="-1.7098164185881615e-02" rms="4.3850243091583252e-01" purity="4.9167379736900330e-01" nType="0">
            <Node pos="l" depth="3" NCoef="0" IVar="-1" Cut="0.0000000000000000e+00" cType="1" res="2.4129813537001610e-03" rms="4.4200783967971802e-01" purity="3.9900338649749756e-01" nType="-99"/>
            <Node pos="r" depth="3" NCoef="0" IVar="-1" Cut="0.0000000000000000e+00" cType="1" res="-3.4702111035585403e-02" rms="4.3593060970306396e-01" purity="5.4848754405975342e-01" nType="-99"/>
          </Node>
        </Node>
        <Node pos="r" depth="1" NCoef="0" IVar="3" Cut="2.5067138671875000e+02" cType="1" res="1.0089954361319542e-02" rms="4.5654991269111633e-01" purity="5.5749362707138062e-01" nType="0">
          <Node pos="l" depth="2" NCoef="0" IVar="-1" Cut="0.0000000000000000e+00" cType="1" res="2.9164027422666550e-02" rms="4.5702862739562988e-01" purity="6.1867433786392212e-01" nType="-99"/>
          <Node pos="r" depth="2" NCoef="0" IVar="-1" Cut="0.0000000000000000e+00" cType="1" res="-3.7651738966815174e-04" rms="4.5593658089637756e-01" purity="5.1776582002639771e-01" nType="-99"/>
        </Node>
      </Node>
    </BinaryTree>
    <BinaryTree type="DecisionTree" boostWeight="1.0000000000000000e+00" itree="15">
      <Node pos="s" depth="0" NCoef="0" IVar="0" Cut="1.0690783691406250e+02" cType="1" res="3.1618442153558135e-04" rms="4.3528333306312561e-01" purity="5.0000000000000000e-01" nType="0">
        <Node pos="l" depth="1" NCoef="0" IVar="5" Cut="6.7876190185546875e+01" cType="1" res="-1.8451899522915483e-03" rms="4.3634572625160217e-01" purity="5.0719457864761353e-01" nType="0">
          <Node pos="l" depth="2" NCoef="0" IVar="1" Cut="1.4682266235351562e+01" cType="1" res="4.9388143233954906e-03" rms="4.4525298476219177e-01" purity="6.1273217201232910e-01" nType="0">
            <Node pos="l" depth="3" NCoef="0" IVar="-1" Cut="0.0000000000000000e+00" cType="1" res="5.0938520580530167e-02" rms="3.7219887971878052e-01" purity="8.2185512781143188e-01" nType="-99"/>
            <Node pos="r" depth="3" NCoef="0" IVar="0" Cut="5.7917110443115234e+01" cType="1" res="-1.2400612467899919e-03" rms="4.5758274197578430e-01" purity="5.7291483879089355e-01" nType="0">
              <Node pos="l" depth="4" NCoef="0" IVar="-1" Cut="0.0000000000000000e+00" cType="1" res="-1.1414875276386738e-02" rms="4.5307543873786926e-01" purity="5.7017379999160767e-01" nType="-99"/>
              <Node pos="r" depth="4" NCoef="0" IVar="-1" Cut="0.0000000000000000e+00" cType="1" res="2.3187005892395973e-02" rms="4.6812331676483154e-01" purity="5.7990533113479614e-01" nType="-99"/>
            </Node>
          </Node>
          <Node pos="r" depth="2" NCoef="0" IVar="10" Cut="-1.9987894296646118e+00" cType="1" res="-7.1597313508391380e-03" rms="4.2916384339332581e-01" purity="4.2451718449592590e-01" nType="0">
            <Node pos="l" depth="3" NCoef="0" IVar="-1" Cut="0.0000000000000000e+00" cType="1" res="1.5314085409045219e-02" rms="4.4334658980369568e-01" purity="3.9110267162322998e-01" nType="-99"/>
            <Node pos="r" depth="3" NCoef="0" IVar="7" Cut="2.2660682201385498e+00" cType="1" res="-9.7236679866909981e-03" rms="4.2714539170265198e-01" purity="4.2903533577919006e-01" nType="0">
              <Node pos="l" depth="4" NCoef="0" IVar="-1" Cut="0.0000000000000000e+00" cType="1" res="-4.9185804091393948e-03" rms="4.3030136823654175e-01" purity="5.2117550373077393e-01" nType="-99"/>
              <Node pos="r" depth="4" NCoef="0" IVar="-1" Cut="0.0000000000000000e+00" cType="1" res="-2.6281161233782768e-02" rms="4.2242497205734253e-01" purity="2.9643908143043518e-01" nType="-99"/>
            </Node>
          </Node>
        </Node>
        <Node pos="r" depth="1" NCoef="0" IVar="7" Cut="1.7232124805450439e+00" cType="1" res="1.3168715871870518e-02" rms="4.2868652939796448e-01" purity="4.5721763372421265e-01" nType="0">
          <Node pos="l" depth="2" NCoef="0" IVar="-1" Cut="0.0000000000000000e+00" cType="1" res="3.8676008582115173e-02" rms="4.2598420381546021e-01" purity="6.4880228042602539e-01" nType="-99"/>
          <Node pos="r" depth="2" NCoef="0" IVar="-1" Cut="0.0000000000000000e+00" cType="1" res="-1.0263048898195848e-04" rms="4.2995825409889221e-01" purity="3.3016142249107361e-01" nType="-99"/>
        </Node>
      </Node>
    </BinaryTree>
    <BinaryTree type="DecisionTree" boostWeight="1.0000000000000000e+00" itree="16">
      <Node pos="s" depth="0" NCoef="0" IVar="1" Cut="7.4339515686035156e+01" cType="1" res="4.2805349221453071e-04" rms="4.3501234054565430e-01" purity="5.0000000000000000e-01" nType="0">
        <Node pos="l" depth="1" NCoef="0" IVar="1" Cut="2.7142963409423828e+01" cType="1" res="-2.2820115555077791e-03" rms="4.4281262159347534e-01" purity="5.8275014162063599e-01" nType="0">
          <Node pos="l" depth="2" NCoef="0" IVar="7" Cut="1.2793345451354980e+00" cType="1" res="1.0586505755782127e-02" rms="4.1479393839836121e-01" purity="7.4289810657501221e-01" nType="0">
            <Node pos="l" depth="3" NCoef="0" IVar="-1" Cut="0.0000000000000000e+00" cType="1" res="4.2167067527770996e-02" rms="3.7281766533851624e-01" purity="8.2368177175521851e-01" nType="-99"/>
            <Node pos="r" depth="3" NCoef="0" IVar="0" Cut="7.0113632202148438e+01" cType="1" res="4.4028959237039089e-03" rms="4.2682129144668579e-01" purity="7.1777045726776123e-01" nType="0">
              <Node pos="l" depth="4" NCoef="0" IVar="-1" Cut="0.0000000000000000e+00" cType="1" res="2.7734786272048950e-02" rms="4.0681943297386169e-01" purity="7.6080310344696045e-01" nType="-99"/>
              <Node pos="r" depth="4" NCoef="0" IVar="-1" Cut="0.0000000000000000e+00" cType="1" res="-2.9907787218689919e-02" rms="4.5711576938629150e-01" purity="6.4492398500442505e-01" nType="-99"/>
            </Node>
          </Node>
          <Node pos="r" depth="2" NCoef="0" IVar="1" Cut="4.4307350158691406e+01" cType="1" res="-9.8644616082310677e-03" rms="4.5835188031196594e-01" purity="4.8838695883750916e-01" nType="0">
            <Node pos="l" depth="3" NCoef="0" IVar="9" Cut="-8.5688304901123047e-01" cType="1" res="-1.8812357448041439e-03" rms="4.6196863055229187e-01" purity="5.7147616147994995e-01" nType="0">
              <Node pos="l" depth="4" NCoef="0" IVar="-1" Cut="0.0000000000000000e+00" cType="1" res="-2.9308052733540535e-02" rms="4.8067334294319153e-01" purity="4.8379242420196533e-01" nType="-99"/>
              <Node pos="r" depth="4" NCoef="0" IVar="-1" Cut="0.0000000000000000e+00" cType="1" res="1.0221811942756176e-02" rms="4.5310100913047791e-01" purity="6.0982966423034668e-01" nType="-99"/>
            </Node>
            <Node pos="r" depth="3" NCoef="0" IVar="5" Cut="1.0592373657226562e+02" cType="1" res="-1.6844309866428375e-02" rms="4.5505139231681824e-01" purity="4.1574090719223022e-01" nType="0">
              <Node pos="l" depth="4" NCoef="0" IVar="-1" Cut="0.0000000000000000e+00" cType="1" res="-1.2102411128580570e-02" rms="4.6264508366584778e-01" purity="4.3629860877990723e-01" nType="-99"/>
              <Node pos="r" depth="4" NCoef="0" IVar="-1" Cut="0.0000000000000000e+00" cType="1" res="-4.0177971124649048e-02" rms="4.3641683459281921e-01" purity="3.6759990453720093e-01" nType="-99"/>
            </Node>
          </Node>
        </Node>
        <Node pos="r" depth="1" NCoef="0" IVar="8" Cut="-1.4279599189758301e+00" cType="1" res="8.0466913059353828e-03" rms="4.1219863295555115e-01" purity="2.6736965775489807e-01" nType="0">
          <Node pos="l" depth="2" NCoef="0" IVar="-1" Cut="0.0000000000000000e+00" cType="1" res="5.0050184130668640e-02" rms="4.5650354027748108e-01" purity="3.6016768217086792e-01" nType="-99"/>
          <Node pos="r" depth="2" NCoef="0" IVar="8" Cut="1.4798586368560791e+00" cType="1" res="4.1655166569398716e-05" rms="3.9982953667640686e-01" purity="2.4391822516918182e-01" nType="0">
            <Node pos="l" depth="3" NCoef="0" IVar="7" Cut="1.7985880374908447e+00" cType="1" res="-1.1785322800278664e-02" rms="3.8081160187721252e-01" purity="2.0688270032405853e-01" nType="0">
              <Node pos="l" depth="4" NCoef="0" IVar="-1" Cut="0.0000000000000000e+00" cType="1" res="-6.3080564141273499e-02" rms="4.2271852493286133e-01" purity="3.0265346169471741e-01" nType="-99"/>
              <Node pos="r" depth="4" NCoef="0" IVar="-1" Cut="0.0000000000000000e+00" cType="1" res="1.9653903320431709e-02" rms="3.5469058156013489e-01" purity="1.5562398731708527e-01" nType="-99"/>
            </Node>
            <Node pos="r" depth="3" NCoef="0" IVar="-1" Cut="0.0000000000000000e+00" cType="1" res="4.6835795044898987e-02" rms="4.5266908407211304e-01" purity="3.6087155342102051e-01" nType="-99"/>
          </Node>
        </Node>
      </Node>
    </BinaryTree>
    <BinaryTree type="DecisionTree" boostWeight="1.0000000000000000e+00" itree="17">
      <Node pos="s" depth="0" NCoef="0" IVar="0" Cut="1.0690783691406250e+02" cType="1" res="4.1554737254045904e-04" rms="4.3447244167327881e-01" purity="5.0000000000000000e-01" nType="0">
        <Node pos="l" depth="1" NCoef="0" IVar="8" Cut="-8.5673975944519043e-01" cType="1" res="-1.3136331690475345e-03" rms="4.3561813235282898e-01" purity="5.0719457864761353e-01" nType="0">
          <Node pos="l" depth="2" NCoef="0" IVar="9" Cut="-1.4272465705871582e+00" cType="1" res="-8.4868352860212326e-03" rms="4.4380509853363037e-01" purity="5.1503193378448486e-01" nType="0">
            <Node pos="l" depth="3" NCoef="0" IVar="-1" Cut="0.0000000000000000e+00" cType="1" res="-3.6512494087219238e-02" rms="4.5111346244812012e-01" purity="4.6470934152603149e-01" nType="-99"/>
            <Node pos="r" depth="3" NCoef="0" IVar="9" Cut="1.4799172878265381e+00" cType="1" res="-3.0103195458650589e-03" rms="4.4181424379348755e-01" purity="5.2743023633956909e-01" nType="0">
              <Node pos="l" depth="4" NCoef="0" IVar="-1" Cut="0.0000000000000000e+00" cType="1" res="6.4776786603033543e-03" rms="4.3781051039695740e-01" purity="5.7044160366058350e-01" nType="-99"/>
              <Node pos="r" depth="4" NCoef="0" IVar="-1" Cut="0.0000000000000000e+00" cType="1" res="-2.5050384923815727e-02" rms="4.4951620697975159e-01" purity="4.3805554509162903e-01" nType="-99"/>
            </Node>
          </Node>
          <Node pos="r" depth="2" NCoef="0" IVar="8" Cut="5.9717178344726562e-01" cType="1" res="2.7516863774508238e-03" rms="4.3085619807243347e-01" purity="5.0275290012359619e-01" nType="0">
            <Node pos="l" depth="3" NCoef="0" IVar="0" Cut="5.0989311218261719e+01" cType="1" res="2.0512297749519348e-02" rms="4.1674217581748962e-01" purity="4.8322433233261108e-01" nType="0">
              <Node pos="l" depth="4" NCoef="0" IVar="-1" Cut="0.0000000000000000e+00" cType="1" res="5.2762225270271301e-02" rms="4.2365759611129761e-01" purity="5.2645540237426758e-01" nType="-99"/>
              <Node pos="r" depth="4" NCoef="0" IVar="-1" Cut="0.0000000000000000e+00" cType="1" res="1.0643827728927135e-02" rms="4.1134020686149597e-01" purity="4.5304694771766663e-01" nType="-99"/>
            </Node>
            <Node pos="r" depth="3" NCoef="0" IVar="9" Cut="1.4279721975326538e+00" cType="1" res="-7.0006060414016247e-03" rms="4.3810683488845825e-01" purity="5.1347595453262329e-01" nType="0">
              <Node pos="l" depth="4" NCoef="0" IVar="-1" Cut="0.0000000000000000e+00" cType="1" res="-2.0734474528580904e-03" rms="4.3637415766716003e-01" purity="5.2702540159225464e-01" nType="-99"/>
              <Node pos="r" depth="4" NCoef="0" IVar="-1" Cut="0.0000000000000000e+00" cType="1" res="-3.2301485538482666e-02" rms="4.4397741556167603e-01" purity="4.6267431974411011e-01" nType="-99"/>
            </Node>
          </Node>
        </Node>
        <Node pos="r" depth="1" NCoef="0" IVar="3" Cut="3.5406561279296875e+02" cType="1" res="1.0698054917156696e-02" rms="4.2745181918144226e-01" purity="4.5721763372421265e-01" nType="0">
          <Node pos="l" depth="2" NCoef="0" IVar="-1" Cut="0.0000000000000000e+00" cType="1" res="2.6787335053086281e-02" rms="4.4538843631744385e-01" purity="5.3096085786819458e-01" nType="-99"/>
          <Node pos="r" depth="2" NCoef="0" IVar="-1" Cut="0.0000000000000000e+00" cType="1" res="2.1014576777815819e-03" rms="4.1267129778862000e-01" purity="3.9964154362678528e-01" nType="-99"/>
        </Node>
      </Node>
    </BinaryTree>
    <BinaryTree type="DecisionTree" boostWeight="1.0000000000000000e+00" itree="18">
      <Node pos="s" depth="0" NCoef="0" IVar="7" Cut="8.6037564277648926e-01" cType="1" res="2.8188613941892982e-04" rms="4.3419843912124634e-01" purity="5.0000000000000000e-01" nType="0">
        <Node pos="l" depth="1" NCoef="0" IVar="-1" Cut="0.0000000000000000e+00" cType="1" res="1.4970984309911728e-02" rms="4.1949340701103210e-01" purity="6.7415583133697510e-01" nType="-99"/>
        <Node pos="r" depth="1" NCoef="0" IVar="9" Cut="-2.8554752469062805e-01" cType="1" res="-9.1435998911038041e-04" rms="4.3560370802879333e-01" purity="4.8282173275947571e-01" nType="0">
          <Node pos="l" depth="2" NCoef="0" IVar="8" Cut="-2.8560441732406616e-01" cType="1" res="-4.7873118892312050e-03" rms="4.3653789162635803e-01" purity="4.5205429196357727e-01" nType="0">
            <Node pos="l" depth="3" NCoef="0" IVar="10" Cut="-1.5786551237106323e+00" cType="1" res="-1.0995836928486824e-02" rms="4.3822592496871948e-01" purity="4.7514194250106812e-01" nType="0">
              <Node pos="l" depth="4" NCoef="0" IVar="-1" Cut="0.0000000000000000e+00" cType="1" res="1.6642636910546571e-04" rms="4.5310834050178528e-01" purity="4.8359093070030212e-01" nType="-99"/>
              <Node pos="r" depth="4" NCoef="0" IVar="-1" Cut="0.0000000000000000e+00" cType="1" res="-3.1300444155931473e-02" rms="4.1978058218955994e-01" purity="4.6526220440864563e-01" nType="-99"/>
            </Node>
            <Node pos="r" depth="3" NCoef="0" IVar="0" Cut="7.5387786865234375e+01" cType="1" res="-1.1709394166246057e-03" rms="4.3551084399223328e-01" purity="4.3860611319541931e-01" nType="0">
              <Node pos="l" depth="4" NCoef="0" IVar="-1" Cut="0.0000000000000000e+00" cType="1" res="5.6386995129287243e-03" rms="4.3885099887847900e-01" purity="4.6824085712432861e-01" nType="-99"/>
              <Node pos="r" depth="4" NCoef="0" IVar="-1" Cut="0.0000000000000000e+00" cType="1" res="-1.6332726925611496e-02" rms="4.2871093750000000e-01" purity="3.8082090020179749e-01" nType="-99"/>
            </Node>
          </Node>
          <Node pos="r" depth="2" NCoef="0" IVar="9" Cut="3.3763751387596130e-01" cType="1" res="2.0318657625466585e-03" rms="4.3486863374710083e-01" purity="5.0622707605361938e-01" nType="0">
            <Node pos="l" depth="3" NCoef="0" IVar="7" Cut="2.0385673046112061e+00" cType="1" res="1.1900306679308414e-02" rms="4.2735198140144348e-01" purity="6.5293788909912109e-01" nType="0">
              <Node pos="l" depth="4" NCoef="0" IVar="-1" Cut="0.0000000000000000e+00" cType="1" res="3.2645814120769501e-02" rms="4.0513828396797180e-01" purity="7.3143303394317627e-01" nType="-99"/>
              <Node pos="r" depth="4" NCoef="0" IVar="-1" Cut="0.0000000000000000e+00" cType="1" res="-4.0518306195735931e-04" rms="4.4649070501327515e-01" purity="5.8062106370925903e-01" nType="-99"/>
            </Node>
            <Node pos="r" depth="3" NCoef="0" IVar="8" Cut="2.8561344742774963e-01" cType="1" res="-1.3378821313381195e-03" rms="4.3735474348068237e-01" purity="4.5613017678260803e-01" nType="0">
              <Node pos="l" depth="4" NCoef="0" IVar="-1" Cut="0.0000000000000000e+00" cType="1" res="3.8654196541756392e-03" rms="4.3787285685539246e-01" purity="4.3786814808845520e-01" nType="-99"/>
              <Node pos="r" depth="4" NCoef="0" IVar="-1" Cut="0.0000000000000000e+00" cType="1" res="-1.0673159733414650e-02" rms="4.3637880682945251e-01" purity="4.8704439401626587e-01" nType="-99"/>
            </Node>
          </Node>
        </Node>
      </Node>
    </BinaryTree>
    <BinaryTree type="DecisionTree" boostWeight="1.0000000000000000e+00" itree="19">
      <Node pos="s" depth="0" NCoef="0" IVar="7" Cut="2.2687928676605225e+00" cType="1" res="2.4432895588688552e-04" rms="4.3408668041229248e-01" purity="5.0000000000000000e-01" nType="0">
        <Node pos="l" depth="1" NCoef="0" IVar="0" Cut="9.2304199218750000e+01" cType="1" res="3.3033087383955717e-03" rms="4.3430629372596741e-01" purity="5.7401818037033081e-01" nType="0">
          <Node pos="l" depth="2" NCoef="0" IVar="9" Cut="-1.4279417991638184e+00" cType="1" res="-3.2614171504974365e-04" rms="4.3535697460174561e-01" purity="5.6972986459732056e-01" nType="0">
            <Node pos="l" depth="3" NCoef="0" IVar="8" Cut="-8.5608869791030884e-01" cType="1" res="-1.5440038405358791e-02" rms="4.5365050435066223e-01" purity="4.8364642262458801e-01" nType="0">
              <Node pos="l" depth="4" NCoef="0" IVar="-1" Cut="0.0000000000000000e+00" cType="1" res="-2.5476839393377304e-02" rms="4.5476824045181274e-01" purity="4.7660973668098450e-01" nType="-99"/>
              <Node pos="r" depth="4" NCoef="0" IVar="-1" Cut="0.0000000000000000e+00" cType="1" res="-1.0928554460406303e-02" rms="4.5242911577224731e-01" purity="4.9074724316596985e-01" nType="-99"/>
            </Node>
            <Node pos="r" depth="3" NCoef="0" IVar="5" Cut="1.2213108825683594e+02" cType="1" res="4.1440059430897236e-03" rms="4.2969536781311035e-01" purity="5.9519016742706299e-01" nType="0">
              <Node pos="l" depth="4" NCoef="0" IVar="-1" Cut="0.0000000000000000e+00" cType="1" res="1.0890413075685501e-02" rms="4.3109750747680664e-01" purity="6.4898341894149780e-01" nType="-99"/>
              <Node pos="r" depth="4" NCoef="0" IVar="-1" Cut="0.0000000000000000e+00" cType="1" res="-2.9527230188250542e-02" rms="4.2127522826194763e-01" purity="3.1104195117950439e-01" nType="-99"/>
            </Node>
          </Node>
          <Node pos="r" depth="2" NCoef="0" IVar="7" Cut="1.2485936880111694e+00" cType="1" res="1.7195736989378929e-02" rms="4.2997801303863525e-01" purity="5.9043264389038086e-01" nType="0">
            <Node pos="l" depth="3" NCoef="0" IVar="-1" Cut="0.0000000000000000e+00" cType="1" res="4.4257987290620804e-02" rms="4.1723316907882690e-01" purity="6.9968682527542114e-01" nType="-99"/>
            <Node pos="r" depth="3" NCoef="0" IVar="-1" Cut="0.0000000000000000e+00" cType="1" res="-8.7452796287834644e-04" rms="4.4031774997711182e-01" purity="4.9252888560295105e-01" nType="-99"/>
          </Node>
        </Node>
        <Node pos="r" depth="1" NCoef="0" IVar="6" Cut="8.2973609924316406e+01" cType="1" res="-3.5751122049987316e-03" rms="4.3378201127052307e-01" purity="4.0758091211318970e-01" nType="0">
          <Node pos="l" depth="2" NCoef="0" IVar="6" Cut="3.7806991577148438e+01" cType="1" res="2.4155215360224247e-03" rms="4.3531811237335205e-01" purity="4.3774408102035522e-01" nType="0">
            <Node pos="l" depth="3" NCoef="0" IVar="1" Cut="5.8938869476318359e+01" cType="1" res="1.9647678360342979e-02" rms="4.3650594353675842e-01" purity="4.6322423219680786e-01" nType="0">
              <Node pos="l" depth="4" NCoef="0" IVar="-1" Cut="0.0000000000000000e+00" cType="1" res="3.5371866077184677e-02" rms="4.4913786649703979e-01" purity="5.9121739864349365e-01" nType="-99"/>
              <Node pos="r" depth="4" NCoef="0" IVar="-1" Cut="0.0000000000000000e+00" cType="1" res="1.0484183439984918e-03" rms="4.1402599215507507e-01" purity="2.5107756257057190e-01" nType="-99"/>
            </Node>
            <Node pos="r" depth="3" NCoef="0" IVar="2" Cut="7.1071449279785156e+01" cType="1" res="-1.0276709683239460e-02" rms="4.3400380015373230e-01" purity="4.1897681355476379e-01" nType="0">
              <Node pos="l" depth="4" NCoef="0" IVar="-1" Cut="0.0000000000000000e+00" cType="1" res="-2.9988441616296768e-02" rms="4.2886543273925781e-01" purity="4.0087491273880005e-01" nType="-99"/>
              <Node pos="r" depth="4" NCoef="0" IVar="-1" Cut="0.0000000000000000e+00" cType="1" res="1.6637716442346573e-02" rms="4.4254902005195618e-01" purity="4.5296216011047363e-01" nType="-99"/>
            </Node>
          </Node>
          <Node pos="r" depth="2" NCoef="0" IVar="-1" Cut="0.0000000000000000e+00" cType="1" res="-3.2252859324216843e-02" rms="4.2825901508331299e-01" purity="3.1093436479568481e-01" nType="-99"/>
        </Node>
      </Node>
    </BinaryTree>
    <BinaryTree type="DecisionTree" boostWeight="1.0000000000000000e+00" itree="20">
      <Node pos="s" depth="0" NCoef="0" IVar="8" Cut="-1.9990929365158081e+00" cType="1" res="4.1022157529368997e-04" rms="4.3372935056686401e-01" purity="5.0000000000000000e-01" nType="0">
        <Node pos="l" depth="1" NCoef="0" IVar="0" Cut="7.0185264587402344e+01" cType="1" res="7.2213308885693550e-03" rms="4.5547080039978027e-01" purity="5.5371326208114624e-01" nType="0">
          <Node pos="l" depth="2" NCoef="0" IVar="0" Cut="4.4612953186035156e+01" cType="1" res="-6.0378420166671276e-03" rms="4.5208436250686646e-01" purity="5.4219841957092285e-01" nType="0">
            <Node pos="l" depth="3" NCoef="0" IVar="-1" Cut="0.0000000000000000e+00" cType="1" res="-2.7805415913462639e-02" rms="4.5205610990524292e-01" purity="5.0450158119201660e-01" nType="-99"/>
            <Node pos="r" depth="3" NCoef="0" IVar="-1" Cut="0.0000000000000000e+00" cType="1" res="1.0681607760488987e-02" rms="4.5154675841331482e-01" purity="5.7465749979019165e-01" nType="-99"/>
          </Node>
          <Node pos="r" depth="2" NCoef="0" IVar="-1" Cut="0.0000000000000000e+00" cType="1" res="3.4454159438610077e-02" rms="4.6045058965682983e-01" purity="5.7400947809219360e-01" nType="-99"/>
        </Node>
        <Node pos="r" depth="1" NCoef="0" IVar="10" Cut="1.9991687536239624e+00" cType="1" res="-1.0162729304283857e-03" rms="4.2902269959449768e-01" purity="4.8875045776367188e-01" nType="0">
          <Node pos="l" depth="2" NCoef="0" IVar="1" Cut="5.8442886352539062e+01" cType="1" res="-3.0003427527844906e-03" rms="4.2471289634704590e-01" purity="4.9052679538726807e-01" nType="0">
            <Node pos="l" depth="3" NCoef="0" IVar="2" Cut="1.0502729797363281e+02" cType="1" res="9.2916621360927820e-04" rms="4.3460646271705627e-01" purity="6.2660366296768188e-01" nType="0">
              <Node pos="l" depth="4" NCoef="0" IVar="-1" Cut="0.0000000000000000e+00" cType="1" res="5.3988657891750336e-03" rms="4.3170467019081116e-01" purity="6.3148319721221924e-01" nType="-99"/>
              <Node pos="r" depth="4" NCoef="0" IVar="-1" Cut="0.0000000000000000e+00" cType="1" res="-2.6749504730105400e-02" rms="4.5239782333374023e-01" purity="5.9481525421142578e-01" nType="-99"/>
            </Node>
            <Node pos="r" depth="3" NCoef="0" IVar="7" Cut="1.2812982797622681e+00" cType="1" res="-9.2149581760168076e-03" rms="4.0850004553794861e-01" purity="2.7531775832176208e-01" nType="0">
              <Node pos="l" depth="4" NCoef="0" IVar="-1" Cut="0.0000000000000000e+00" cType="1" res="-3.2025557011365891e-02" rms="4.5258221030235291e-01" purity="4.2789918184280396e-01" nType="-99"/>
              <Node pos="r" depth="4" NCoef="0" IVar="-1" Cut="0.0000000000000000e+00" cType="1" res="-6.9724386557936668e-03" rms="3.9638307690620422e-01" purity="2.3660528659820557e-01" nType="-99"/>
            </Node>
          </Node>
          <Node pos="r" depth="2" NCoef="0" IVar="6" Cut="8.2973609924316406e+01" cType="1" res="9.1559989377856255e-03" rms="4.5033454895019531e-01" purity="4.7964346408843994e-01" nType="0">
            <Node pos="l" depth="3" NCoef="0" IVar="-1" Cut="0.0000000000000000e+00" cType="1" res="-1.5104594640433788e-02" rms="4.4414779543876648e-01" purity="4.2670685052871704e-01" nType="-99"/>
            <Node pos="r" depth="3" NCoef="0" IVar="-1" Cut="0.0000000000000000e+00" cType="1" res="3.5167321562767029e-02" rms="4.5531156659126282e-01" purity="5.3098428249359131e-01" nType="-99"/>
          </Node>
        </Node>
      </Node>
    </BinaryTree>
    <BinaryTree type="DecisionTree" boostWeight="1.0000000000000000e+00" itree="21">
      <Node pos="s" depth="0" NCoef="0" IVar="1" Cut="7.4339515686035156e+01" cType="1" res="3.4147061523981392e-04" rms="4.3351206183433533e-01" purity="5.0000000000000000e-01" nType="0">
        <Node pos="l" depth="1" NCoef="0" IVar="1" Cut="2.0400739669799805e+01" cType="1" res="-2.1366304717957973e-03" rms="4.4147676229476929e-01" purity="5.8275014162063599e-01" nType="0">
          <Node pos="l" depth="2" NCoef="0" IVar="1" Cut="1.1205346107482910e+01" cType="1" res="6.9088363088667393e-03" rms="4.0099334716796875e-01" purity="7.7003294229507446e-01" nType="0">
            <Node pos="l" depth="3" NCoef="0" IVar="-1" Cut="0.0000000000000000e+00" cType="1" res="2.2049810737371445e-02" rms="3.8072815537452698e-01" purity="8.0118232965469360e-01" nType="-99"/>
            <Node pos="r" depth="3" NCoef="0" IVar="1" Cut="1.6219871520996094e+01" cType="1" res="2.1513407118618488e-03" rms="4.1169774532318115e-01" purity="7.5280255079269409e-01" nType="0">
              <Node pos="l" depth="4" NCoef="0" IVar="-1" Cut="0.0000000000000000e+00" cType="1" res="1.6234242357313633e-03" rms="4.0616789460182190e-01" purity="7.6733154058456421e-01" nType="-99"/>
              <Node pos="r" depth="4" NCoef="0" IVar="-1" Cut="0.0000000000000000e+00" cType="1" res="4.0126815438270569e-03" rms="4.1756951808929443e-01" purity="7.3715358972549438e-01" nType="-99"/>
            </Node>
          </Node>
          <Node pos="r" depth="2" NCoef="0" IVar="9" Cut="8.5682821273803711e-01" cType="1" res="-5.0771571695804596e-03" rms="4.5382133126258850e-01" purity="5.2186763286590576e-01" nType="0">
            <Node pos="l" depth="3" NCoef="0" IVar="5" Cut="1.0548855590820312e+02" cType="1" res="-2.0059813687112182e-04" rms="4.4895198941230774e-01" purity="5.5862861871719360e-01" nType="0">
              <Node pos="l" depth="4" NCoef="0" IVar="-1" Cut="0.0000000000000000e+00" cType="1" res="4.2633851990103722e-03" rms="4.5148327946662903e-01" purity="5.7563066482543945e-01" nType="-99"/>
              <Node pos="r" depth="4" NCoef="0" IVar="-1" Cut="0.0000000000000000e+00" cType="1" res="-1.6917582601308823e-02" rms="4.4015613198280334e-01" purity="5.0196826457977295e-01" nType="-99"/>
            </Node>
            <Node pos="r" depth="3" NCoef="0" IVar="8" Cut="2.8508689999580383e-01" cType="1" res="-1.5650596469640732e-02" rms="4.6402773261070251e-01" purity="4.4216200709342957e-01" nType="0">
              <Node pos="l" depth="4" NCoef="0" IVar="-1" Cut="0.0000000000000000e+00" cType="1" res="-7.1768728084862232e-03" rms="4.6362531185150146e-01" purity="4.2648178339004517e-01" nType="-99"/>
              <Node pos="r" depth="4" NCoef="0" IVar="-1" Cut="0.0000000000000000e+00" cType="1" res="-3.3463820815086365e-02" rms="4.6426874399185181e-01" purity="4.6583941578865051e-01" nType="-99"/>
            </Node>
          </Node>
        </Node>
        <Node pos="r" depth="1" NCoef="0" IVar="10" Cut="1.4280307292938232e+00" cType="1" res="7.3080030269920826e-03" rms="4.1021367907524109e-01" purity="2.6736965775489807e-01" nType="0">
          <Node pos="l" depth="2" NCoef="0" IVar="10" Cut="-1.4797518253326416e+00" cType="1" res="2.4005989544093609e-03" rms="4.0421974658966064e-01" purity="2.5701573491096497e-01" nType="0">
            <Node pos="l" depth="3" NCoef="0" IVar="-1" Cut="0.0000000000000000e+00" cType="1" res="2.3381490260362625e-02" rms="4.2554047703742981e-01" purity="2.9761156439781189e-01" nType="-99"/>
            <Node pos="r" depth="3" NCoef="0" IVar="9" Cut="-2.8750780224800110e-01" cType="1" res="-3.7059194874018431e-03" rms="3.9440259337425232e-01" purity="2.3930649459362030e-01" nType="0">
              <Node pos="l" depth="4" NCoef="0" IVar="-1" Cut="0.0000000000000000e+00" cType="1" res="-4.0451940149068832e-02" rms="3.6628374457359314e-01" purity="1.7230656743049622e-01" nType="-99"/>
              <Node pos="r" depth="4" NCoef="0" IVar="-1" Cut="0.0000000000000000e+00" cType="1" res="1.2049642391502857e-02" rms="4.1200616955757141e-01" purity="2.8485193848609924e-01" nType="-99"/>
            </Node>
          </Node>
          <Node pos="r" depth="2" NCoef="0" IVar="-1" Cut="0.0000000000000000e+00" cType="1" res="3.2901883125305176e-02" rms="4.2828071117401123e-01" purity="3.0017527937889099e-01" nType="-99"/>
        </Node>
      </Node>
    </BinaryTree>
    <BinaryTree type="DecisionTree" boostWeight="1.0000000000000000e+00" itree="22">
      <Node pos="s" depth="0" NCoef="0" IVar="5" Cut="8.0111091613769531e+01" cType="1" res="2.1592734265141189e-04" rms="4.3333116173744202e-01" purity="5.0000000000000000e-01" nType="0">
        <Node pos="l" depth="1" NCoef="0" IVar="7" Cut="2.7382652759552002e+00" cType="1" res="-4.4302786700427532e-03" rms="4.4415432214736938e-01" purity="6.0028147697448730e-01" nType="0">
          <Node pos="l" depth="2" NCoef="0" IVar="9" Cut="1.9991892576217651e+00" cType="1" res="2.0268154330551624e-03" rms="4.4106605648994446e-01" purity="6.3045895099639893e-01" nType="0">
            <Node pos="l" depth="3" NCoef="0" IVar="9" Cut="-1.7394143342971802e+00" cType="1" res="6.1164880171418190e-03" rms="4.3757686018943787e-01" purity="6.4398223161697388e-01" nType="0">
              <Node pos="l" depth="4" NCoef="0" IVar="-1" Cut="0.0000000000000000e+00" cType="1" res="-1.5663363039493561e-02" rms="4.6230241656303406e-01" purity="5.6073623895645142e-01" nType="-99"/>
              <Node pos="r" depth="4" NCoef="0" IVar="-1" Cut="0.0000000000000000e+00" cType="1" res="1.5383518300950527e-02" rms="4.2907840013504028e-01" purity="6.7089647054672241e-01" nType="-99"/>
            </Node>
            <Node pos="r" depth="3" NCoef="0" IVar="-1" Cut="0.0000000000000000e+00" cType="1" res="-2.0384058356285095e-02" rms="4.5728653669357300e-01" purity="5.6404089927673340e-01" nType="-99"/>
          </Node>
          <Node pos="r" depth="2" NCoef="0" IVar="5" Cut="5.1179466247558594e+01" cType="1" res="-2.2829046472907066e-02" rms="4.5233318209648132e-01" purity="5.1429408788681030e-01" nType="0">
            <Node pos="l" depth="3" NCoef="0" IVar="-1" Cut="0.0000000000000000e+00" cType="1" res="-7.9078329727053642e-03" rms="4.4833016395568848e-01" purity="5.6212389469146729e-01" nType="-99"/>
            <Node pos="r" depth="3" NCoef="0" IVar="-1" Cut="0.0000000000000000e+00" cType="1" res="-4.7844506800174713e-02" rms="4.5602709054946899e-01" purity="4.6202859282493591e-01" nType="-99"/>
          </Node>
        </Node>
        <Node pos="r" depth="1" NCoef="0" IVar="10" Cut="-1.9984254837036133e+00" cType="1" res="4.5478814281523228e-03" rms="4.2294466495513916e-01" purity="4.0650111436843872e-01" nType="0">
          <Node pos="l" depth="2" NCoef="0" IVar="-1" Cut="0.0000000000000000e+00" cType="1" res="3.8130689412355423e-02" rms="4.3895569443702698e-01" purity="4.1297766566276550e-01" nType="-99"/>
          <Node pos="r" depth="2" NCoef="0" IVar="10" Cut="1.7397793531417847e+00" cType="1" res="1.2887736083939672e-03" rms="4.2068612575531006e-01" purity="4.0564981102943420e-01" nType="0">
            <Node pos="l" depth="3" NCoef="0" IVar="6" Cut="1.1449433898925781e+02" cType="1" res="-2.2479165345430374e-03" rms="4.1779384016990662e-01" purity="4.0881571173667908e-01" nType="0">
              <Node pos="l" depth="4" NCoef="0" IVar="-1" Cut="0.0000000000000000e+00" cType="1" res="5.9707392938435078e-03" rms="4.1858038306236267e-01" purity="3.4558692574501038e-01" nType="-99"/>
              <Node pos="r" depth="4" NCoef="0" IVar="-1" Cut="0.0000000000000000e+00" cType="1" res="-1.7453406006097794e-02" rms="4.1625598073005676e-01" purity="5.1440131664276123e-01" nType="-99"/>
            </Node>
            <Node pos="r" depth="3" NCoef="0" IVar="-1" Cut="0.0000000000000000e+00" cType="1" res="2.4663729593157768e-02" rms="4.3408548831939697e-01" purity="3.9023092389106750e-01" nType="-99"/>
          </Node>
        </Node>
      </Node>
    </BinaryTree>
    <BinaryTree type="DecisionTree" boostWeight="1.0000000000000000e+00" itree="23">
      <Node pos="s" depth="0" NCoef="0" IVar="7" Cut="1.3298480510711670e+00" cType="1" res="1.0907466639764607e-04" rms="4.3306019902229309e-01" purity="5.0000000000000000e-01" nType="0">
        <Node pos="l" depth="1" NCoef="0" IVar="0" Cut="9.0757675170898438e+01" cType="1" res="5.5386316962540150e-03" rms="4.2688187956809998e-01" purity="6.3521969318389893e-01" nType="0">
          <Node pos="l" depth="2" NCoef="0" IVar="0" Cut="5.2088409423828125e+01" cType="1" res="-1.5958276344463229e-03" rms="4.3141549825668335e-01" purity="6.1374068260192871e-01" nType="0">
            <Node pos="l" depth="3" NCoef="0" IVar="-1" Cut="0.0000000000000000e+00" cType="1" res="-3.8959126919507980e-02" rms="4.3567496538162231e-01" purity="5.6565248966217041e-01" nType="-99"/>
            <Node pos="r" depth="3" NCoef="0" IVar="-1" Cut="0.0000000000000000e+00" cType="1" res="3.1841225922107697e-02" rms="4.2549443244934082e-01" purity="6.5845257043838501e-01" nType="-99"/>
          </Node>
          <Node pos="r" depth="2" NCoef="0" IVar="-1" Cut="0.0000000000000000e+00" cType="1" res="3.0207362025976181e-02" rms="4.1381397843360901e-01" purity="6.9306719303131104e-01" nType="-99"/>
        </Node>
        <Node pos="r" depth="1" NCoef="0" IVar="5" Cut="1.6001037597656250e+02" cType="1" res="-1.5079643344506621e-03" rms="4.3487015366554260e-01" purity="4.5972865819931030e-01" nType="0">
          <Node pos="l" depth="2" NCoef="0" IVar="6" Cut="8.9928627014160156e+01" cType="1" res="-3.7413660902529955e-03" rms="4.4508847594261169e-01" purity="5.0224530696868896e-01" nType="0">
            <Node pos="l" depth="3" NCoef="0" IVar="7" Cut="3.2504954338073730e+00" cType="1" res="1.9389748922549188e-04" rms="4.4179826974868774e-01" purity="4.9116796255111694e-01" nType="0">
              <Node pos="l" depth="4" NCoef="0" IVar="-1" Cut="0.0000000000000000e+00" cType="1" res="3.8999202661216259e-03" rms="4.4229340553283691e-01" purity="5.1186197996139526e-01" nType="-99"/>
              <Node pos="r" depth="4" NCoef="0" IVar="-1" Cut="0.0000000000000000e+00" cType="1" res="-3.1592972576618195e-02" rms="4.3715929985046387e-01" purity="3.2858723402023315e-01" nType="-99"/>
            </Node>
            <Node pos="r" depth="3" NCoef="0" IVar="7" Cut="1.6644369363784790e+00" cType="1" res="-1.3184566050767899e-02" rms="4.5274677872657776e-01" purity="5.2882701158523560e-01" nType="0">
              <Node pos="l" depth="4" NCoef="0" IVar="-1" Cut="0.0000000000000000e+00" cType="1" res="1.2113438919186592e-02" rms="4.4171646237373352e-01" purity="6.5221339464187622e-01" nType="-99"/>
              <Node pos="r" depth="4" NCoef="0" IVar="-1" Cut="0.0000000000000000e+00" cType="1" res="-2.9630286619067192e-02" rms="4.5770284533500671e-01" purity="4.6727296710014343e-01" nType="-99"/>
            </Node>
          </Node>
          <Node pos="r" depth="2" NCoef="0" IVar="-1" Cut="0.0000000000000000e+00" cType="1" res="2.9817143455147743e-02" rms="3.5935002565383911e-01" purity="1.7731575667858124e-01" nType="-99"/>
        </Node>
      </Node>
    </BinaryTree>
    <BinaryTree type="DecisionTree" boostWeight="1.0000000000000000e+00" itree="24">
      <Node pos="s" depth="0" NCoef="0" IVar="9" Cut="2.8563931584358215e-01" cType="1" res="1.3417350419331342e-04" rms="4.3277022242546082e-01" purity="5.0000000000000000e-01" nType="0">
        <Node pos="l" depth="1" NCoef="0" IVar="9" Cut="-3.3751496672630310e-01" cType="1" res="2.3930612951517105e-03" rms="4.3104422092437744e-01" purity="5.1802825927734375e-01" nType="0">
          <Node pos="l" depth="2" NCoef="0" IVar="9" Cut="-8.4735304117202759e-01" cType="1" res="-9.3651493079960346e-04" rms="4.3484985828399658e-01" purity="4.6268391609191895e-01" nType="0">
            <Node pos="l" depth="3" NCoef="0" IVar="0" Cut="7.5378364562988281e+01" cType="1" res="2.4691263679414988e-03" rms="4.3522936105728149e-01" purity="4.3340083956718445e-01" nType="0">
              <Node pos="l" depth="4" NCoef="0" IVar="-1" Cut="0.0000000000000000e+00" cType="1" res="-1.2846970930695534e-03" rms="4.3948101997375488e-01" purity="4.3990692496299744e-01" nType="-99"/>
              <Node pos="r" depth="4" NCoef="0" IVar="-1" Cut="0.0000000000000000e+00" cType="1" res="1.2630806304514408e-02" rms="4.2656046152114868e-01" purity="4.2045751214027405e-01" nType="-99"/>
            </Node>
            <Node pos="r" depth="3" NCoef="0" IVar="-1" Cut="0.0000000000000000e+00" cType="1" res="-1.5794569626450539e-02" rms="4.3331849575042725e-01" purity="5.6455850601196289e-01" nType="-99"/>
          </Node>
          <Node pos="r" depth="2" NCoef="0" IVar="7" Cut="1.7030395269393921e+00" cType="1" res="1.1557175777852535e-02" rms="4.2025572061538696e-01" purity="6.7035436630249023e-01" nType="0">
            <Node pos="l" depth="3" NCoef="0" IVar="-1" Cut="0.0000000000000000e+00" cType="1" res="3.7123057991266251e-02" rms="3.9046204090118408e-01" purity="7.6475930213928223e-01" nType="-99"/>
            <Node pos="r" depth="3" NCoef="0" IVar="-1" Cut="0.0000000000000000e+00" cType="1" res="-3.9438868407160044e-04" rms="4.4168087840080261e-01" purity="5.9691441059112549e-01" nType="-99"/>
          </Node>
        </Node>
        <Node pos="r" depth="1" NCoef="0" IVar="7" Cut="1.7924849987030029e+00" cType="1" res="-2.8440286405384541e-03" rms="4.3501746654510498e-01" purity="4.7623091936111450e-01" nType="0">
          <Node pos="l" depth="2" NCoef="0" IVar="8" Cut="1.4279665946960449e+00" cType="1" res="-8.8664134964346886e-03" rms="4.3431928753852844e-01" purity="5.7661074399948120e-01" nType="0">
