<?xml version="1.0"?>
<MethodSetup Method="BDT::BDT">
  <GeneralInfo>
    <Info name="TMVA Release" value="4.2.1 [262657]"/>
    <Info name="ROOT Release" value="6.10/04 [395780]"/>
    <Info name="Creator" value="marine5575"/>
    <Info name="Date" value="Wed Oct  9 20:04:01 2019"/>
    <Info name="Host" value="Linux htop.hanyang.ac.kr 2.6.32-696.el6.centos.plus.x86_64 #1 SMP Mon Apr 3 14:56:08 UTC 2017 x86_64 x86_64 x86_64 GNU/Linux"/>
    <Info name="Dir" value="/home/marine5575/work/Undergrad2018/mva"/>
    <Info name="Training events" value="50004"/>
    <Info name="TrainingTime" value="3.78899620e+01"/>
    <Info name="AnalysisType" value="Classification"/>
  </GeneralInfo>
  <Options>
    <Option name="V" modified="Yes">False</Option>
    <Option name="VerbosityLevel" modified="No">Default</Option>
    <Option name="VarTransform" modified="No">None</Option>
    <Option name="H" modified="Yes">False</Option>
    <Option name="CreateMVAPdfs" modified="No">False</Option>
    <Option name="IgnoreNegWeightsInTraining" modified="No">False</Option>
    <Option name="NTrees" modified="Yes">400</Option>
    <Option name="MaxDepth" modified="Yes">5</Option>
    <Option name="MinNodeSize" modified="Yes">5%</Option>
    <Option name="nCuts" modified="Yes">30</Option>
    <Option name="BoostType" modified="Yes">Grad</Option>
    <Option name="AdaBoostR2Loss" modified="No">quadratic</Option>
    <Option name="UseBaggedBoost" modified="No">False</Option>
    <Option name="Shrinkage" modified="Yes">5.000000e-01</Option>
    <Option name="AdaBoostBeta" modified="No">5.000000e-01</Option>
    <Option name="UseRandomisedTrees" modified="No">False</Option>
    <Option name="UseNvars" modified="No">3</Option>
    <Option name="UsePoissonNvars" modified="No">True</Option>
    <Option name="BaggedSampleFraction" modified="No">6.000000e-01</Option>
    <Option name="UseYesNoLeaf" modified="No">True</Option>
    <Option name="NegWeightTreatment" modified="No">pray</Option>
    <Option name="Css" modified="No">1.000000e+00</Option>
    <Option name="Cts_sb" modified="No">1.000000e+00</Option>
    <Option name="Ctb_ss" modified="No">1.000000e+00</Option>
    <Option name="Cbb" modified="No">1.000000e+00</Option>
    <Option name="NodePurityLimit" modified="No">5.000000e-01</Option>
    <Option name="SeparationType" modified="Yes">giniindex</Option>
    <Option name="RegressionLossFunctionBDTG" modified="No">huber</Option>
    <Option name="HuberQuantile" modified="No">7.000000e-01</Option>
    <Option name="DoBoostMonitor" modified="No">False</Option>
    <Option name="UseFisherCuts" modified="No">False</Option>
    <Option name="MinLinCorrForFisher" modified="No">8.000000e-01</Option>
    <Option name="UseExclusiveVars" modified="No">False</Option>
    <Option name="DoPreselection" modified="No">False</Option>
    <Option name="SigToBkgFraction" modified="No">1.000000e+00</Option>
    <Option name="PruneMethod" modified="No">nopruning</Option>
    <Option name="PruneStrength" modified="No">0.000000e+00</Option>
    <Option name="PruningValFraction" modified="No">5.000000e-01</Option>
    <Option name="SkipNormalization" modified="No">False</Option>
    <Option name="nEventsMin" modified="No">0</Option>
    <Option name="UseBaggedGrad" modified="No">False</Option>
    <Option name="GradBaggingFraction" modified="No">6.000000e-01</Option>
    <Option name="UseNTrainEvents" modified="No">0</Option>
    <Option name="NNodesMax" modified="No">0</Option>
  </Options>
  <Variables NVar="11">
    <Variable VarIndex="0" Expression="lepton1_pt" Label="lepton1_pt" Title="lepton1_pt" Unit="" Internal="lepton1_pt" Type="F" Min="3.00003757e+01" Max="7.15323425e+02"/>
    <Variable VarIndex="1" Expression="met_pt" Label="met_pt" Title="met_pt" Unit="" Internal="met_pt" Type="F" Min="1.96696758e-01" Max="8.32464966e+02"/>
    <Variable VarIndex="2" Expression="tau1_pt" Label="tau1_pt" Title="tau1_pt" Unit="" Internal="tau1_pt" Type="F" Min="3.00003395e+01" Max="1.10822266e+03"/>
    <Variable VarIndex="3" Expression="jet_ht" Label="jet_ht" Title="jet_ht" Unit="" Internal="jet_ht" Type="F" Min="9.50174484e+01" Max="2.86611841e+03"/>
    <Variable VarIndex="4" Expression="jetlepmet_ht" Label="jetlepmet_ht" Title="jetlepmet_ht" Unit="" Internal="jetlepmet_ht" Type="F" Min="1.44123749e+02" Max="3.07410449e+03"/>
    <Variable VarIndex="5" Expression="lep1met_pt" Label="lep1met_pt" Title="lep1met_pt" Unit="" Internal="lep1met_pt" Type="F" Min="2.11814135e-01" Max="9.20750061e+02"/>
    <Variable VarIndex="6" Expression="lep1tau1_pt" Label="lep1tau1_pt" Title="lep1tau1_pt" Unit="" Internal="lep1tau1_pt" Type="F" Min="1.67901814e-01" Max="1.14801318e+03"/>
    <Variable VarIndex="7" Expression="tau1_lep1_dr" Label="tau1_lep1_dr" Title="tau1_lep1_dr" Unit="" Internal="tau1_lep1_dr" Type="F" Min="3.90903234e-01" Max="5.55509949e+00"/>
    <Variable VarIndex="8" Expression="lep1_met_dphi" Label="lep1_met_dphi" Title="lep1_met_dphi" Unit="" Internal="lep1_met_dphi" Type="F" Min="-3.14144611e+00" Max="3.14159131e+00"/>
    <Variable VarIndex="9" Expression="tau1_met_dphi" Label="tau1_met_dphi" Title="tau1_met_dphi" Unit="" Internal="tau1_met_dphi" Type="F" Min="-3.14137793e+00" Max="3.14126992e+00"/>
    <Variable VarIndex="10" Expression="tau1lep1_met_dphi" Label="tau1lep1_met_dphi" Title="tau1lep1_met_dphi" Unit="" Internal="tau1lep1_met_dphi" Type="F" Min="-3.14146352e+00" Max="3.14153147e+00"/>
  </Variables>
  <Spectators NSpec="2">
    <Spectator SpecIndex="0" Expression="njet" Label="njet" Title="njet" Unit="" Internal="njet" Type="F" Min="3.00000000e+00" Max="1.20000000e+01"/>
    <Spectator SpecIndex="1" Expression="nbjet" Label="nbjet" Title="nbjet" Unit="" Internal="nbjet" Type="F" Min="0.00000000e+00" Max="6.00000000e+00"/>
  </Spectators>
  <Classes NClass="2">
    <Class Name="Signal" Index="0"/>
    <Class Name="Background" Index="1"/>
  </Classes>
  <Transformations NTransformations="0"/>
  <MVAPdfs/>
  <Weights NTrees="400" AnalysisType="1">
    <BinaryTree type="DecisionTree" boostWeight="1.0000000000000000e+00" itree="0">
      <Node pos="s" depth="0" NCoef="0" IVar="4" Cut="4.2767025756835938e+02" cType="1" res="3.4762310505864107e-15" rms="5.0000000000000000e-01" purity="5.0000000000000000e-01" nType="0">
        <Node pos="l" depth="1" NCoef="0" IVar="2" Cut="4.1329139709472656e+01" cType="1" res="9.3355923891067505e-02" rms="4.9120736122131348e-01" purity="5.9335589408874512e-01" nType="0">
          <Node pos="l" depth="2" NCoef="0" IVar="4" Cut="3.1790701293945312e+02" cType="1" res="-8.6469687521457672e-03" rms="4.9992522597312927e-01" purity="4.9135303497314453e-01" nType="0">
            <Node pos="l" depth="3" NCoef="0" IVar="-1" Cut="0.0000000000000000e+00" cType="1" res="4.2433824390172958e-02" rms="4.9582901597023010e-01" purity="5.6444835662841797e-01" nType="-99"/>
            <Node pos="r" depth="3" NCoef="0" IVar="-1" Cut="0.0000000000000000e+00" cType="1" res="-5.3172945976257324e-02" rms="4.9511122703552246e-01" purity="4.3025135993957520e-01" nType="-99"/>
          </Node>
          <Node pos="r" depth="2" NCoef="0" IVar="4" Cut="3.3392495727539062e+02" cType="1" res="1.5445378422737122e-01" rms="4.7554603219032288e-01" purity="6.5445381402969360e-01" nType="0">
            <Node pos="l" depth="3" NCoef="0" IVar="1" Cut="4.3097007751464844e+01" cType="1" res="2.1270625293254852e-01" rms="4.5249977707862854e-01" purity="7.1270626783370972e-01" nType="0">
              <Node pos="l" depth="4" NCoef="0" IVar="-1" Cut="0.0000000000000000e+00" cType="1" res="1.3420270383358002e-01" rms="4.3851071596145630e-01" purity="7.4022555351257324e-01" nType="-99"/>
              <Node pos="r" depth="4" NCoef="0" IVar="-1" Cut="0.0000000000000000e+00" cType="1" res="1.0477108508348465e-01" rms="4.6747750043869019e-01" purity="6.7738318443298340e-01" nType="-99"/>
            </Node>
            <Node pos="r" depth="3" NCoef="0" IVar="8" Cut="9.1265451908111572e-01" cType="1" res="1.0232593119144440e-01" rms="4.8941740393638611e-01" purity="6.0232591629028320e-01" nType="0">
              <Node pos="l" depth="4" NCoef="0" IVar="-1" Cut="0.0000000000000000e+00" cType="1" res="7.9488694667816162e-02" rms="4.8318049311637878e-01" purity="6.2859475612640381e-01" nType="-99"/>
              <Node pos="r" depth="4" NCoef="0" IVar="-1" Cut="0.0000000000000000e+00" cType="1" res="3.2403916120529175e-02" rms="4.9765065312385559e-01" purity="5.4841327667236328e-01" nType="-99"/>
            </Node>
          </Node>
        </Node>
        <Node pos="r" depth="1" NCoef="0" IVar="7" Cut="1.3398187160491943e+00" cType="1" res="-8.9908495545387268e-02" rms="4.9185004830360413e-01" purity="4.1009151935577393e-01" nType="0">
          <Node pos="l" depth="2" NCoef="0" IVar="1" Cut="7.8089881896972656e+01" cType="1" res="1.7636442556977272e-02" rms="4.9968886375427246e-01" purity="5.1763647794723511e-01" nType="0">
            <Node pos="l" depth="3" NCoef="0" IVar="-1" Cut="0.0000000000000000e+00" cType="1" res="-8.7472237646579742e-03" rms="4.9984991550445557e-01" purity="4.8774996399879456e-01" nType="-99"/>
            <Node pos="r" depth="3" NCoef="0" IVar="-1" Cut="0.0000000000000000e+00" cType="1" res="3.4177590161561966e-02" rms="4.9737054109573364e-01" purity="5.5121076107025146e-01" nType="-99"/>
          </Node>
          <Node pos="r" depth="2" NCoef="0" IVar="2" Cut="6.1333065032958984e+01" cType="1" res="-1.2077104300260544e-01" rms="4.8519515991210938e-01" purity="3.7922894954681396e-01" nType="0">
            <Node pos="l" depth="3" NCoef="0" IVar="2" Cut="4.0107086181640625e+01" cType="1" res="-1.8490239977836609e-01" rms="4.6455472707748413e-01" purity="3.1509763002395630e-01" nType="0">
              <Node pos="l" depth="4" NCoef="0" IVar="0" Cut="6.5111351013183594e+01" cType="1" res="-2.5279903411865234e-01" rms="4.3138456344604492e-01" purity="2.4720095098018646e-01" nType="0">
                <Node pos="l" depth="5" NCoef="0" IVar="-1" Cut="0.0000000000000000e+00" cType="1" res="-2.0757792890071869e-01" rms="4.4744050502777100e-01" purity="2.7684760093688965e-01" nType="-99"/>
                <Node pos="r" depth="5" NCoef="0" IVar="-1" Cut="0.0000000000000000e+00" cType="1" res="-2.8510621190071106e-01" rms="4.1354531049728394e-01" purity="2.1896570920944214e-01" nType="-99"/>
              </Node>
              <Node pos="r" depth="4" NCoef="0" IVar="-1" Cut="0.0000000000000000e+00" cType="1" res="-7.0586919784545898e-02" rms="4.9176958203315735e-01" purity="4.0965244174003601e-01" nType="-99"/>
            </Node>
            <Node pos="r" depth="3" NCoef="0" IVar="4" Cut="5.9842095947265625e+02" cType="1" res="-5.9141531586647034e-02" rms="4.9648997187614441e-01" purity="4.4085848331451416e-01" nType="0">
              <Node pos="l" depth="4" NCoef="0" IVar="4" Cut="5.0477923583984375e+02" cType="1" res="-1.5621704515069723e-03" rms="4.9999755620956421e-01" purity="4.9843782186508179e-01" nType="0">
                <Node pos="l" depth="5" NCoef="0" IVar="-1" Cut="0.0000000000000000e+00" cType="1" res="1.4302875846624374e-02" rms="4.9956887960433960e-01" purity="5.2075898647308350e-01" nType="-99"/>
                <Node pos="r" depth="5" NCoef="0" IVar="-1" Cut="0.0000000000000000e+00" cType="1" res="-1.8871665000915527e-02" rms="4.9932211637496948e-01" purity="4.7397232055664062e-01" nType="-99"/>
              </Node>
              <Node pos="r" depth="4" NCoef="0" IVar="-1" Cut="0.0000000000000000e+00" cType="1" res="-1.0367260873317719e-01" rms="4.8364004492759705e-01" purity="3.7314456701278687e-01" nType="-99"/>
            </Node>
          </Node>
        </Node>
      </Node>
    </BinaryTree>
    <BinaryTree type="DecisionTree" boostWeight="1.0000000000000000e+00" itree="1">
      <Node pos="s" depth="0" NCoef="0" IVar="4" Cut="4.2767025756835938e+02" cType="1" res="7.7053159475326538e-03" rms="4.8821425437927246e-01" purity="5.0000000000000000e-01" nType="0">
        <Node pos="l" depth="1" NCoef="0" IVar="2" Cut="4.1329139709472656e+01" cType="1" res="6.6782191395759583e-02" rms="4.8565283417701721e-01" purity="5.9335589408874512e-01" nType="0">
          <Node pos="l" depth="2" NCoef="0" IVar="8" Cut="7.0971071720123291e-01" cType="1" res="-3.8338410668075085e-03" rms="4.9730440974235535e-01" purity="4.9135303497314453e-01" nType="0">
            <Node pos="l" depth="3" NCoef="0" IVar="8" Cut="-1.1537909507751465e+00" cType="1" res="3.8249097764492035e-02" rms="4.9674692749977112e-01" purity="5.3286069631576538e-01" nType="0">
              <Node pos="l" depth="4" NCoef="0" IVar="-1" Cut="0.0000000000000000e+00" cType="1" res="-3.7265561521053314e-02" rms="4.9456706643104553e-01" purity="4.4687822461128235e-01" nType="-99"/>
              <Node pos="r" depth="4" NCoef="0" IVar="-1" Cut="0.0000000000000000e+00" cType="1" res="7.8049652278423309e-02" rms="4.8355391621589661e-01" purity="6.1726182699203491e-01" nType="-99"/>
            </Node>
            <Node pos="r" depth="3" NCoef="0" IVar="-1" Cut="0.0000000000000000e+00" cType="1" res="-5.8906193822622299e-02" rms="4.8988628387451172e-01" purity="4.2001137137413025e-01" nType="-99"/>
          </Node>
          <Node pos="r" depth="2" NCoef="0" IVar="4" Cut="3.1688085937500000e+02" cType="1" res="1.0907988995313644e-01" rms="4.7352147102355957e-01" purity="6.5445381402969360e-01" nType="0">
            <Node pos="l" depth="3" NCoef="0" IVar="-1" Cut="0.0000000000000000e+00" cType="1" res="9.3515917658805847e-02" rms="4.4702136516571045e-01" purity="7.2321277856826782e-01" nType="-99"/>
            <Node pos="r" depth="3" NCoef="0" IVar="8" Cut="-9.1091907024383545e-01" cType="1" res="7.7219687402248383e-02" rms="4.8586764931678772e-01" purity="6.1341303586959839e-01" nType="0">
              <Node pos="l" depth="4" NCoef="0" IVar="-1" Cut="0.0000000000000000e+00" cType="1" res="1.9655959680676460e-02" rms="4.9422606825828552e-01" purity="5.7280725240707397e-01" nType="-99"/>
              <Node pos="r" depth="4" NCoef="0" IVar="8" Cut="1.0501277446746826e+00" cType="1" res="1.0297404974699020e-01" rms="4.7930005192756653e-01" purity="6.3550138473510742e-01" nType="0">
                <Node pos="l" depth="5" NCoef="0" IVar="-1" Cut="0.0000000000000000e+00" cType="1" res="9.4439119100570679e-02" rms="4.5613244175910950e-01" purity="7.0339572429656982e-01" nType="-99"/>
                <Node pos="r" depth="5" NCoef="0" IVar="-1" Cut="0.0000000000000000e+00" cType="1" res="2.4812432006001472e-02" rms="4.9536961317062378e-01" purity="5.6074059009552002e-01" nType="-99"/>
              </Node>
            </Node>
          </Node>
        </Node>
        <Node pos="r" depth="1" NCoef="0" IVar="9" Cut="-1.3171377182006836e+00" cType="1" res="-4.9189981073141098e-02" rms="4.8389798402786255e-01" purity="4.1009151935577393e-01" nType="0">
          <Node pos="l" depth="2" NCoef="0" IVar="4" Cut="5.8669927978515625e+02" cType="1" res="-1.1747898906469345e-01" rms="4.6695095300674438e-01" purity="3.3510702848434448e-01" nType="0">
            <Node pos="l" depth="3" NCoef="0" IVar="-1" Cut="0.0000000000000000e+00" cType="1" res="-6.6302888095378876e-02" rms="4.8066449165344238e-01" purity="3.8138982653617859e-01" nType="-99"/>
            <Node pos="r" depth="3" NCoef="0" IVar="-1" Cut="0.0000000000000000e+00" cType="1" res="-1.5585465729236603e-01" rms="4.4451752305030823e-01" purity="2.7613982558250427e-01" nType="-99"/>
          </Node>
          <Node pos="r" depth="2" NCoef="0" IVar="9" Cut="9.8404753208160400e-01" cType="1" res="-2.5642696768045425e-02" rms="4.8739221692085266e-01" purity="4.3594747781753540e-01" nType="0">
            <Node pos="l" depth="3" NCoef="0" IVar="7" Cut="1.4820228815078735e+00" cType="1" res="2.5304784998297691e-02" rms="4.9084773659706116e-01" purity="4.9205344915390015e-01" nType="0">
              <Node pos="l" depth="4" NCoef="0" IVar="-1" Cut="0.0000000000000000e+00" cType="1" res="7.2484083473682404e-02" rms="4.8487761616706848e-01" purity="6.1483615636825562e-01" nType="-99"/>
              <Node pos="r" depth="4" NCoef="0" IVar="2" Cut="5.1424468994140625e+01" cType="1" res="-2.7672745287418365e-02" rms="4.8659855127334595e-01" purity="4.1984635591506958e-01" nType="0">
                <Node pos="l" depth="5" NCoef="0" IVar="-1" Cut="0.0000000000000000e+00" cType="1" res="-7.1775726974010468e-02" rms="4.6493005752563477e-01" purity="3.2823890447616577e-01" nType="-99"/>
                <Node pos="r" depth="5" NCoef="0" IVar="-1" Cut="0.0000000000000000e+00" cType="1" res="5.0600063987076283e-03" rms="4.9752077460289001e-01" purity="4.8095223307609558e-01" nType="-99"/>
              </Node>
            </Node>
            <Node pos="r" depth="3" NCoef="0" IVar="8" Cut="3.0375444889068604e-01" cType="1" res="-9.6932038664817810e-02" rms="4.7339943051338196e-01" purity="3.5744008421897888e-01" nType="0">
              <Node pos="l" depth="4" NCoef="0" IVar="8" Cut="-8.0759626626968384e-01" cType="1" res="-6.2614135444164276e-02" rms="4.7961211204528809e-01" purity="3.8745537400245667e-01" nType="0">
                <Node pos="l" depth="5" NCoef="0" IVar="-1" Cut="0.0000000000000000e+00" cType="1" res="-1.1627797782421112e-01" rms="4.5937094092369080e-01" purity="3.2204017043113708e-01" nType="-99"/>
                <Node pos="r" depth="5" NCoef="0" IVar="-1" Cut="0.0000000000000000e+00" cType="1" res="4.6718250960111618e-03" rms="4.8955142498016357e-01" purity="4.5312714576721191e-01" nType="-99"/>
              </Node>
              <Node pos="r" depth="4" NCoef="0" IVar="-1" Cut="0.0000000000000000e+00" cType="1" res="-1.5068514645099640e-01" rms="4.5330268144607544e-01" purity="2.9813337326049805e-01" nType="-99"/>
            </Node>
          </Node>
        </Node>
      </Node>
    </BinaryTree>
    <BinaryTree type="DecisionTree" boostWeight="1.0000000000000000e+00" itree="2">
      <Node pos="s" depth="0" NCoef="0" IVar="4" Cut="5.2218579101562500e+02" cType="1" res="1.0919642634689808e-02" rms="4.8097008466720581e-01" purity="5.0000000000000000e-01" nType="0">
        <Node pos="l" depth="1" NCoef="0" IVar="2" Cut="3.7164188385009766e+01" cType="1" res="3.9697196334600449e-02" rms="4.8285228013992310e-01" purity="5.5649518966674805e-01" nType="0">
          <Node pos="l" depth="2" NCoef="0" IVar="4" Cut="3.6364242553710938e+02" cType="1" res="-2.5170182809233665e-02" rms="4.8571017384529114e-01" purity="4.3712440133094788e-01" nType="0">
            <Node pos="l" depth="3" NCoef="0" IVar="-1" Cut="0.0000000000000000e+00" cType="1" res="1.1183613911271095e-02" rms="4.9436375498771667e-01" purity="5.1451224088668823e-01" nType="-99"/>
            <Node pos="r" depth="3" NCoef="0" IVar="-1" Cut="0.0000000000000000e+00" cType="1" res="-6.3742928206920624e-02" rms="4.7119271755218506e-01" purity="3.4846016764640808e-01" nType="-99"/>
          </Node>
          <Node pos="r" depth="2" NCoef="0" IVar="1" Cut="6.7238922119140625e+01" cType="1" res="6.0707334429025650e-02" rms="4.8004737496376038e-01" purity="5.9515863656997681e-01" nType="0">
            <Node pos="l" depth="3" NCoef="0" IVar="8" Cut="1.3174118995666504e+00" cType="1" res="8.2124881446361542e-02" rms="4.7443696856498718e-01" purity="6.2448590993881226e-01" nType="0">
              <Node pos="l" depth="4" NCoef="0" IVar="8" Cut="-8.4041196107864380e-01" cType="1" res="1.0116337239742279e-01" rms="4.6889111399650574e-01" purity="6.4724647998809814e-01" nType="0">
                <Node pos="l" depth="5" NCoef="0" IVar="-1" Cut="0.0000000000000000e+00" cType="1" res="3.5797897726297379e-02" rms="4.8376664519309998e-01" purity="5.9274917840957642e-01" nType="-99"/>
                <Node pos="r" depth="5" NCoef="0" IVar="-1" Cut="0.0000000000000000e+00" cType="1" res="8.8325090706348419e-02" rms="4.4816014170646667e-01" purity="7.0310783386230469e-01" nType="-99"/>
              </Node>
              <Node pos="r" depth="4" NCoef="0" IVar="-1" Cut="0.0000000000000000e+00" cType="1" res="2.2067068144679070e-02" rms="4.8504704236984253e-01" purity="5.6553083658218384e-01" nType="-99"/>
            </Node>
            <Node pos="r" depth="3" NCoef="0" IVar="8" Cut="-5.0836223363876343e-01" cType="1" res="9.2799505218863487e-03" rms="4.8944631218910217e-01" purity="5.2473843097686768e-01" nType="0">
              <Node pos="l" depth="4" NCoef="0" IVar="-1" Cut="0.0000000000000000e+00" cType="1" res="-3.6317534744739532e-02" rms="4.9260860681533813e-01" purity="4.6550250053405762e-01" nType="-99"/>
              <Node pos="r" depth="4" NCoef="0" IVar="-1" Cut="0.0000000000000000e+00" cType="1" res="3.0711200088262558e-02" rms="4.8390853404998779e-01" purity="5.6191086769104004e-01" nType="-99"/>
            </Node>
          </Node>
        </Node>
        <Node pos="r" depth="1" NCoef="0" IVar="8" Cut="-5.0655311346054077e-01" cType="1" res="-4.9118589609861374e-02" rms="4.7139698266983032e-01" purity="3.8213488459587097e-01" nType="0">
          <Node pos="l" depth="2" NCoef="0" IVar="2" Cut="7.3809234619140625e+01" cType="1" res="-9.8714143037796021e-02" rms="4.5934522151947021e-01" purity="3.2656961679458618e-01" nType="0">
            <Node pos="l" depth="3" NCoef="0" IVar="-1" Cut="0.0000000000000000e+00" cType="1" res="-1.3581266999244690e-01" rms="4.3173298239707947e-01" purity="2.6764175295829773e-01" nType="-99"/>
            <Node pos="r" depth="3" NCoef="0" IVar="-1" Cut="0.0000000000000000e+00" cType="1" res="-4.5343142002820969e-02" rms="4.8469442129135132e-01" purity="3.9225846529006958e-01" nType="-99"/>
          </Node>
          <Node pos="r" depth="2" NCoef="0" IVar="8" Cut="4.3491369485855103e-01" cType="1" res="-2.3101000115275383e-02" rms="4.7553366422653198e-01" purity="4.1128408908843994e-01" nType="0">
            <Node pos="l" depth="3" NCoef="0" IVar="-1" Cut="0.0000000000000000e+00" cType="1" res="3.8476601243019104e-02" rms="4.8074477910995483e-01" purity="5.0900781154632568e-01" nType="-99"/>
            <Node pos="r" depth="3" NCoef="0" IVar="2" Cut="7.2809547424316406e+01" cType="1" res="-8.5035569965839386e-02" rms="4.6208441257476807e-01" purity="3.3237689733505249e-01" nType="0">
              <Node pos="l" depth="4" NCoef="0" IVar="-1" Cut="0.0000000000000000e+00" cType="1" res="-1.0715652257204056e-01" rms="4.4058531522750854e-01" purity="2.8727093338966370e-01" nType="-99"/>
              <Node pos="r" depth="4" NCoef="0" IVar="-1" Cut="0.0000000000000000e+00" cType="1" res="-4.6935882419347763e-02" rms="4.8318749666213989e-01" purity="3.8229614496231079e-01" nType="-99"/>
            </Node>
          </Node>
        </Node>
      </Node>
    </BinaryTree>
    <BinaryTree type="DecisionTree" boostWeight="1.0000000000000000e+00" itree="3">
      <Node pos="s" depth="0" NCoef="0" IVar="4" Cut="3.3315475463867188e+02" cType="1" res="1.0913725942373276e-02" rms="4.7703975439071655e-01" purity="5.0000000000000000e-01" nType="0">
        <Node pos="l" depth="1" NCoef="0" IVar="2" Cut="3.8851840972900391e+01" cType="1" res="6.6315680742263794e-02" rms="4.6848002076148987e-01" purity="6.4533287286758423e-01" nType="0">
          <Node pos="l" depth="2" NCoef="0" IVar="-1" Cut="0.0000000000000000e+00" cType="1" res="1.2603566981852055e-02" rms="4.9371460080146790e-01" purity="5.3368061780929565e-01" nType="-99"/>
          <Node pos="r" depth="2" NCoef="0" IVar="4" Cut="2.8936428833007812e+02" cType="1" res="9.0736992657184601e-02" rms="4.5313033461570740e-01" purity="7.0226287841796875e-01" nType="0">
            <Node pos="l" depth="3" NCoef="0" IVar="-1" Cut="0.0000000000000000e+00" cType="1" res="6.8081840872764587e-02" rms="4.3987885117530823e-01" purity="7.3080462217330933e-01" nType="-99"/>
            <Node pos="r" depth="3" NCoef="0" IVar="-1" Cut="0.0000000000000000e+00" cType="1" res="4.2808234691619873e-02" rms="4.6470811963081360e-01" purity="6.7421925067901611e-01" nType="-99"/>
          </Node>
        </Node>
        <Node pos="r" depth="1" NCoef="0" IVar="4" Cut="7.7524414062500000e+02" cType="1" res="-6.8104080855846405e-03" rms="4.7839319705963135e-01" purity="4.5350524783134460e-01" nType="0">
          <Node pos="l" depth="2" NCoef="0" IVar="2" Cut="4.1939216613769531e+01" cType="1" res="4.0756138041615486e-03" rms="4.8086538910865784e-01" purity="4.7068825364112854e-01" nType="0">
            <Node pos="l" depth="3" NCoef="0" IVar="8" Cut="5.0595092773437500e-01" cType="1" res="-4.7238431870937347e-02" rms="4.6182367205619812e-01" purity="3.5171920061111450e-01" nType="0">
              <Node pos="l" depth="4" NCoef="0" IVar="8" Cut="-6.7099720239639282e-01" cType="1" res="-1.5517320483922958e-02" rms="4.7021046280860901e-01" purity="3.9460793137550354e-01" nType="0">
                <Node pos="l" depth="5" NCoef="0" IVar="-1" Cut="0.0000000000000000e+00" cType="1" res="-8.3155691623687744e-02" rms="4.4883134961128235e-01" purity="3.0116868019104004e-01" nType="-99"/>
                <Node pos="r" depth="5" NCoef="0" IVar="-1" Cut="0.0000000000000000e+00" cType="1" res="5.5598270148038864e-02" rms="4.8142164945602417e-01" purity="5.1729685068130493e-01" nType="-99"/>
              </Node>
              <Node pos="r" depth="4" NCoef="0" IVar="-1" Cut="0.0000000000000000e+00" cType="1" res="-1.0017662495374680e-01" rms="4.4248992204666138e-01" purity="2.8029561042785645e-01" nType="-99"/>
            </Node>
            <Node pos="r" depth="3" NCoef="0" IVar="8" Cut="9.1206634044647217e-01" cType="1" res="2.8110332787036896e-02" rms="4.8767638206481934e-01" purity="5.2641147375106812e-01" nType="0">
              <Node pos="l" depth="4" NCoef="0" IVar="8" Cut="-2.6497569680213928e-01" cType="1" res="4.8389516770839691e-02" rms="4.8404929041862488e-01" purity="5.5330234766006470e-01" nType="0">
                <Node pos="l" depth="5" NCoef="0" IVar="-1" Cut="0.0000000000000000e+00" cType="1" res="7.6828859746456146e-03" rms="4.9056085944175720e-01" purity="5.0409418344497681e-01" nType="-99"/>
                <Node pos="r" depth="5" NCoef="0" IVar="-1" Cut="0.0000000000000000e+00" cType="1" res="7.1245655417442322e-02" rms="4.6574643254280090e-01" purity="6.3724774122238159e-01" nType="-99"/>
              </Node>
              <Node pos="r" depth="4" NCoef="0" IVar="0" Cut="7.2878425598144531e+01" cType="1" res="-1.8642641603946686e-02" rms="4.9276772141456604e-01" purity="4.6441543102264404e-01" nType="0">
                <Node pos="l" depth="5" NCoef="0" IVar="-1" Cut="0.0000000000000000e+00" cType="1" res="-3.9597403258085251e-02" rms="4.9078592658042908e-01" purity="4.3512305617332458e-01" nType="-99"/>
                <Node pos="r" depth="5" NCoef="0" IVar="-1" Cut="0.0000000000000000e+00" cType="1" res="2.5611907243728638e-02" rms="4.9122145771980286e-01" purity="5.1362097263336182e-01" nType="-99"/>
              </Node>
            </Node>
          </Node>
          <Node pos="r" depth="2" NCoef="0" IVar="-1" Cut="0.0000000000000000e+00" cType="1" res="-7.5855128467082977e-02" rms="4.5323011279106140e-01" purity="3.3237308263778687e-01" nType="-99"/>
        </Node>
      </Node>
    </BinaryTree>
    <BinaryTree type="DecisionTree" boostWeight="1.0000000000000000e+00" itree="4">
      <Node pos="s" depth="0" NCoef="0" IVar="1" Cut="1.0758615112304688e+02" cType="1" res="1.0710950009524822e-02" rms="4.7368523478507996e-01" purity="5.0000000000000000e-01" nType="0">
        <Node pos="l" depth="1" NCoef="0" IVar="9" Cut="-1.9253849983215332e+00" cType="1" res="2.0895333960652351e-02" rms="4.7463819384574890e-01" purity="5.2188158035278320e-01" nType="0">
          <Node pos="l" depth="2" NCoef="0" IVar="4" Cut="3.5171875000000000e+02" cType="1" res="-2.6741553097963333e-02" rms="4.6839866042137146e-01" purity="4.7263839840888977e-01" nType="0">
            <Node pos="l" depth="3" NCoef="0" IVar="-1" Cut="0.0000000000000000e+00" cType="1" res="1.4607695862650871e-02" rms="4.7015836834907532e-01" purity="6.1567485332489014e-01" nType="-99"/>
            <Node pos="r" depth="3" NCoef="0" IVar="-1" Cut="0.0000000000000000e+00" cType="1" res="-4.7284428030252457e-02" rms="4.6493297815322876e-01" purity="3.8737314939498901e-01" nType="-99"/>
          </Node>
          <Node pos="r" depth="2" NCoef="0" IVar="9" Cut="1.3434282541275024e+00" cType="1" res="3.1605105847120285e-02" rms="4.7537291049957275e-01" purity="5.3295248746871948e-01" nType="0">
            <Node pos="l" depth="3" NCoef="0" IVar="9" Cut="-5.5457794666290283e-01" cType="1" res="5.4413247853517532e-02" rms="4.7429510951042175e-01" purity="5.5856633186340332e-01" nType="0">
              <Node pos="l" depth="4" NCoef="0" IVar="8" Cut="-3.0523714423179626e-01" cType="1" res="2.0388506352901459e-02" rms="4.7532311081886292e-01" purity="5.2327018976211548e-01" nType="0">
                <Node pos="l" depth="5" NCoef="0" IVar="-1" Cut="0.0000000000000000e+00" cType="1" res="-2.8412748128175735e-02" rms="4.7895514965057373e-01" purity="4.6053078770637512e-01" nType="-99"/>
                <Node pos="r" depth="5" NCoef="0" IVar="-1" Cut="0.0000000000000000e+00" cType="1" res="3.4058373421430588e-02" rms="4.7101652622222900e-01" purity="5.5391883850097656e-01" nType="-99"/>
              </Node>
              <Node pos="r" depth="4" NCoef="0" IVar="8" Cut="5.0689744949340820e-01" cType="1" res="7.6484508812427521e-02" rms="4.7231817245483398e-01" purity="5.8146226406097412e-01" nType="0">
                <Node pos="l" depth="5" NCoef="0" IVar="-1" Cut="0.0000000000000000e+00" cType="1" res="6.5253563225269318e-02" rms="4.6477156877517700e-01" purity="6.1502772569656372e-01" nType="-99"/>
                <Node pos="r" depth="5" NCoef="0" IVar="-1" Cut="0.0000000000000000e+00" cType="1" res="2.5107258930802345e-02" rms="4.8276972770690918e-01" purity="5.2126801013946533e-01" nType="-99"/>
              </Node>
            </Node>
            <Node pos="r" depth="3" NCoef="0" IVar="1" Cut="3.1657106399536133e+01" cType="1" res="-1.3803618960082531e-02" rms="4.7425684332847595e-01" purity="4.8195809125900269e-01" nType="0">
              <Node pos="l" depth="4" NCoef="0" IVar="-1" Cut="0.0000000000000000e+00" cType="1" res="2.1301520988345146e-02" rms="4.6882915496826172e-01" purity="5.5084174871444702e-01" nType="-99"/>
              <Node pos="r" depth="4" NCoef="0" IVar="10" Cut="3.0507931113243103e-01" cType="1" res="-2.8773684054613113e-02" rms="4.7518220543861389e-01" purity="4.5832780003547668e-01" nType="0">
                <Node pos="l" depth="5" NCoef="0" IVar="-1" Cut="0.0000000000000000e+00" cType="1" res="-6.3984774053096771e-02" rms="4.6386665105819702e-01" purity="3.8646462559700012e-01" nType="-99"/>
                <Node pos="r" depth="5" NCoef="0" IVar="-1" Cut="0.0000000000000000e+00" cType="1" res="-6.6294060088694096e-03" rms="4.7856810688972473e-01" purity="4.8914551734924316e-01" nType="-99"/>
              </Node>
            </Node>
          </Node>
        </Node>
        <Node pos="r" depth="1" NCoef="0" IVar="8" Cut="-3.0388474464416504e-01" cType="1" res="-4.3514169752597809e-02" rms="4.6483710408210754e-01" purity="3.8349488377571106e-01" nType="0">
          <Node pos="l" depth="2" NCoef="0" IVar="-1" Cut="0.0000000000000000e+00" cType="1" res="-8.1270046532154083e-02" rms="4.5743486285209656e-01" purity="3.2208693027496338e-01" nType="-99"/>
          <Node pos="r" depth="2" NCoef="0" IVar="-1" Cut="0.0000000000000000e+00" cType="1" res="-1.3321712613105774e-02" rms="4.6725896000862122e-01" purity="4.2117241024971008e-01" nType="-99"/>
        </Node>
      </Node>
    </BinaryTree>
    <BinaryTree type="DecisionTree" boostWeight="1.0000000000000000e+00" itree="5">
      <Node pos="s" depth="0" NCoef="0" IVar="8" Cut="5.0676918029785156e-01" cType="1" res="8.7761450558900833e-03" rms="4.7167924046516418e-01" purity="5.0000000000000000e-01" nType="0">
        <Node pos="l" depth="1" NCoef="0" IVar="8" Cut="-1.9958119094371796e-01" cType="1" res="2.5270363315939903e-02" rms="4.6968153119087219e-01" purity="5.2581292390823364e-01" nType="0">
          <Node pos="l" depth="2" NCoef="0" IVar="9" Cut="-3.0418294668197632e-01" cType="1" res="-2.7318720240145922e-03" rms="4.7286519408226013e-01" purity="4.8212301731109619e-01" nType="0">
            <Node pos="l" depth="3" NCoef="0" IVar="4" Cut="4.0997595214843750e+02" cType="1" res="-3.8476716727018356e-02" rms="4.6840867400169373e-01" purity="4.3638491630554199e-01" nType="0">
              <Node pos="l" depth="4" NCoef="0" IVar="-1" Cut="0.0000000000000000e+00" cType="1" res="4.5035611838102341e-03" rms="4.8138931393623352e-01" purity="5.6567305326461792e-01" nType="-99"/>
              <Node pos="r" depth="4" NCoef="0" IVar="-1" Cut="0.0000000000000000e+00" cType="1" res="-7.3989488184452057e-02" rms="4.5270422101020813e-01" purity="3.2070571184158325e-01" nType="-99"/>
            </Node>
            <Node pos="r" depth="3" NCoef="0" IVar="9" Cut="8.0732220411300659e-01" cType="1" res="1.6652043908834457e-02" rms="4.7413888573646545e-01" purity="5.0692611932754517e-01" nType="0">
              <Node pos="l" depth="4" NCoef="0" IVar="-1" Cut="0.0000000000000000e+00" cType="1" res="5.0120588392019272e-02" rms="4.7267380356788635e-01" purity="5.8749115467071533e-01" nType="-99"/>
              <Node pos="r" depth="4" NCoef="0" IVar="1" Cut="7.7424591064453125e+01" cType="1" res="-1.5940444543957710e-02" rms="4.7187936305999756e-01" purity="4.6104389429092407e-01" nType="0">
                <Node pos="l" depth="5" NCoef="0" IVar="-1" Cut="0.0000000000000000e+00" cType="1" res="1.0174559429287910e-03" rms="4.7486904263496399e-01" purity="5.0501441955566406e-01" nType="-99"/>
                <Node pos="r" depth="5" NCoef="0" IVar="-1" Cut="0.0000000000000000e+00" cType="1" res="-5.1859170198440552e-02" rms="4.6180781722068787e-01" purity="3.5392627120018005e-01" nType="-99"/>
              </Node>
            </Node>
          </Node>
          <Node pos="r" depth="2" NCoef="0" IVar="0" Cut="6.6226585388183594e+01" cType="1" res="1.0034979134798050e-01" rms="4.5256578922271729e-01" purity="6.4295417070388794e-01" nType="0">
            <Node pos="l" depth="3" NCoef="0" IVar="-1" Cut="0.0000000000000000e+00" cType="1" res="1.0050941258668900e-01" rms="4.2185157537460327e-01" purity="7.3938339948654175e-01" nType="-99"/>
            <Node pos="r" depth="3" NCoef="0" IVar="-1" Cut="0.0000000000000000e+00" cType="1" res="-6.3091297633945942e-03" rms="4.7763198614120483e-01" purity="4.8998877406120300e-01" nType="-99"/>
          </Node>
        </Node>
        <Node pos="r" depth="1" NCoef="0" IVar="1" Cut="8.3189872741699219e+01" cType="1" res="-1.8204914405941963e-02" rms="4.7369244694709778e-01" purity="4.5777547359466553e-01" nType="0">
          <Node pos="l" depth="2" NCoef="0" IVar="9" Cut="7.0910274982452393e-01" cType="1" res="-1.8664285307750106e-03" rms="4.7567403316497803e-01" purity="4.9329721927642822e-01" nType="0">
            <Node pos="l" depth="3" NCoef="0" IVar="3" Cut="3.5237310791015625e+02" cType="1" res="1.4963794499635696e-02" rms="4.7548043727874756e-01" purity="5.1666295528411865e-01" nType="0">
              <Node pos="l" depth="4" NCoef="0" IVar="2" Cut="4.4327735900878906e+01" cType="1" res="3.3180180937051773e-02" rms="4.7772350907325745e-01" purity="5.7951605319976807e-01" nType="0">
                <Node pos="l" depth="5" NCoef="0" IVar="-1" Cut="0.0000000000000000e+00" cType="1" res="-4.3388623744249344e-03" rms="4.8332279920578003e-01" purity="4.6648845076560974e-01" nType="-99"/>
                <Node pos="r" depth="5" NCoef="0" IVar="-1" Cut="0.0000000000000000e+00" cType="1" res="3.6809436976909637e-02" rms="4.7261118888854980e-01" purity="6.4964598417282104e-01" nType="-99"/>
              </Node>
              <Node pos="r" depth="4" NCoef="0" IVar="-1" Cut="0.0000000000000000e+00" cType="1" res="-2.4675354361534119e-02" rms="4.6735647320747375e-01" purity="3.6860460042953491e-01" nType="-99"/>
            </Node>
            <Node pos="r" depth="3" NCoef="0" IVar="-1" Cut="0.0000000000000000e+00" cType="1" res="-3.5747095942497253e-02" rms="4.7352558374404907e-01" purity="4.3455737829208374e-01" nType="-99"/>
          </Node>
          <Node pos="r" depth="2" NCoef="0" IVar="-1" Cut="0.0000000000000000e+00" cType="1" res="-6.2807388603687286e-02" rms="4.6370205283164978e-01" purity="3.4635213017463684e-01" nType="-99"/>
        </Node>
      </Node>
    </BinaryTree>
    <BinaryTree type="DecisionTree" boostWeight="1.0000000000000000e+00" itree="6">
      <Node pos="s" depth="0" NCoef="0" IVar="4" Cut="6.1670129394531250e+02" cType="1" res="8.7846647948026657e-03" rms="4.6877595782279968e-01" purity="5.0000000000000000e-01" nType="0">
        <Node pos="l" depth="1" NCoef="0" IVar="2" Cut="3.9065170288085938e+01" cType="1" res="1.7335802316665649e-02" rms="4.7188210487365723e-01" purity="5.3611487150192261e-01" nType="0">
          <Node pos="l" depth="2" NCoef="0" IVar="7" Cut="2.5616509914398193e+00" cType="1" res="-1.4191044494509697e-02" rms="4.6814322471618652e-01" purity="4.1659325361251831e-01" nType="0">
            <Node pos="l" depth="3" NCoef="0" IVar="10" Cut="-7.0946645736694336e-01" cType="1" res="4.9999016337096691e-03" rms="4.6923637390136719e-01" purity="4.4375538825988770e-01" nType="0">
              <Node pos="l" depth="4" NCoef="0" IVar="-1" Cut="0.0000000000000000e+00" cType="1" res="-3.5005956888198853e-02" rms="4.6516662836074829e-01" purity="3.8079696893692017e-01" nType="-99"/>
              <Node pos="r" depth="4" NCoef="0" IVar="-1" Cut="0.0000000000000000e+00" cType="1" res="2.2546004503965378e-02" rms="4.6958446502685547e-01" purity="4.7719752788543701e-01" nType="-99"/>
            </Node>
            <Node pos="r" depth="3" NCoef="0" IVar="-1" Cut="0.0000000000000000e+00" cType="1" res="-4.1450224816799164e-02" rms="4.6444594860076904e-01" purity="3.7025716900825500e-01" nType="-99"/>
          </Node>
          <Node pos="r" depth="2" NCoef="0" IVar="8" Cut="9.1204595565795898e-01" cType="1" res="3.0667254701256752e-02" rms="4.7282227873802185e-01" purity="5.8665585517883301e-01" nType="0">
            <Node pos="l" depth="3" NCoef="0" IVar="8" Cut="-6.5717965364456177e-01" cType="1" res="4.3958690017461777e-02" rms="4.6748369932174683e-01" purity="6.1078143119812012e-01" nType="0">
              <Node pos="l" depth="4" NCoef="0" IVar="0" Cut="6.2951442718505859e+01" cType="1" res="1.6758121550083160e-02" rms="4.8242673277854919e-01" purity="5.5346429347991943e-01" nType="0">
                <Node pos="l" depth="5" NCoef="0" IVar="-1" Cut="0.0000000000000000e+00" cType="1" res="-3.5784535575658083e-03" rms="4.8249438405036926e-01" purity="5.4132580757141113e-01" nType="-99"/>
                <Node pos="r" depth="5" NCoef="0" IVar="-1" Cut="0.0000000000000000e+00" cType="1" res="3.3227954059839249e-02" rms="4.8057949542999268e-01" purity="5.7106596231460571e-01" nType="-99"/>
              </Node>
              <Node pos="r" depth="4" NCoef="0" IVar="0" Cut="4.9218833923339844e+01" cType="1" res="7.8114882111549377e-02" rms="4.4566914439201355e-01" purity="6.8275547027587891e-01" nType="0">
                <Node pos="l" depth="5" NCoef="0" IVar="-1" Cut="0.0000000000000000e+00" cType="1" res="8.5963308811187744e-02" rms="4.0374663472175598e-01" purity="7.7395105361938477e-01" nType="-99"/>
                <Node pos="r" depth="5" NCoef="0" IVar="-1" Cut="0.0000000000000000e+00" cType="1" res="1.5805259346961975e-02" rms="4.7229444980621338e-01" purity="6.0350090265274048e-01" nType="-99"/>
              </Node>
            </Node>
            <Node pos="r" depth="3" NCoef="0" IVar="3" Cut="2.6934033203125000e+02" cType="1" res="2.8814028482884169e-03" rms="4.8261129856109619e-01" purity="5.3622120618820190e-01" nType="0">
              <Node pos="l" depth="4" NCoef="0" IVar="-1" Cut="0.0000000000000000e+00" cType="1" res="2.0337425172328949e-02" rms="4.7544363141059875e-01" purity="6.2760770320892334e-01" nType="-99"/>
              <Node pos="r" depth="4" NCoef="0" IVar="-1" Cut="0.0000000000000000e+00" cType="1" res="-2.2199209779500961e-02" rms="4.8864907026290894e-01" purity="4.3354377150535583e-01" nType="-99"/>
            </Node>
          </Node>
        </Node>
        <Node pos="r" depth="1" NCoef="0" IVar="9" Cut="9.1217100620269775e-01" cType="1" res="-2.5072805583477020e-02" rms="4.5469370484352112e-01" purity="3.5700634121894836e-01" nType="0">
          <Node pos="l" depth="2" NCoef="0" IVar="9" Cut="-9.1841906309127808e-01" cType="1" res="-4.3092961423099041e-03" rms="4.6070283651351929e-01" purity="3.8866117596626282e-01" nType="0">
            <Node pos="l" depth="3" NCoef="0" IVar="-1" Cut="0.0000000000000000e+00" cType="1" res="-4.6858668327331543e-02" rms="4.3679380416870117e-01" purity="2.7931010723114014e-01" nType="-99"/>
            <Node pos="r" depth="3" NCoef="0" IVar="-1" Cut="0.0000000000000000e+00" cType="1" res="1.9790733233094215e-02" rms="4.7605201601982117e-01" purity="4.7256091237068176e-01" nType="-99"/>
          </Node>
          <Node pos="r" depth="2" NCoef="0" IVar="-1" Cut="0.0000000000000000e+00" cType="1" res="-7.4801601469516754e-02" rms="4.3664640188217163e-01" purity="2.8355169296264648e-01" nType="-99"/>
        </Node>
      </Node>
    </BinaryTree>
    <BinaryTree type="DecisionTree" boostWeight="1.0000000000000000e+00" itree="7">
      <Node pos="s" depth="0" NCoef="0" IVar="4" Cut="9.0024780273437500e+02" cType="1" res="7.9240286722779274e-03" rms="4.6720612049102783e-01" purity="5.0000000000000000e-01" nType="0">
        <Node pos="l" depth="1" NCoef="0" IVar="0" Cut="4.3014804840087891e+01" cType="1" res="1.1153038591146469e-02" rms="4.6849337220191956e-01" purity="5.1017194986343384e-01" nType="0">
          <Node pos="l" depth="2" NCoef="0" IVar="8" Cut="1.1147205829620361e+00" cType="1" res="3.5874959081411362e-02" rms="4.6041834354400635e-01" purity="5.6470632553100586e-01" nType="0">
            <Node pos="l" depth="3" NCoef="0" IVar="8" Cut="-1.2198606729507446e+00" cType="1" res="5.9467669576406479e-02" rms="4.5318037271499634e-01" purity="6.0642462968826294e-01" nType="0">
              <Node pos="l" depth="4" NCoef="0" IVar="-1" Cut="0.0000000000000000e+00" cType="1" res="-1.7173916101455688e-02" rms="4.7785934805870056e-01" purity="4.6670472621917725e-01" nType="-99"/>
              <Node pos="r" depth="4" NCoef="0" IVar="-1" Cut="0.0000000000000000e+00" cType="1" res="7.0961154997348785e-02" rms="4.3059819936752319e-01" purity="6.8944996595382690e-01" nType="-99"/>
            </Node>
            <Node pos="r" depth="3" NCoef="0" IVar="-1" Cut="0.0000000000000000e+00" cType="1" res="-2.1928120404481888e-02" rms="4.7354784607887268e-01" purity="4.5248854160308838e-01" nType="-99"/>
          </Node>
          <Node pos="r" depth="2" NCoef="0" IVar="0" Cut="1.3117755126953125e+02" cType="1" res="1.1983766453340650e-03" rms="4.7133982181549072e-01" purity="4.8821282386779785e-01" nType="0">
            <Node pos="l" depth="3" NCoef="0" IVar="2" Cut="4.2009513854980469e+01" cType="1" res="-5.4996833205223083e-03" rms="4.7031536698341370e-01" purity="4.8860317468643188e-01" nType="0">
              <Node pos="l" depth="4" NCoef="0" IVar="4" Cut="4.7179214477539062e+02" cType="1" res="-2.8091859072446823e-02" rms="4.5850607752799988e-01" purity="3.8481271266937256e-01" nType="0">
                <Node pos="l" depth="5" NCoef="0" IVar="-1" Cut="0.0000000000000000e+00" cType="1" res="-8.8572148233652115e-03" rms="4.7917535901069641e-01" purity="4.5186656713485718e-01" nType="-99"/>
                <Node pos="r" depth="5" NCoef="0" IVar="-1" Cut="0.0000000000000000e+00" cType="1" res="-7.5730465352535248e-02" rms="4.0909898281097412e-01" purity="2.4291427433490753e-01" nType="-99"/>
              </Node>
              <Node pos="r" depth="4" NCoef="0" IVar="4" Cut="3.4343420410156250e+02" cType="1" res="6.4678858034312725e-03" rms="4.7601819038391113e-01" purity="5.4358321428298950e-01" nType="0">
                <Node pos="l" depth="5" NCoef="0" IVar="-1" Cut="0.0000000000000000e+00" cType="1" res="2.2683344781398773e-02" rms="4.5602452754974365e-01" purity="6.9571089744567871e-01" nType="-99"/>
                <Node pos="r" depth="5" NCoef="0" IVar="-1" Cut="0.0000000000000000e+00" cType="1" res="-1.7826699186116457e-03" rms="4.8182919621467590e-01" purity="4.9547925591468811e-01" nType="-99"/>
              </Node>
            </Node>
            <Node pos="r" depth="3" NCoef="0" IVar="-1" Cut="0.0000000000000000e+00" cType="1" res="5.1670543849468231e-02" rms="4.7630530595779419e-01" purity="4.8438659310340881e-01" nType="-99"/>
          </Node>
        </Node>
        <Node pos="r" depth="1" NCoef="0" IVar="-1" Cut="0.0000000000000000e+00" cType="1" res="-5.0710026174783707e-02" rms="4.3868711590766907e-01" purity="3.1314831972122192e-01" nType="-99"/>
      </Node>
    </BinaryTree>
    <BinaryTree type="DecisionTree" boostWeight="1.0000000000000000e+00" itree="8">
      <Node pos="s" depth="0" NCoef="0" IVar="7" Cut="3.3894689083099365e+00" cType="1" res="6.9334865547716618e-03" rms="4.6585500240325928e-01" purity="5.0000000000000000e-01" nType="0">
        <Node pos="l" depth="1" NCoef="0" IVar="9" Cut="9.1197425127029419e-01" cType="1" res="1.0496373288333416e-02" rms="4.6590685844421387e-01" purity="5.0541341304779053e-01" nType="0">
          <Node pos="l" depth="2" NCoef="0" IVar="9" Cut="-6.5710395574569702e-01" cType="1" res="2.0369855687022209e-02" rms="4.6572411060333252e-01" purity="5.2383637428283691e-01" nType="0">
            <Node pos="l" depth="3" NCoef="0" IVar="1" Cut="5.9938804626464844e+01" cType="1" res="-3.0143812764436007e-03" rms="4.6430167555809021e-01" purity="4.7802171111106873e-01" nType="0">
              <Node pos="l" depth="4" NCoef="0" IVar="9" Cut="-1.9393225908279419e+00" cType="1" res="1.6398124396800995e-02" rms="4.6667534112930298e-01" purity="5.3507339954376221e-01" nType="0">
                <Node pos="l" depth="5" NCoef="0" IVar="-1" Cut="0.0000000000000000e+00" cType="1" res="-4.5884754508733749e-03" rms="4.6617054939270020e-01" purity="5.0333786010742188e-01" nType="-99"/>
                <Node pos="r" depth="5" NCoef="0" IVar="-1" Cut="0.0000000000000000e+00" cType="1" res="2.6063423603773117e-02" rms="4.6624052524566650e-01" purity="5.6294411420822144e-01" nType="-99"/>
              </Node>
              <Node pos="r" depth="4" NCoef="0" IVar="8" Cut="-3.0539861321449280e-01" cType="1" res="-2.6948293671011925e-02" rms="4.6023264527320862e-01" purity="4.0768200159072876e-01" nType="0">
                <Node pos="l" depth="5" NCoef="0" IVar="-1" Cut="0.0000000000000000e+00" cType="1" res="-6.0362018644809723e-02" rms="4.4885805249214172e-01" purity="3.3342906832695007e-01" nType="-99"/>
                <Node pos="r" depth="5" NCoef="0" IVar="-1" Cut="0.0000000000000000e+00" cType="1" res="-6.9295219145715237e-03" rms="4.6484470367431641e-01" purity="4.4563516974449158e-01" nType="-99"/>
              </Node>
            </Node>
            <Node pos="r" depth="3" NCoef="0" IVar="7" Cut="1.2692068815231323e+00" cType="1" res="5.0456598401069641e-02" rms="4.6582424640655518e-01" purity="5.8278268575668335e-01" nType="0">
              <Node pos="l" depth="4" NCoef="0" IVar="-1" Cut="0.0000000000000000e+00" cType="1" res="6.1098974198102951e-02" rms="4.3494665622711182e-01" purity="6.9955986738204956e-01" nType="-99"/>
              <Node pos="r" depth="4" NCoef="0" IVar="3" Cut="3.6004858398437500e+02" cType="1" res="3.3270280808210373e-02" rms="4.7584649920463562e-01" purity="5.3863751888275146e-01" nType="0">
                <Node pos="l" depth="5" NCoef="0" IVar="-1" Cut="0.0000000000000000e+00" cType="1" res="3.5029131919145584e-02" rms="4.7424098849296570e-01" purity="6.0402262210845947e-01" nType="-99"/>
                <Node pos="r" depth="5" NCoef="0" IVar="-1" Cut="0.0000000000000000e+00" cType="1" res="-1.6466714441776276e-03" rms="4.7700458765029907e-01" purity="4.1086611151695251e-01" nType="-99"/>
              </Node>
            </Node>
          </Node>
          <Node pos="r" depth="2" NCoef="0" IVar="1" Cut="5.4269424438476562e+01" cType="1" res="-9.3425503000617027e-03" rms="4.6564131975173950e-01" purity="4.6839600801467896e-01" nType="0">
            <Node pos="l" depth="3" NCoef="0" IVar="0" Cut="5.2109409332275391e+01" cType="1" res="1.0990793816745281e-02" rms="4.6800762414932251e-01" purity="5.2977043390274048e-01" nType="0">
              <Node pos="l" depth="4" NCoef="0" IVar="-1" Cut="0.0000000000000000e+00" cType="1" res="2.8292125090956688e-02" rms="4.5978721976280212e-01" purity="5.9278768301010132e-01" nType="-99"/>
              <Node pos="r" depth="4" NCoef="0" IVar="-1" Cut="0.0000000000000000e+00" cType="1" res="-9.1016534715890884e-03" rms="4.7317552566528320e-01" purity="4.7995623946189880e-01" nType="-99"/>
            </Node>
            <Node pos="r" depth="3" NCoef="0" IVar="8" Cut="3.0363214015960693e-01" cType="1" res="-2.8773304075002670e-02" rms="4.6253427863121033e-01" purity="4.0974602103233337e-01" nType="0">
              <Node pos="l" depth="4" NCoef="0" IVar="10" Cut="5.0635415315628052e-01" cType="1" res="-1.2125790119171143e-02" rms="4.6503162384033203e-01" purity="4.4137090444564819e-01" nType="0">
                <Node pos="l" depth="5" NCoef="0" IVar="-1" Cut="0.0000000000000000e+00" cType="1" res="-3.8314256817102432e-02" rms="4.5461457967758179e-01" purity="3.6146396398544312e-01" nType="-99"/>
                <Node pos="r" depth="5" NCoef="0" IVar="-1" Cut="0.0000000000000000e+00" cType="1" res="1.2581548653542995e-02" rms="4.7307398915290833e-01" purity="5.1859432458877563e-01" nType="-99"/>
              </Node>
              <Node pos="r" depth="4" NCoef="0" IVar="-1" Cut="0.0000000000000000e+00" cType="1" res="-5.6310739368200302e-02" rms="4.5613768696784973e-01" purity="3.5010993480682373e-01" nType="-99"/>
            </Node>
          </Node>
        </Node>
        <Node pos="r" depth="1" NCoef="0" IVar="-1" Cut="0.0000000000000000e+00" cType="1" res="-3.7604514509439468e-02" rms="4.6206662058830261e-01" purity="4.2199009656906128e-01" nType="-99"/>
      </Node>
    </BinaryTree>
    <BinaryTree type="DecisionTree" boostWeight="1.0000000000000000e+00" itree="9">
      <Node pos="s" depth="0" NCoef="0" IVar="8" Cut="3.0409052968025208e-01" cType="1" res="5.9980708174407482e-03" rms="4.6472901105880737e-01" purity="5.0000000000000000e-01" nType="0">
        <Node pos="l" depth="1" NCoef="0" IVar="8" Cut="-3.6286178231239319e-01" cType="1" res="1.6272554174065590e-02" rms="4.6198618412017822e-01" purity="5.2315664291381836e-01" nType="0">
          <Node pos="l" depth="2" NCoef="0" IVar="3" Cut="4.7373278808593750e+02" cType="1" res="-4.0843482129275799e-03" rms="4.6796581149101257e-01" purity="4.7308459877967834e-01" nType="0">
            <Node pos="l" depth="3" NCoef="0" IVar="0" Cut="9.7051956176757812e+01" cType="1" res="2.3010757286101580e-03" rms="4.7301164269447327e-01" purity="5.0737106800079346e-01" nType="0">
              <Node pos="l" depth="4" NCoef="0" IVar="8" Cut="-8.1111460924148560e-01" cType="1" res="-6.5833791159093380e-03" rms="4.7349739074707031e-01" purity="5.0657308101654053e-01" nType="0">
                <Node pos="l" depth="5" NCoef="0" IVar="-1" Cut="0.0000000000000000e+00" cType="1" res="-1.1856501922011375e-02" rms="4.7716706991195679e-01" purity="4.8938274383544922e-01" nType="-99"/>
                <Node pos="r" depth="5" NCoef="0" IVar="-1" Cut="0.0000000000000000e+00" cType="1" res="2.2898700088262558e-02" rms="4.5532616972923279e-01" purity="5.8076936006546021e-01" nType="-99"/>
              </Node>
              <Node pos="r" depth="4" NCoef="0" IVar="-1" Cut="0.0000000000000000e+00" cType="1" res="3.7270873785018921e-02" rms="4.6760678291320801e-01" purity="5.1160693168640137e-01" nType="-99"/>
            </Node>
            <Node pos="r" depth="3" NCoef="0" IVar="-1" Cut="0.0000000000000000e+00" cType="1" res="-3.7879724055528641e-02" rms="4.4020608067512512e-01" purity="3.0002158880233765e-01" nType="-99"/>
          </Node>
          <Node pos="r" depth="2" NCoef="0" IVar="0" Cut="6.5117584228515625e+01" cType="1" res="6.8674258887767792e-02" rms="4.4193243980407715e-01" purity="6.5204954147338867e-01" nType="0">
            <Node pos="l" depth="3" NCoef="0" IVar="-1" Cut="0.0000000000000000e+00" cType="1" res="6.9550663232803345e-02" rms="4.1530764102935791e-01" purity="7.4575865268707275e-01" nType="-99"/>
            <Node pos="r" depth="3" NCoef="0" IVar="-1" Cut="0.0000000000000000e+00" cType="1" res="7.7796583063900471e-03" rms="4.7399249672889709e-01" purity="5.0843161344528198e-01" nType="-99"/>
          </Node>
        </Node>
        <Node pos="r" depth="1" NCoef="0" IVar="1" Cut="4.9992603302001953e+01" cType="1" res="-8.1199463456869125e-03" rms="4.6810403466224670e-01" purity="4.6818074584007263e-01" nType="0">
          <Node pos="l" depth="2" NCoef="0" IVar="8" Cut="1.2194941043853760e+00" cType="1" res="9.3265417963266373e-03" rms="4.6808585524559021e-01" purity="5.3106439113616943e-01" nType="0">
            <Node pos="l" depth="3" NCoef="0" IVar="-1" Cut="0.0000000000000000e+00" cType="1" res="2.9973631724715233e-02" rms="4.5724201202392578e-01" purity="6.0388797521591187e-01" nType="-99"/>
            <Node pos="r" depth="3" NCoef="0" IVar="2" Cut="4.7221488952636719e+01" cType="1" res="-6.9498284719884396e-03" rms="4.7266146540641785e-01" purity="4.9411207437515259e-01" nType="0">
              <Node pos="l" depth="4" NCoef="0" IVar="-1" Cut="0.0000000000000000e+00" cType="1" res="-2.7190024033188820e-02" rms="4.6209183335304260e-01" purity="4.0546566247940063e-01" nType="-99"/>
              <Node pos="r" depth="4" NCoef="0" IVar="-1" Cut="0.0000000000000000e+00" cType="1" res="7.7070510014891624e-03" rms="4.7922396659851074e-01" purity="5.5694556236267090e-01" nType="-99"/>
            </Node>
          </Node>
          <Node pos="r" depth="2" NCoef="0" IVar="9" Cut="5.0664776563644409e-01" cType="1" res="-2.2411322221159935e-02" rms="4.6763423085212708e-01" purity="4.1666933894157410e-01" nType="0">
            <Node pos="l" depth="3" NCoef="0" IVar="9" Cut="-1.0235257148742676e+00" cType="1" res="-1.0766687802970409e-02" rms="4.7085672616958618e-01" purity="4.4295865297317505e-01" nType="0">
              <Node pos="l" depth="4" NCoef="0" IVar="-1" Cut="0.0000000000000000e+00" cType="1" res="-4.0983241051435471e-02" rms="4.6197715401649475e-01" purity="3.8812920451164246e-01" nType="-99"/>
              <Node pos="r" depth="4" NCoef="0" IVar="-1" Cut="0.0000000000000000e+00" cType="1" res="2.2984631359577179e-02" rms="4.7767379879951477e-01" purity="5.0668632984161377e-01" nType="-99"/>
            </Node>
            <Node pos="r" depth="3" NCoef="0" IVar="-1" Cut="0.0000000000000000e+00" cType="1" res="-4.4299378991127014e-02" rms="4.5954075455665588e-01" purity="3.5956153273582458e-01" nType="-99"/>
          </Node>
        </Node>
      </Node>
    </BinaryTree>
    <BinaryTree type="DecisionTree" boostWeight="1.0000000000000000e+00" itree="10">
      <Node pos="s" depth="0" NCoef="0" IVar="2" Cut="1.3434443664550781e+02" cType="1" res="5.5020307190716267e-03" rms="4.6355968713760376e-01" purity="5.0000000000000000e-01" nType="0">
        <Node pos="l" depth="1" NCoef="0" IVar="7" Cut="8.9862400293350220e-01" cType="1" res="2.4366674479097128e-03" rms="4.6194046735763550e-01" purity="5.0251579284667969e-01" nType="0">
          <Node pos="l" depth="2" NCoef="0" IVar="-1" Cut="0.0000000000000000e+00" cType="1" res="3.8183327764272690e-02" rms="4.4718384742736816e-01" purity="6.0403805971145630e-01" nType="-99"/>
          <Node pos="r" depth="2" NCoef="0" IVar="6" Cut="1.3289834594726562e+02" cType="1" res="-1.6932339640334249e-03" rms="4.6286854147911072e-01" purity="4.9429711699485779e-01" nType="0">
            <Node pos="l" depth="3" NCoef="0" IVar="0" Cut="3.7485992431640625e+01" cType="1" res="2.6607504114508629e-03" rms="4.6278557181358337e-01" purity="5.0336652994155884e-01" nType="0">
              <Node pos="l" depth="4" NCoef="0" IVar="7" Cut="2.4593105316162109e+00" cType="1" res="3.2382283359766006e-02" rms="4.5236980915069580e-01" purity="5.7210773229598999e-01" nType="0">
                <Node pos="l" depth="5" NCoef="0" IVar="-1" Cut="0.0000000000000000e+00" cType="1" res="3.7620373070240021e-02" rms="4.4623848795890808e-01" purity="6.0035872459411621e-01" nType="-99"/>
                <Node pos="r" depth="5" NCoef="0" IVar="-1" Cut="0.0000000000000000e+00" cType="1" res="4.1972789913415909e-03" rms="4.5956441760063171e-01" purity="5.3213435411453247e-01" nType="-99"/>
              </Node>
              <Node pos="r" depth="4" NCoef="0" IVar="1" Cut="1.2435199737548828e+02" cType="1" res="-4.0468890219926834e-03" rms="4.6484121680259705e-01" purity="4.8785281181335449e-01" nType="0">
                <Node pos="l" depth="5" NCoef="0" IVar="-1" Cut="0.0000000000000000e+00" cType="1" res="3.3623140188865364e-04" rms="4.6681767702102661e-01" purity="5.0553458929061890e-01" nType="-99"/>
                <Node pos="r" depth="5" NCoef="0" IVar="-1" Cut="0.0000000000000000e+00" cType="1" res="-5.2614443004131317e-02" rms="4.4101712107658386e-01" purity="3.0357500910758972e-01" nType="-99"/>
              </Node>
            </Node>
            <Node pos="r" depth="3" NCoef="0" IVar="-1" Cut="0.0000000000000000e+00" cType="1" res="-3.9944462478160858e-02" rms="4.6137592196464539e-01" purity="4.0186670422554016e-01" nType="-99"/>
          </Node>
        </Node>
        <Node pos="r" depth="1" NCoef="0" IVar="-1" Cut="0.0000000000000000e+00" cType="1" res="2.9269656166434288e-02" rms="4.7875779867172241e-01" purity="4.7412693500518799e-01" nType="-99"/>
      </Node>
    </BinaryTree>
    <BinaryTree type="DecisionTree" boostWeight="1.0000000000000000e+00" itree="11">
      <Node pos="s" depth="0" NCoef="0" IVar="6" Cut="1.4827697753906250e+02" cType="1" res="4.1481219232082367e-03" rms="4.6306046843528748e-01" purity="5.0000000000000000e-01" nType="0">
        <Node pos="l" depth="1" NCoef="0" IVar="7" Cut="1.5638347864151001e+00" cType="1" res="7.2064367122948170e-03" rms="4.6203839778900146e-01" purity="5.0948125123977661e-01" nType="0">
          <Node pos="l" depth="2" NCoef="0" IVar="10" Cut="7.0914077758789062e-01" cType="1" res="3.5285573452711105e-02" rms="4.4853273034095764e-01" purity="5.7952481508255005e-01" nType="0">
            <Node pos="l" depth="3" NCoef="0" IVar="10" Cut="-7.8147226572036743e-01" cType="1" res="5.9575282037258148e-02" rms="4.3757611513137817e-01" purity="6.3499790430068970e-01" nType="0">
              <Node pos="l" depth="4" NCoef="0" IVar="-1" Cut="0.0000000000000000e+00" cType="1" res="4.0686745196580887e-03" rms="4.7107416391372681e-01" purity="4.7876557707786560e-01" nType="-99"/>
              <Node pos="r" depth="4" NCoef="0" IVar="-1" Cut="0.0000000000000000e+00" cType="1" res="6.6510036587715149e-02" rms="4.0594065189361572e-01" purity="7.5207155942916870e-01" nType="-99"/>
            </Node>
            <Node pos="r" depth="3" NCoef="0" IVar="-1" Cut="0.0000000000000000e+00" cType="1" res="-1.7618408426642418e-02" rms="4.6829327940940857e-01" purity="4.4963440299034119e-01" nType="-99"/>
          </Node>
          <Node pos="r" depth="2" NCoef="0" IVar="0" Cut="1.1808885192871094e+02" cType="1" res="-7.7127333497628570e-04" rms="4.6549525856971741e-01" purity="4.8958086967468262e-01" nType="0">
            <Node pos="l" depth="3" NCoef="0" IVar="4" Cut="3.0695553588867188e+02" cType="1" res="-6.8516670726239681e-03" rms="4.6528306603431702e-01" purity="4.8859095573425293e-01" nType="0">
              <Node pos="l" depth="4" NCoef="0" IVar="6" Cut="4.7966709136962891e+01" cType="1" res="2.2444427013397217e-02" rms="4.5934554934501648e-01" purity="6.5669631958007812e-01" nType="0">
                <Node pos="l" depth="5" NCoef="0" IVar="-1" Cut="0.0000000000000000e+00" cType="1" res="3.1493987888097763e-02" rms="4.5185646414756775e-01" purity="6.7785775661468506e-01" nType="-99"/>
                <Node pos="r" depth="5" NCoef="0" IVar="-1" Cut="0.0000000000000000e+00" cType="1" res="-4.4298521243035793e-04" rms="4.6506926417350769e-01" purity="6.3687473535537720e-01" nType="-99"/>
              </Node>
              <Node pos="r" depth="4" NCoef="0" IVar="2" Cut="1.1027577209472656e+02" cType="1" res="-1.4605795964598656e-02" rms="4.6653419733047485e-01" purity="4.4409662485122681e-01" nType="0">
                <Node pos="l" depth="5" NCoef="0" IVar="-1" Cut="0.0000000000000000e+00" cType="1" res="-1.6223788261413574e-02" rms="4.6479439735412598e-01" purity="4.3512448668479919e-01" nType="-99"/>
                <Node pos="r" depth="5" NCoef="0" IVar="-1" Cut="0.0000000000000000e+00" cType="1" res="1.4685670845210552e-02" rms="4.7767180204391479e-01" purity="5.0970900058746338e-01" nType="-99"/>
              </Node>
            </Node>
            <Node pos="r" depth="3" NCoef="0" IVar="-1" Cut="0.0000000000000000e+00" cType="1" res="4.6613387763500214e-02" rms="4.6316084265708923e-01" purity="4.9960830807685852e-01" nType="-99"/>
          </Node>
        </Node>
        <Node pos="r" depth="1" NCoef="0" IVar="7" Cut="1.3948364257812500e+00" cType="1" res="-1.9953556358814240e-02" rms="4.7034209966659546e-01" purity="4.2528086900711060e-01" nType="0">
          <Node pos="l" depth="2" NCoef="0" IVar="-1" Cut="0.0000000000000000e+00" cType="1" res="-4.6872053295373917e-02" rms="4.6820807456970215e-01" purity="4.5707020163536072e-01" nType="-99"/>
          <Node pos="r" depth="2" NCoef="0" IVar="-1" Cut="0.0000000000000000e+00" cType="1" res="1.6366252675652504e-02" rms="4.6938437223434448e-01" purity="3.9320343732833862e-01" nType="-99"/>
        </Node>
      </Node>
    </BinaryTree>
    <BinaryTree type="DecisionTree" boostWeight="1.0000000000000000e+00" itree="12">
      <Node pos="s" depth="0" NCoef="0" IVar="5" Cut="1.1899094390869141e+02" cType="1" res="3.7132273428142071e-03" rms="4.6215379238128662e-01" purity="5.0000000000000000e-01" nType="0">
        <Node pos="l" depth="1" NCoef="0" IVar="0" Cut="9.7051956176757812e+01" cType="1" res="9.7458073869347572e-03" rms="4.6436327695846558e-01" purity="5.3183364868164062e-01" nType="0">
          <Node pos="l" depth="2" NCoef="0" IVar="0" Cut="3.4326072692871094e+01" cType="1" res="5.7102148421108723e-03" rms="4.6421504020690918e-01" purity="5.3210234642028809e-01" nType="0">
            <Node pos="l" depth="3" NCoef="0" IVar="-1" Cut="0.0000000000000000e+00" cType="1" res="2.8713250532746315e-02" rms="4.4875225424766541e-01" purity="5.9931147098541260e-01" nType="-99"/>
            <Node pos="r" depth="3" NCoef="0" IVar="8" Cut="1.1148235797882080e+00" cType="1" res="3.8846497773192823e-04" rms="4.6642959117889404e-01" purity="5.2131539583206177e-01" nType="0">
              <Node pos="l" depth="4" NCoef="0" IVar="8" Cut="-8.0739635229110718e-01" cType="1" res="9.0591758489608765e-03" rms="4.6361634135246277e-01" purity="5.5403608083724976e-01" nType="0">
                <Node pos="l" depth="5" NCoef="0" IVar="-1" Cut="0.0000000000000000e+00" cType="1" res="-8.2372929900884628e-03" rms="4.7382849454879761e-01" purity="4.7996273636817932e-01" nType="-99"/>
                <Node pos="r" depth="5" NCoef="0" IVar="-1" Cut="0.0000000000000000e+00" cType="1" res="2.8133422136306763e-02" rms="4.4568014144897461e-01" purity="6.6849839687347412e-01" nType="-99"/>
              </Node>
              <Node pos="r" depth="4" NCoef="0" IVar="9" Cut="-7.0946323871612549e-01" cType="1" res="-1.5855414792895317e-02" rms="4.7122561931610107e-01" purity="4.6001586318016052e-01" nType="0">
                <Node pos="l" depth="5" NCoef="0" IVar="-1" Cut="0.0000000000000000e+00" cType="1" res="-2.5700964033603668e-02" rms="4.6476903557777405e-01" purity="4.5582982897758484e-01" nType="-99"/>
                <Node pos="r" depth="5" NCoef="0" IVar="-1" Cut="0.0000000000000000e+00" cType="1" res="-2.8243504930287600e-03" rms="4.7577399015426636e-01" purity="4.6324020624160767e-01" nType="-99"/>
              </Node>
            </Node>
          </Node>
          <Node pos="r" depth="2" NCoef="0" IVar="-1" Cut="0.0000000000000000e+00" cType="1" res="4.1754815727472305e-02" rms="4.6355944871902466e-01" purity="5.2875709533691406e-01" nType="-99"/>
        </Node>
        <Node pos="r" depth="1" NCoef="0" IVar="10" Cut="3.0451306700706482e-01" cType="1" res="-8.5126636549830437e-03" rms="4.5739933848381042e-01" purity="4.3548452854156494e-01" nType="0">
          <Node pos="l" depth="2" NCoef="0" IVar="8" Cut="-3.0405712127685547e-01" cType="1" res="3.1474856659770012e-03" rms="4.5695775747299194e-01" purity="4.5602297782897949e-01" nType="0">
            <Node pos="l" depth="3" NCoef="0" IVar="9" Cut="3.0378741025924683e-01" cType="1" res="-2.5766042992472649e-02" rms="4.5426151156425476e-01" purity="3.7233141064643860e-01" nType="0">
              <Node pos="l" depth="4" NCoef="0" IVar="-1" Cut="0.0000000000000000e+00" cType="1" res="-5.1493663340806961e-02" rms="4.4790703058242798e-01" purity="3.4020110964775085e-01" nType="-99"/>
              <Node pos="r" depth="4" NCoef="0" IVar="-1" Cut="0.0000000000000000e+00" cType="1" res="1.8501011654734612e-03" rms="4.5898425579071045e-01" purity="4.0511497855186462e-01" nType="-99"/>
            </Node>
            <Node pos="r" depth="3" NCoef="0" IVar="-1" Cut="0.0000000000000000e+00" cType="1" res="2.4946980178356171e-02" rms="4.5781263709068298e-01" purity="5.4270029067993164e-01" nType="-99"/>
          </Node>
          <Node pos="r" depth="2" NCoef="0" IVar="10" Cut="1.3112248182296753e+00" cType="1" res="-2.6623414829373360e-02" rms="4.5749545097351074e-01" purity="4.0358373522758484e-01" nType="0">
            <Node pos="l" depth="3" NCoef="0" IVar="-1" Cut="0.0000000000000000e+00" cType="1" res="-4.0100090205669403e-02" rms="4.5300567150115967e-01" purity="3.9442446827888489e-01" nType="-99"/>
            <Node pos="r" depth="3" NCoef="0" IVar="-1" Cut="0.0000000000000000e+00" cType="1" res="-4.8082424327731133e-03" rms="4.6183714270591736e-01" purity="4.1437047719955444e-01" nType="-99"/>
          </Node>
        </Node>
      </Node>
    </BinaryTree>
    <BinaryTree type="DecisionTree" boostWeight="1.0000000000000000e+00" itree="13">
      <Node pos="s" depth="0" NCoef="0" IVar="7" Cut="3.3894689083099365e+00" cType="1" res="3.2288949005305767e-03" rms="4.6153727173805237e-01" purity="5.0000000000000000e-01" nType="0">
        <Node pos="l" depth="1" NCoef="0" IVar="8" Cut="3.0409052968025208e-01" cType="1" res="5.4367664270102978e-03" rms="4.6155914664268494e-01" purity="5.0541341304779053e-01" nType="0">
          <Node pos="l" depth="2" NCoef="0" IVar="8" Cut="-2.5171840190887451e-01" cType="1" res="1.2307050637900829e-02" rms="4.5825973153114319e-01" purity="5.3008347749710083e-01" nType="0">
            <Node pos="l" depth="3" NCoef="0" IVar="8" Cut="-2.1160848140716553e+00" cType="1" res="6.8604620173573494e-04" rms="4.6525177359580994e-01" purity="4.8328974843025208e-01" nType="0">
              <Node pos="l" depth="4" NCoef="0" IVar="7" Cut="2.1359729766845703e+00" cType="1" res="2.1477200090885162e-02" rms="4.7152259945869446e-01" purity="5.0811892747879028e-01" nType="0">
                <Node pos="l" depth="5" NCoef="0" IVar="-1" Cut="0.0000000000000000e+00" cType="1" res="-1.6069227829575539e-02" rms="4.7400534152984619e-01" purity="4.3836292624473572e-01" nType="-99"/>
                <Node pos="r" depth="5" NCoef="0" IVar="-1" Cut="0.0000000000000000e+00" cType="1" res="3.5337958484888077e-02" rms="4.6786507964134216e-01" purity="5.5442577600479126e-01" nType="-99"/>
              </Node>
              <Node pos="r" depth="4" NCoef="0" IVar="0" Cut="8.2664169311523438e+01" cType="1" res="-8.9438315480947495e-03" rms="4.6200156211853027e-01" purity="4.7178962826728821e-01" nType="0">
                <Node pos="l" depth="5" NCoef="0" IVar="-1" Cut="0.0000000000000000e+00" cType="1" res="1.5328779118135571e-03" rms="4.6284708380699158e-01" purity="5.0144785642623901e-01" nType="-99"/>
                <Node pos="r" depth="5" NCoef="0" IVar="-1" Cut="0.0000000000000000e+00" cType="1" res="-3.9175171405076981e-02" rms="4.5765677094459534e-01" purity="3.7870511412620544e-01" nType="-99"/>
              </Node>
            </Node>
            <Node pos="r" depth="3" NCoef="0" IVar="7" Cut="2.1336419582366943e+00" cType="1" res="4.8146456480026245e-02" rms="4.3403542041778564e-01" purity="6.7439621686935425e-01" nType="0">
              <Node pos="l" depth="4" NCoef="0" IVar="-1" Cut="0.0000000000000000e+00" cType="1" res="5.0065774470567703e-02" rms="4.1381317377090454e-01" purity="7.3714971542358398e-01" nType="-99"/>
              <Node pos="r" depth="4" NCoef="0" IVar="-1" Cut="0.0000000000000000e+00" cType="1" res="1.2770810164511204e-02" rms="4.5743310451507568e-01" purity="5.9185409545898438e-01" nType="-99"/>
            </Node>
          </Node>
          <Node pos="r" depth="2" NCoef="0" IVar="1" Cut="3.3393966674804688e+01" cType="1" res="-4.0272297337651253e-03" rms="4.6590006351470947e-01" purity="4.7142985463142395e-01" nType="0">
            <Node pos="l" depth="3" NCoef="0" IVar="-1" Cut="0.0000000000000000e+00" cType="1" res="1.2578137218952179e-02" rms="4.6553397178649902e-01" purity="5.5203634500503540e-01" nType="-99"/>
            <Node pos="r" depth="3" NCoef="0" IVar="8" Cut="2.1346981525421143e+00" cType="1" res="-1.1002710089087486e-02" rms="4.6581441164016724e-01" purity="4.4444227218627930e-01" nType="0">
              <Node pos="l" depth="4" NCoef="0" IVar="10" Cut="3.0422171950340271e-01" cType="1" res="-1.8319310620427132e-02" rms="4.6127939224243164e-01" purity="4.3837118148803711e-01" nType="0">
                <Node pos="l" depth="5" NCoef="0" IVar="-1" Cut="0.0000000000000000e+00" cType="1" res="9.2052919790148735e-03" rms="4.6646299958229065e-01" purity="5.3599530458450317e-01" nType="-99"/>
                <Node pos="r" depth="5" NCoef="0" IVar="-1" Cut="0.0000000000000000e+00" cType="1" res="-2.8632294386625290e-02" rms="4.5827892422676086e-01" purity="3.9452257752418518e-01" nType="-99"/>
              </Node>
              <Node pos="r" depth="4" NCoef="0" IVar="-1" Cut="0.0000000000000000e+00" cType="1" res="5.9501002542674541e-03" rms="4.7655996680259705e-01" purity="4.5975121855735779e-01" nType="-99"/>
            </Node>
          </Node>
        </Node>
        <Node pos="r" depth="1" NCoef="0" IVar="-1" Cut="0.0000000000000000e+00" cType="1" res="-2.4537820369005203e-02" rms="4.6004664897918701e-01" purity="4.2199009656906128e-01" nType="-99"/>
      </Node>
    </BinaryTree>
    <BinaryTree type="DecisionTree" boostWeight="1.0000000000000000e+00" itree="14">
      <Node pos="s" depth="0" NCoef="0" IVar="4" Cut="9.0024780273437500e+02" cType="1" res="2.9980074614286423e-03" rms="4.6094888448715210e-01" purity="5.0000000000000000e-01" nType="0">
        <Node pos="l" depth="1" NCoef="0" IVar="2" Cut="1.4715782165527344e+02" cType="1" res="4.7868490219116211e-03" rms="4.6243923902511597e-01" purity="5.1017194986343384e-01" nType="0">
          <Node pos="l" depth="2" NCoef="0" IVar="3" Cut="2.1604342651367188e+02" cType="1" res="2.5717166718095541e-03" rms="4.6113076806068420e-01" purity="5.1051950454711914e-01" nType="0">
            <Node pos="l" depth="3" NCoef="0" IVar="1" Cut="5.8269062042236328e+01" cType="1" res="1.8581315875053406e-02" rms="4.6442031860351562e-01" purity="6.2404501438140869e-01" nType="0">
              <Node pos="l" depth="4" NCoef="0" IVar="7" Cut="2.2036352157592773e+00" cType="1" res="2.7331899851560593e-02" rms="4.5465964078903198e-01" purity="6.6847860813140869e-01" nType="0">
                <Node pos="l" depth="5" NCoef="0" IVar="-1" Cut="0.0000000000000000e+00" cType="1" res="9.7912810742855072e-03" rms="4.5879653096199036e-01" purity="6.5224033594131470e-01" nType="-99"/>
                <Node pos="r" depth="5" NCoef="0" IVar="-1" Cut="0.0000000000000000e+00" cType="1" res="2.5240136310458183e-02" rms="4.5137417316436768e-01" purity="6.8029707670211792e-01" nType="-99"/>
              </Node>
              <Node pos="r" depth="4" NCoef="0" IVar="-1" Cut="0.0000000000000000e+00" cType="1" res="2.9884770046919584e-03" rms="4.7975999116897583e-01" purity="5.5064547061920166e-01" nType="-99"/>
            </Node>
            <Node pos="r" depth="3" NCoef="0" IVar="7" Cut="3.2275998592376709e+00" cType="1" res="-3.1261648982763290e-03" rms="4.5981982350349426e-01" purity="4.7011530399322510e-01" nType="0">
              <Node pos="l" depth="4" NCoef="0" IVar="6" Cut="1.3554394531250000e+02" cType="1" res="1.1912535410374403e-03" rms="4.5977964997291565e-01" purity="4.8034024238586426e-01" nType="0">
                <Node pos="l" depth="5" NCoef="0" IVar="-1" Cut="0.0000000000000000e+00" cType="1" res="4.3927645310759544e-03" rms="4.5937064290046692e-01" purity="4.8562726378440857e-01" nType="-99"/>
                <Node pos="r" depth="5" NCoef="0" IVar="-1" Cut="0.0000000000000000e+00" cType="1" res="-2.2853476926684380e-02" rms="4.6153789758682251e-01" purity="4.4440531730651855e-01" nType="-99"/>
              </Node>
              <Node pos="r" depth="4" NCoef="0" IVar="-1" Cut="0.0000000000000000e+00" cType="1" res="-3.9794057607650757e-02" rms="4.5822632312774658e-01" purity="3.7436881661415100e-01" nType="-99"/>
            </Node>
          </Node>
          <Node pos="r" depth="2" NCoef="0" IVar="-1" Cut="0.0000000000000000e+00" cType="1" res="3.2640404999256134e-02" rms="4.8282501101493835e-01" purity="5.0418663024902344e-01" nType="-99"/>
        </Node>
        <Node pos="r" depth="1" NCoef="0" IVar="-1" Cut="0.0000000000000000e+00" cType="1" res="-3.1092021614313126e-02" rms="4.3134158849716187e-01" purity="3.1314831972122192e-01" nType="-99"/>
      </Node>
    </BinaryTree>
    <BinaryTree type="DecisionTree" boostWeight="1.0000000000000000e+00" itree="15">
      <Node pos="s" depth="0" NCoef="0" IVar="5" Cut="2.9906597137451172e+01" cType="1" res="2.4394264910370111e-03" rms="4.6066159009933472e-01" purity="5.0000000000000000e-01" nType="0">
        <Node pos="l" depth="1" NCoef="0" IVar="-1" Cut="0.0000000000000000e+00" cType="1" res="-1.9226621836423874e-02" rms="4.7747462987899780e-01" purity="4.8092234134674072e-01" nType="-99"/>
        <Node pos="r" depth="1" NCoef="0" IVar="0" Cut="5.2107570648193359e+01" cType="1" res="4.3937871232628822e-03" rms="4.5936068892478943e-01" purity="5.0137913227081299e-01" nType="0">
          <Node pos="l" depth="2" NCoef="0" IVar="7" Cut="1.8220888376235962e+00" cType="1" res="1.3054027222096920e-02" rms="4.5268106460571289e-01" purity="5.5325651168823242e-01" nType="0">
            <Node pos="l" depth="3" NCoef="0" IVar="10" Cut="-3.0275022983551025e-01" cType="1" res="3.5452164709568024e-02" rms="4.3777146935462952e-01" purity="6.0843563079833984e-01" nType="0">
              <Node pos="l" depth="4" NCoef="0" IVar="-1" Cut="0.0000000000000000e+00" cType="1" res="5.1504345610737801e-03" rms="4.5595020055770874e-01" purity="5.4282659292221069e-01" nType="-99"/>
              <Node pos="r" depth="4" NCoef="0" IVar="-1" Cut="0.0000000000000000e+00" cType="1" res="4.0523417294025421e-02" rms="4.2463487386703491e-01" purity="6.5063381195068359e-01" nType="-99"/>
            </Node>
            <Node pos="r" depth="3" NCoef="0" IVar="1" Cut="4.1250495910644531e+01" cType="1" res="-8.4869726561009884e-04" rms="4.6114656329154968e-01" purity="5.1900625228881836e-01" nType="0">
              <Node pos="l" depth="4" NCoef="0" IVar="-1" Cut="0.0000000000000000e+00" cType="1" res="2.2962555289268494e-02" rms="4.4648677110671997e-01" purity="6.4065885543823242e-01" nType="-99"/>
              <Node pos="r" depth="4" NCoef="0" IVar="8" Cut="5.0770610570907593e-01" cType="1" res="-1.2724359519779682e-02" rms="4.6587055921554565e-01" purity="4.7417894005775452e-01" nType="0">
                <Node pos="l" depth="5" NCoef="0" IVar="-1" Cut="0.0000000000000000e+00" cType="1" res="1.3788840733468533e-03" rms="4.6356421709060669e-01" purity="5.1531219482421875e-01" nType="-99"/>
                <Node pos="r" depth="5" NCoef="0" IVar="-1" Cut="0.0000000000000000e+00" cType="1" res="-3.1461469829082489e-02" rms="4.6863847970962524e-01" purity="4.0743395686149597e-01" nType="-99"/>
              </Node>
            </Node>
          </Node>
          <Node pos="r" depth="2" NCoef="0" IVar="8" Cut="-2.3307635784149170e+00" cType="1" res="-1.6364990733563900e-03" rms="4.6385955810546875e-01" purity="4.6525594592094421e-01" nType="0">
            <Node pos="l" depth="3" NCoef="0" IVar="-1" Cut="0.0000000000000000e+00" cType="1" res="2.6285830885171890e-02" rms="4.6117043495178223e-01" purity="5.3002935647964478e-01" nType="-99"/>
            <Node pos="r" depth="3" NCoef="0" IVar="8" Cut="1.7289798259735107e+00" cType="1" res="-5.7695112191140652e-03" rms="4.6398022770881653e-01" purity="4.5795145630836487e-01" nType="0">
              <Node pos="l" depth="4" NCoef="0" IVar="0" Cut="7.3504005432128906e+01" cType="1" res="-1.2357455678284168e-02" rms="4.6225154399871826e-01" purity="4.5058792829513550e-01" nType="0">
                <Node pos="l" depth="5" NCoef="0" IVar="-1" Cut="0.0000000000000000e+00" cType="1" res="2.8921276680193841e-04" rms="4.6236535906791687e-01" purity="4.9737912416458130e-01" nType="-99"/>
                <Node pos="r" depth="5" NCoef="0" IVar="-1" Cut="0.0000000000000000e+00" cType="1" res="-1.9234281033277512e-02" rms="4.6192568540573120e-01" purity="4.1459611058235168e-01" nType="-99"/>
              </Node>
              <Node pos="r" depth="4" NCoef="0" IVar="-1" Cut="0.0000000000000000e+00" cType="1" res="1.7214739695191383e-02" rms="4.7019937634468079e-01" purity="4.8908090591430664e-01" nType="-99"/>
            </Node>
          </Node>
        </Node>
      </Node>
    </BinaryTree>
    <BinaryTree type="DecisionTree" boostWeight="1.0000000000000000e+00" itree="16">
      <Node pos="s" depth="0" NCoef="0" IVar="0" Cut="1.4053634643554688e+02" cType="1" res="2.1495951805263758e-03" rms="4.6025308966636658e-01" purity="5.0000000000000000e-01" nType="0">
        <Node pos="l" depth="1" NCoef="0" IVar="0" Cut="3.3565910339355469e+01" cType="1" res="3.2331442344002426e-04" rms="4.6010723710060120e-01" purity="5.0404983758926392e-01" nType="0">
          <Node pos="l" depth="2" NCoef="0" IVar="-1" Cut="0.0000000000000000e+00" cType="1" res="2.1673593670129776e-02" rms="4.4556951522827148e-01" purity="5.9327280521392822e-01" nType="-99"/>
          <Node pos="r" depth="2" NCoef="0" IVar="7" Cut="8.9066416025161743e-01" cType="1" res="-2.5019177701324224e-03" rms="4.6144959330558777e-01" purity="4.9507498741149902e-01" nType="0">
            <Node pos="l" depth="3" NCoef="0" IVar="-1" Cut="0.0000000000000000e+00" cType="1" res="1.8996156752109528e-02" rms="4.4559305906295776e-01" purity="5.8695793151855469e-01" nType="-99"/>
            <Node pos="r" depth="3" NCoef="0" IVar="6" Cut="2.3431468963623047e+01" cType="1" res="-4.7993026673793793e-03" rms="4.6267250180244446e-01" purity="4.8741695284843445e-01" nType="0">
              <Node pos="l" depth="4" NCoef="0" IVar="-1" Cut="0.0000000000000000e+00" cType="1" res="2.0863607525825500e-02" rms="4.6600049734115601e-01" purity="5.3273051977157593e-01" nType="-99"/>
              <Node pos="r" depth="4" NCoef="0" IVar="7" Cut="2.7115995883941650e+00" cType="1" res="-7.7276970259845257e-03" rms="4.6225687861442566e-01" purity="4.8328551650047302e-01" nType="0">
                <Node pos="l" depth="5" NCoef="0" IVar="-1" Cut="0.0000000000000000e+00" cType="1" res="-2.7730038855224848e-03" rms="4.6209394931793213e-01" purity="4.9532002210617065e-01" nType="-99"/>
                <Node pos="r" depth="5" NCoef="0" IVar="-1" Cut="0.0000000000000000e+00" cType="1" res="-1.4935716055333614e-02" rms="4.6248531341552734e-01" purity="4.5454350113868713e-01" nType="-99"/>
              </Node>
            </Node>
          </Node>
        </Node>
        <Node pos="r" depth="1" NCoef="0" IVar="-1" Cut="0.0000000000000000e+00" cType="1" res="2.4431874975562096e-02" rms="4.6156054735183716e-01" purity="4.4026428461074829e-01" nType="-99"/>
      </Node>
    </BinaryTree>
    <BinaryTree type="DecisionTree" boostWeight="1.0000000000000000e+00" itree="17">
      <Node pos="s" depth="0" NCoef="0" IVar="1" Cut="1.3443351745605469e+02" cType="1" res="1.5509376535192132e-03" rms="4.6007525920867920e-01" purity="5.0000000000000000e-01" nType="0">
        <Node pos="l" depth="1" NCoef="0" IVar="0" Cut="1.1842915344238281e+02" cType="1" res="3.1954359728842974e-03" rms="4.6130660176277161e-01" purity="5.1366388797760010e-01" nType="0">
          <Node pos="l" depth="2" NCoef="0" IVar="8" Cut="-9.1198122501373291e-01" cType="1" res="3.5863567609339952e-04" rms="4.6084117889404297e-01" purity="5.1832461357116699e-01" nType="0">
            <Node pos="l" depth="3" NCoef="0" IVar="0" Cut="6.4221572875976562e+01" cType="1" res="-1.2015612795948982e-02" rms="4.7127303481101990e-01" purity="4.7181293368339539e-01" nType="0">
              <Node pos="l" depth="4" NCoef="0" IVar="4" Cut="3.6222415161132812e+02" cType="1" res="-2.0569311454892159e-02" rms="4.7327256202697754e-01" purity="4.7038832306861877e-01" nType="0">
                <Node pos="l" depth="5" NCoef="0" IVar="-1" Cut="0.0000000000000000e+00" cType="1" res="-4.4619315303862095e-03" rms="4.8135784268379211e-01" purity="5.7854729890823364e-01" nType="-99"/>
                <Node pos="r" depth="5" NCoef="0" IVar="-1" Cut="0.0000000000000000e+00" cType="1" res="-2.9016058892011642e-02" rms="4.6586123108863831e-01" purity="3.7738132476806641e-01" nType="-99"/>
              </Node>
              <Node pos="r" depth="4" NCoef="0" IVar="-1" Cut="0.0000000000000000e+00" cType="1" res="3.4136411268264055e-03" rms="4.6700838208198547e-01" purity="4.7452580928802490e-01" nType="-99"/>
            </Node>
            <Node pos="r" depth="3" NCoef="0" IVar="8" Cut="3.9578095078468323e-01" cType="1" res="6.4038564451038837e-03" rms="4.5553588867187500e-01" purity="5.4104709625244141e-01" nType="0">
              <Node pos="l" depth="4" NCoef="0" IVar="7" Cut="2.7394723892211914e+00" cType="1" res="3.1271655112504959e-02" rms="4.3859070539474487e-01" purity="6.4395999908447266e-01" nType="0">
                <Node pos="l" depth="5" NCoef="0" IVar="-1" Cut="0.0000000000000000e+00" cType="1" res="3.2877005636692047e-02" rms="4.2922353744506836e-01" purity="6.7794847488403320e-01" nType="-99"/>
                <Node pos="r" depth="5" NCoef="0" IVar="-1" Cut="0.0000000000000000e+00" cType="1" res="-4.6850442886352539e-03" rms="4.6208989620208740e-01" purity="5.4760098457336426e-01" nType="-99"/>
              </Node>
              <Node pos="r" depth="4" NCoef="0" IVar="5" Cut="9.0998329162597656e+01" cType="1" res="-9.6977036446332932e-03" rms="4.6547117829322815e-01" purity="4.7441235184669495e-01" nType="0">
                <Node pos="l" depth="5" NCoef="0" IVar="-1" Cut="0.0000000000000000e+00" cType="1" res="-5.9184682322666049e-04" rms="4.6926307678222656e-01" purity="5.0663113594055176e-01" nType="-99"/>
                <Node pos="r" depth="5" NCoef="0" IVar="-1" Cut="0.0000000000000000e+00" cType="1" res="-2.2791121155023575e-02" rms="4.5801538228988647e-01" purity="4.1557154059410095e-01" nType="-99"/>
              </Node>
            </Node>
          </Node>
          <Node pos="r" depth="2" NCoef="0" IVar="-1" Cut="0.0000000000000000e+00" cType="1" res="2.3067874833941460e-02" rms="4.6469393372535706e-01" purity="4.7174456715583801e-01" nType="-99"/>
        </Node>
        <Node pos="r" depth="1" NCoef="0" IVar="-1" Cut="0.0000000000000000e+00" cType="1" res="-1.5946455299854279e-02" rms="4.4635230302810669e-01" purity="3.5424584150314331e-01" nType="-99"/>
      </Node>
    </BinaryTree>
    <BinaryTree type="DecisionTree" boostWeight="1.0000000000000000e+00" itree="18">
      <Node pos="s" depth="0" NCoef="0" IVar="6" Cut="3.7195167541503906e+01" cType="1" res="1.6657235100865364e-03" rms="4.5970445871353149e-01" purity="5.0000000000000000e-01" nType="0">
        <Node pos="l" depth="1" NCoef="0" IVar="2" Cut="3.8461891174316406e+01" cType="1" res="1.5922084450721741e-02" rms="4.6427637338638306e-01" purity="5.2083313465118408e-01" nType="0">
          <Node pos="l" depth="2" NCoef="0" IVar="-1" Cut="0.0000000000000000e+00" cType="1" res="1.2232600711286068e-03" rms="4.5978042483329773e-01" purity="4.1848969459533691e-01" nType="-99"/>
          <Node pos="r" depth="2" NCoef="0" IVar="-1" Cut="0.0000000000000000e+00" cType="1" res="1.7268327996134758e-02" rms="4.6636384725570679e-01" purity="5.7264494895935059e-01" nType="-99"/>
        </Node>
        <Node pos="r" depth="1" NCoef="0" IVar="9" Cut="2.1279397010803223e+00" cType="1" res="-1.0582774411886930e-03" rms="4.5877531170845032e-01" purity="4.9601933360099792e-01" nType="0">
          <Node pos="l" depth="2" NCoef="0" IVar="9" Cut="-5.9181100130081177e-01" cType="1" res="1.6739316051825881e-03" rms="4.5863559842109680e-01" purity="5.0778418779373169e-01" nType="0">
            <Node pos="l" depth="3" NCoef="0" IVar="8" Cut="1.7226567268371582e+00" cType="1" res="-9.2618521302938461e-03" rms="4.5812505483627319e-01" purity="4.6574857831001282e-01" nType="0">
              <Node pos="l" depth="4" NCoef="0" IVar="8" Cut="-3.3667702227830887e-03" cType="1" res="-5.1028453744947910e-03" rms="4.5611500740051270e-01" purity="4.7031927108764648e-01" nType="0">
                <Node pos="l" depth="5" NCoef="0" IVar="-1" Cut="0.0000000000000000e+00" cType="1" res="-1.3514424674212933e-02" rms="4.5704874396324158e-01" purity="4.4291502237319946e-01" nType="-99"/>
                <Node pos="r" depth="5" NCoef="0" IVar="-1" Cut="0.0000000000000000e+00" cType="1" res="8.0334478989243507e-03" rms="4.5439457893371582e-01" purity="5.0848317146301270e-01" nType="-99"/>
              </Node>
              <Node pos="r" depth="4" NCoef="0" IVar="-1" Cut="0.0000000000000000e+00" cType="1" res="-2.2473391145467758e-02" rms="4.6639138460159302e-01" purity="4.4572588801383972e-01" nType="-99"/>
            </Node>
            <Node pos="r" depth="3" NCoef="0" IVar="9" Cut="5.4876613616943359e-01" cType="1" res="1.0870569385588169e-02" rms="4.5886278152465820e-01" purity="5.4313480854034424e-01" nType="0">
              <Node pos="l" depth="4" NCoef="0" IVar="1" Cut="5.8346405029296875e+01" cType="1" res="2.2819600999355316e-02" rms="4.5800971984863281e-01" purity="5.8743238449096680e-01" nType="0">
                <Node pos="l" depth="5" NCoef="0" IVar="-1" Cut="0.0000000000000000e+00" cType="1" res="3.9646569639444351e-03" rms="4.5735406875610352e-01" purity="6.0405445098876953e-01" nType="-99"/>
                <Node pos="r" depth="5" NCoef="0" IVar="-1" Cut="0.0000000000000000e+00" cType="1" res="2.8882596641778946e-02" rms="4.5802909135818481e-01" purity="5.7247978448867798e-01" nType="-99"/>
              </Node>
              <Node pos="r" depth="4" NCoef="0" IVar="8" Cut="1.0071468353271484e-01" cType="1" res="-4.0354052907787263e-04" rms="4.5938134193420410e-01" purity="5.0133925676345825e-01" nType="0">
                <Node pos="l" depth="5" NCoef="0" IVar="-1" Cut="0.0000000000000000e+00" cType="1" res="1.3968482613563538e-02" rms="4.5662277936935425e-01" purity="5.4507321119308472e-01" nType="-99"/>
                <Node pos="r" depth="5" NCoef="0" IVar="-1" Cut="0.0000000000000000e+00" cType="1" res="-2.2865299135446548e-02" rms="4.6200874447822571e-01" purity="4.3950879573822021e-01" nType="-99"/>
              </Node>
            </Node>
          </Node>
          <Node pos="r" depth="2" NCoef="0" IVar="2" Cut="5.3765617370605469e+01" cType="1" res="-1.5385138802230358e-02" rms="4.5924127101898193e-01" purity="4.3432822823524475e-01" nType="0">
            <Node pos="l" depth="3" NCoef="0" IVar="-1" Cut="0.0000000000000000e+00" cType="1" res="-5.3634658455848694e-02" rms="4.3839117884635925e-01" purity="3.3608022332191467e-01" nType="-99"/>
            <Node pos="r" depth="3" NCoef="0" IVar="-1" Cut="0.0000000000000000e+00" cType="1" res="8.2325367256999016e-03" rms="4.7070765495300293e-01" purity="4.9914544820785522e-01" nType="-99"/>
          </Node>
        </Node>
      </Node>
    </BinaryTree>
    <BinaryTree type="DecisionTree" boostWeight="1.0000000000000000e+00" itree="19">
      <Node pos="s" depth="0" NCoef="0" IVar="6" Cut="1.8530424499511719e+02" cType="1" res="1.5713112661615014e-03" rms="4.5935371518135071e-01" purity="5.0000000000000000e-01" nType="0">
        <Node pos="l" depth="1" NCoef="0" IVar="7" Cut="1.0649267435073853e+00" cType="1" res="2.9181018471717834e-03" rms="4.5851776003837585e-01" purity="5.0572240352630615e-01" nType="0">
          <Node pos="l" depth="2" NCoef="0" IVar="-1" Cut="0.0000000000000000e+00" cType="1" res="2.2460173815488815e-02" rms="4.3661022186279297e-01" purity="6.0767906904220581e-01" nType="-99"/>
          <Node pos="r" depth="2" NCoef="0" IVar="3" Cut="5.9261291503906250e+02" cType="1" res="-6.9846864789724350e-05" rms="4.6084702014923096e-01" purity="4.9413380026817322e-01" nType="0">
            <Node pos="l" depth="3" NCoef="0" IVar="2" Cut="1.1857131195068359e+02" cType="1" res="2.0614471286535263e-03" rms="4.6330934762954712e-01" purity="5.1046550273895264e-01" nType="0">
              <Node pos="l" depth="4" NCoef="0" IVar="5" Cut="1.4322196960449219e+02" cType="1" res="-1.0109122376888990e-03" rms="4.6194502711296082e-01" purity="5.0726217031478882e-01" nType="0">
                <Node pos="l" depth="5" NCoef="0" IVar="-1" Cut="0.0000000000000000e+00" cType="1" res="2.1378328092396259e-03" rms="4.6300283074378967e-01" purity="5.3147721290588379e-01" nType="-99"/>
                <Node pos="r" depth="5" NCoef="0" IVar="-1" Cut="0.0000000000000000e+00" cType="1" res="-1.8739383667707443e-02" rms="4.5603087544441223e-01" purity="3.8379427790641785e-01" nType="-99"/>
              </Node>
              <Node pos="r" depth="4" NCoef="0" IVar="-1" Cut="0.0000000000000000e+00" cType="1" res="2.5162126868963242e-02" rms="4.7632285952568054e-01" purity="5.4444468021392822e-01" nType="-99"/>
            </Node>
            <Node pos="r" depth="3" NCoef="0" IVar="-1" Cut="0.0000000000000000e+00" cType="1" res="-3.2908305525779724e-02" rms="4.2539113759994507e-01" purity="2.7492624521255493e-01" nType="-99"/>
          </Node>
        </Node>
        <Node pos="r" depth="1" NCoef="0" IVar="-1" Cut="0.0000000000000000e+00" cType="1" res="-1.8962657079100609e-02" rms="4.7276616096496582e-01" purity="4.0261489152908325e-01" nType="-99"/>
      </Node>
    </BinaryTree>
    <BinaryTree type="DecisionTree" boostWeight="1.0000000000000000e+00" itree="20">
      <Node pos="s" depth="0" NCoef="0" IVar="6" Cut="7.4222434997558594e+01" cType="1" res="1.4556677779182792e-03" rms="4.5916897058486938e-01" purity="5.0000000000000000e-01" nType="0">
        <Node pos="l" depth="1" NCoef="0" IVar="7" Cut="2.4061913490295410e+00" cType="1" res="6.0927327722311020e-03" rms="4.5990014076232910e-01" purity="5.0971204042434692e-01" nType="0">
          <Node pos="l" depth="2" NCoef="0" IVar="2" Cut="3.9586803436279297e+01" cType="1" res="2.0343089476227760e-02" rms="4.5187708735466003e-01" purity="5.3599542379379272e-01" nType="0">
            <Node pos="l" depth="3" NCoef="0" IVar="-1" Cut="0.0000000000000000e+00" cType="1" res="2.0432530436664820e-03" rms="4.5364466309547424e-01" purity="4.5619729161262512e-01" nType="-99"/>
            <Node pos="r" depth="3" NCoef="0" IVar="-1" Cut="0.0000000000000000e+00" cType="1" res="2.9826654121279716e-02" rms="4.4904020428657532e-01" purity="6.2530994415283203e-01" nType="-99"/>
          </Node>
          <Node pos="r" depth="2" NCoef="0" IVar="0" Cut="8.0350120544433594e+01" cType="1" res="-9.4039150280877948e-04" rms="4.6364730596542358e-01" purity="4.9674007296562195e-01" nType="0">
            <Node pos="l" depth="3" NCoef="0" IVar="6" Cut="4.0773906707763672e+01" cType="1" res="-8.6909849196672440e-03" rms="4.6381595730781555e-01" purity="4.9235859513282776e-01" nType="0">
              <Node pos="l" depth="4" NCoef="0" IVar="10" Cut="9.1162735223770142e-01" cType="1" res="2.3981726262718439e-03" rms="4.6285742521286011e-01" purity="5.0912559032440186e-01" nType="0">
                <Node pos="l" depth="5" NCoef="0" IVar="-1" Cut="0.0000000000000000e+00" cType="1" res="9.1599021106958389e-03" rms="4.6256345510482788e-01" purity="5.1644140481948853e-01" nType="-99"/>
                <Node pos="r" depth="5" NCoef="0" IVar="-1" Cut="0.0000000000000000e+00" cType="1" res="-1.2576529756188393e-02" rms="4.6290668845176697e-01" purity="4.9507543444633484e-01" nType="-99"/>
              </Node>
              <Node pos="r" depth="4" NCoef="0" IVar="-1" Cut="0.0000000000000000e+00" cType="1" res="-2.1905351430177689e-02" rms="4.6479508280754089e-01" purity="4.6555048227310181e-01" nType="-99"/>
            </Node>
            <Node pos="r" depth="3" NCoef="0" IVar="-1" Cut="0.0000000000000000e+00" cType="1" res="1.9653659313917160e-02" rms="4.6210643649101257e-01" purity="5.1160889863967896e-01" nType="-99"/>
          </Node>
        </Node>
        <Node pos="r" depth="1" NCoef="0" IVar="10" Cut="1.7224874496459961e+00" cType="1" res="-2.7848430909216404e-03" rms="4.5845824480056763e-01" purity="4.9111852049827576e-01" nType="0">
          <Node pos="l" depth="2" NCoef="0" IVar="10" Cut="-1.8862736225128174e+00" cType="1" res="-7.0785810239613056e-03" rms="4.5532524585723877e-01" purity="4.9672529101371765e-01" nType="0">
            <Node pos="l" depth="3" NCoef="0" IVar="-1" Cut="0.0000000000000000e+00" cType="1" res="1.0334993712604046e-02" rms="4.6878483891487122e-01" purity="4.6151688694953918e-01" nType="-99"/>
            <Node pos="r" depth="3" NCoef="0" IVar="0" Cut="7.4221084594726562e+01" cType="1" res="-1.2539751827716827e-02" rms="4.5138713717460632e-01" purity="5.0644266605377197e-01" nType="0">
              <Node pos="l" depth="4" NCoef="0" IVar="7" Cut="1.6195695400238037e+00" cType="1" res="4.7010248526930809e-03" rms="4.4640505313873291e-01" purity="5.8830416202545166e-01" nType="0">
                <Node pos="l" depth="5" NCoef="0" IVar="-1" Cut="0.0000000000000000e+00" cType="1" res="1.8450966104865074e-02" rms="4.2939993739128113e-01" purity="6.4912080764770508e-01" nType="-99"/>
                <Node pos="r" depth="5" NCoef="0" IVar="-1" Cut="0.0000000000000000e+00" cType="1" res="-1.9133668392896652e-02" rms="4.6916806697845459e-01" purity="4.9764487147331238e-01" nType="-99"/>
              </Node>
              <Node pos="r" depth="4" NCoef="0" IVar="6" Cut="1.2234121704101562e+02" cType="1" res="-3.4803025424480438e-02" rms="4.5677867531776428e-01" purity="4.0073364973068237e-01" nType="0">
                <Node pos="l" depth="5" NCoef="0" IVar="-1" Cut="0.0000000000000000e+00" cType="1" res="-1.5752702951431274e-02" rms="4.5621451735496521e-01" purity="4.1122555732727051e-01" nType="-99"/>
                <Node pos="r" depth="5" NCoef="0" IVar="-1" Cut="0.0000000000000000e+00" cType="1" res="-4.4524896889925003e-02" rms="4.5674452185630798e-01" purity="3.9147782325744629e-01" nType="-99"/>
              </Node>
            </Node>
          </Node>
          <Node pos="r" depth="2" NCoef="0" IVar="8" Cut="1.7221938371658325e+00" cType="1" res="1.4844085089862347e-02" rms="4.7069275379180908e-01" purity="4.6809867024421692e-01" nType="0">
            <Node pos="l" depth="3" NCoef="0" IVar="-1" Cut="0.0000000000000000e+00" cType="1" res="5.2189701818861067e-05" rms="4.6777907013893127e-01" purity="4.6989497542381287e-01" nType="-99"/>
            <Node pos="r" depth="3" NCoef="0" IVar="-1" Cut="0.0000000000000000e+00" cType="1" res="2.3740431293845177e-02" rms="4.7310629487037659e-01" purity="4.6631935238838196e-01" nType="-99"/>
          </Node>
        </Node>
      </Node>
    </BinaryTree>
    <BinaryTree type="DecisionTree" boostWeight="1.0000000000000000e+00" itree="21">
      <Node pos="s" depth="0" NCoef="0" IVar="0" Cut="1.4053634643554688e+02" cType="1" res="1.3762022135779262e-03" rms="4.5877468585968018e-01" purity="5.0000000000000000e-01" nType="0">
        <Node pos="l" depth="1" NCoef="0" IVar="8" Cut="-5.0662398338317871e-01" cType="1" res="1.5557806182187051e-04" rms="4.5881274342536926e-01" purity="5.0404983758926392e-01" nType="0">
          <Node pos="l" depth="2" NCoef="0" IVar="5" Cut="1.0836601257324219e+02" cType="1" res="-7.2073708288371563e-03" rms="4.6530011296272278e-01" purity="4.6877443790435791e-01" nType="0">
            <Node pos="l" depth="3" NCoef="0" IVar="8" Cut="-1.3567807674407959e+00" cType="1" res="-2.7168123051524162e-03" rms="4.6906614303588867e-01" purity="5.0831139087677002e-01" nType="0">
              <Node pos="l" depth="4" NCoef="0" IVar="0" Cut="6.2083827972412109e+01" cType="1" res="-8.1836506724357605e-03" rms="4.7162923216819763e-01" purity="4.8599061369895935e-01" nType="0">
                <Node pos="l" depth="5" NCoef="0" IVar="-1" Cut="0.0000000000000000e+00" cType="1" res="-1.6047358512878418e-02" rms="4.7371840476989746e-01" purity="4.6807545423507690e-01" nType="-99"/>
                <Node pos="r" depth="5" NCoef="0" IVar="-1" Cut="0.0000000000000000e+00" cType="1" res="9.1163832694292068e-03" rms="4.6742835640907288e-01" purity="5.1589387655258179e-01" nType="-99"/>
              </Node>
              <Node pos="r" depth="4" NCoef="0" IVar="-1" Cut="0.0000000000000000e+00" cType="1" res="1.1094037443399429e-02" rms="4.6027514338493347e-01" purity="5.8018499612808228e-01" nType="-99"/>
            </Node>
            <Node pos="r" depth="3" NCoef="0" IVar="-1" Cut="0.0000000000000000e+00" cType="1" res="-1.8813729286193848e-02" rms="4.5452219247817993e-01" purity="3.5973471403121948e-01" nType="-99"/>
          </Node>
          <Node pos="r" depth="2" NCoef="0" IVar="8" Cut="1.9952675700187683e-01" cType="1" res="4.8437207005918026e-03" rms="4.5457172393798828e-01" purity="5.2651047706604004e-01" nType="0">
            <Node pos="l" depth="3" NCoef="0" IVar="0" Cut="5.4957813262939453e+01" cType="1" res="2.8943698853254318e-02" rms="4.3384057283401489e-01" purity="6.5453779697418213e-01" nType="0">
              <Node pos="l" depth="4" NCoef="0" IVar="-1" Cut="0.0000000000000000e+00" cType="1" res="3.4402143210172653e-02" rms="4.0829902887344360e-01" purity="7.4909627437591553e-01" nType="-99"/>
              <Node pos="r" depth="4" NCoef="0" IVar="-1" Cut="0.0000000000000000e+00" cType="1" res="7.7493097633123398e-03" rms="4.6087035536766052e-01" purity="5.4531180858612061e-01" nType="-99"/>
            </Node>
            <Node pos="r" depth="3" NCoef="0" IVar="3" Cut="1.8440780639648438e+02" cType="1" res="-4.0807914920151234e-03" rms="4.6169367432594299e-01" purity="4.7910037636756897e-01" nType="0">
              <Node pos="l" depth="4" NCoef="0" IVar="-1" Cut="0.0000000000000000e+00" cType="1" res="1.1794039048254490e-02" rms="4.6837925910949707e-01" purity="6.1898678541183472e-01" nType="-99"/>
              <Node pos="r" depth="4" NCoef="0" IVar="8" Cut="1.2434490919113159e+00" cType="1" res="-7.6379785314202309e-03" rms="4.6045169234275818e-01" purity="4.5529189705848694e-01" nType="0">
                <Node pos="l" depth="5" NCoef="0" IVar="-1" Cut="0.0000000000000000e+00" cType="1" res="2.2214986383914948e-03" rms="4.5070275664329529e-01" purity="5.0037741661071777e-01" nType="-99"/>
                <Node pos="r" depth="5" NCoef="0" IVar="-1" Cut="0.0000000000000000e+00" cType="1" res="-1.3924985192716122e-02" rms="4.6839967370033264e-01" purity="4.1698372364044189e-01" nType="-99"/>
              </Node>
            </Node>
          </Node>
        </Node>
